{"learner":{"attributes":{"best_iteration":"99","best_ntree_limit":"100","scikit_learn":"{\"use_label_encoder\": true, \"n_estimators\": 100, \"objective\": \"binary:logistic\", \"max_depth\": null, \"learning_rate\": null, \"verbosity\": null, \"booster\": null, \"tree_method\": null, \"gamma\": null, \"min_child_weight\": null, \"max_delta_step\": null, \"subsample\": null, \"colsample_bytree\": null, \"colsample_bylevel\": null, \"colsample_bynode\": null, \"reg_alpha\": null, \"reg_lambda\": null, \"scale_pos_weight\": null, \"base_score\": null, \"missing\": NaN, \"num_parallel_tree\": null, \"random_state\": null, \"n_jobs\": null, \"monotone_constraints\": null, \"interaction_constraints\": null, \"importance_type\": null, \"gpu_id\": null, \"validate_parameters\": null, \"predictor\": null, \"enable_categorical\": false, \"classes_\": [0, 1], \"n_classes_\": 2, \"_le\": {\"classes_\": [0, 1]}, \"_estimator_type\": \"classifier\"}"},"feature_names":[],"feature_types":[],"gradient_booster":{"model":{"gbtree_model_param":{"num_trees":"100","size_leaf_vector":"0"},"tree_info":[0,0,0,0,0,0,0,0,0,0,0,0,0,0,0,0,0,0,0,0,0,0,0,0,0,0,0,0,0,0,0,0,0,0,0,0,0,0,0,0,0,0,0,0,0,0,0,0,0,0,0,0,0,0,0,0,0,0,0,0,0,0,0,0,0,0,0,0,0,0,0,0,0,0,0,0,0,0,0,0,0,0,0,0,0,0,0,0,0,0,0,0,0,0,0,0,0,0,0,0],"trees":[{"base_weights":[5.0444048E-2,-1.6109015E0,1.2699292E0,-1.724075E0,-3.4E-1,1.5362532E0,-8.955224E-2,6.896552E-2,-1.7695551E0,-7.5E-1,3.6842105E-1,9.977728E-1,1.7981349E0,-1.2985075E0,1.1029412E0,-1E0,9.411765E-1,-1.853606E0,-1.1886121E0,4E-1,-9.9065423E-1,-1.904762E-1,9.4736844E-1,1.2581602E0,2.1052632E-1,2.857143E-1,1.8668962E0,7.826087E-1,-1.4698795E0,4E-1,1.2777778E0,-1.4545455E0,4E-1,-0E0,1.2307693E0,-1.8995913E0,-1.2751678E0,-3.448276E-1,-1.3832599E0,8E-1,-6.666667E-1,-1.3157895E0,-1.7142858E-1,-4.2105263E-1,1E0,1.0588236E0,-0E0,4.587156E-1,1.4024605E0,-2.2222222E-1,6.434783E-1,-3.0508474E-1,1.4482758E0,1.8914549E0,-1.4666667E0,-0E0,1.2E0,-1.718593E0,-4.4444445E-1,7.826087E-1,-6.666667E-1,8.77193E-1,1.6603774E0,5E-1,-5E-1,1.4545455E0,-0E0,-5E-1,-1.9016969E0,-1.382353E0,-1.1764706E-1,-7.906977E-1,7.368421E-1,-1.5789474E0,-7.3333335E-1,-4E-1,1.4285715E0,-1.4366198E0,2.2222222E-1,-4E-1,6.666667E-1,-0E0,-1.1428572E0,4E-1,1.3043479E0,6.666667E-1,-1.1428572E0,1.5E0,4.918033E-1,-5.6842107E-1,1.0769231E0,1.6949153E-1,1.0666667E0,1.2727273E0,-6.1538464E-1,1.9606657E0,1.6521739E0,-5E-1,5E-1,-1.8181819E-1,-1.7708334E0,1.1764706E-1,-1.1666666E0,1.2E0,2.4E-1,-1.0769231E0,2.2222222E-1,4E-1,1.3103448E0,8.235294E-1,1.7419355E0],"categories":[],"categories_nodes":[],"categories_segments":[],"categories_sizes":[],"default_left":[true,true,true,true,true,true,true,true,true,true,true,true,true,true,true,true,true,true,true,true,true,true,true,true,true,true,true,true,true,true,true,false,false,true,true,true,true,true,true,true,false,true,true,true,false,true,false,true,true,true,true,true,false,true,false,true,false,true,true,true,true,true,true,false,false,false,false,false,false,false,false,false,false,false,false,false,false,false,false,false,false,false,false,false,false,false,false,false,false,false,false,false,false,false,false,false,false,false,false,false,false,false,false,false,false,false,false,false,false,false,false],"id":0,"left_children":[1,3,5,7,9,11,13,15,17,19,21,23,25,27,29,31,33,35,37,39,41,43,45,47,49,51,53,55,57,59,61,-1,-1,63,65,67,69,71,73,75,-1,77,79,81,-1,83,-1,85,87,89,91,93,-1,95,-1,97,-1,99,101,103,105,107,109,-1,-1,-1,-1,-1,-1,-1,-1,-1,-1,-1,-1,-1,-1,-1,-1,-1,-1,-1,-1,-1,-1,-1,-1,-1,-1,-1,-1,-1,-1,-1,-1,-1,-1,-1,-1,-1,-1,-1,-1,-1,-1,-1,-1,-1,-1,-1,-1],"loss_changes":[2.8536213E3,8.517383E1,2.9422278E2,4.4749023E1,1.4798946E1,9.399243E1,1.946161E2,1.4460445E1,2.3859253E1,9.2523365E0,6.3283215E0,4.5755173E1,4.686267E1,2.504557E1,7.846077E0,5.0363636E0,2.3167424E0,9.933228E0,1.1060928E1,3.1999998E0,6.899542E0,3.3032582E0,1.0030956E0,1.879483E1,1.0822476E1,1.4865493E1,3.8448242E1,1.8782609E0,1.5112396E1,6.643478E0,6.819763E0,0E0,0E0,1E0,1.7902098E0,3.1115723E-1,4.4589424E0,7.5757394E0,6.0597153E0,4.3428574E0,0E0,3.8501778E0,1.9428571E0,2.8872182E0,0E0,8.5319805E-1,0E0,9.837483E0,1.1897675E1,1.3767701E1,5.586049E0,8.004742E0,0E0,3.9315186E0,0E0,1E0,0E0,3.6720428E0,5.617647E0,2.3165212E0,1.880342E0,5.366726E0,3.7413788E-1,0E0,0E0,0E0,0E0,0E0,0E0,0E0,0E0,0E0,0E0,0E0,0E0,0E0,0E0,0E0,0E0,0E0,0E0,0E0,0E0,0E0,0E0,0E0,0E0,0E0,0E0,0E0,0E0,0E0,0E0,0E0,0E0,0E0,0E0,0E0,0E0,0E0,0E0,0E0,0E0,0E0,0E0,0E0,0E0,0E0,0E0,0E0,0E0],"parents":[2147483647,0,0,1,1,2,2,3,3,4,4,5,5,6,6,7,7,8,8,9,9,10,10,11,11,12,12,13,13,14,14,15,15,16,16,17,17,18,18,19,19,20,20,21,21,22,22,23,23,24,24,25,25,26,26,27,27,28,28,29,29,30,30,33,33,34,34,35,35,36,36,37,37,38,38,39,39,41,41,42,42,43,43,45,45,47,47,48,48,49,49,50,50,51,51,53,53,55,55,57,57,58,58,59,59,60,60,61,61,62,62],"right_children":[2,4,6,8,10,12,14,16,18,20,22,24,26,28,30,32,34,36,38,40,42,44,46,48,50,52,54,56,58,60,62,-1,-1,64,66,68,70,72,74,76,-1,78,80,82,-1,84,-1,86,88,90,92,94,-1,96,-1,98,-1,100,102,104,106,108,110,-1,-1,-1,-1,-1,-1,-1,-1,-1,-1,-1,-1,-1,-1,-1,-1,-1,-1,-1,-1,-1,-1,-1,-1,-1,-1,-1,-1,-1,-1,-1,-1,-1,-1,-1,-1,-1,-1,-1,-1,-1,-1,-1,-1,-1,-1,-1,-1],"split_conditions":[-2.305407E-1,6.432543E-1,6.3986146E-1,-2.074986E0,-4.5076352E-1,-2.537097E-1,2.576221E0,-5.3995234E-1,-3.4563252E-1,-1.9880144E-1,1.4394392E0,6.9238615E-1,-1.4110518E-1,-3.16063E-1,2.6547537E0,-1.9177014E-1,-3.1260338E-1,1.1032788E0,-2.9261065E-1,-2.4899305E-1,7.861954E-1,-2.7690858E-1,9.738139E-1,-1.4688566E-1,-2.3254913E-1,4.8401728E-1,1.0676231E0,-6.704508E-1,5.6363577E-1,1.0207185E0,-2.5331882E-1,-4.3636367E-1,1.20000005E-1,-3.179649E-1,-1.1090066E-1,-6.939787E0,3.247803E-1,-2.3116112E-1,-7.331215E-2,-2.6969248E-1,-2.0000002E-1,2.5250173E0,2.3550518E0,-1.5047395E-1,3E-1,1.9569594E0,-0E0,1.06785215E-1,3.9386505E-1,-2.1994042E-1,-2.6627874E-1,-1.2307029E0,4.3448275E-1,6.454816E-1,-4.4000003E-1,-9.4927526E-1,3.6E-1,7.2032285E-1,-2.551299E-1,-2.65193E-1,-2.4952143E-1,6.306342E-3,-7.1026003E-1,1.5E-1,-1.5E-1,4.3636367E-1,-0E0,-1.5E-1,-5.705091E-1,-4.147059E-1,-3.529412E-2,-2.3720932E-1,2.2105263E-1,-4.7368425E-1,-2.2000001E-1,-1.20000005E-1,4.2857146E-1,-4.3098596E-1,6.666667E-2,-1.20000005E-1,2.0000002E-1,-0E0,-3.4285718E-1,1.20000005E-1,3.9130437E-1,2.0000002E-1,-3.4285718E-1,4.5000002E-1,1.4754099E-1,-1.7052633E-1,3.2307696E-1,5.084746E-2,3.2000002E-1,3.818182E-1,-1.846154E-1,5.8819973E-1,4.9565217E-1,-1.5E-1,1.5E-1,-5.454546E-2,-5.3125006E-1,3.529412E-2,-3.5E-1,3.6E-1,7.2000004E-2,-3.2307696E-1,6.666667E-2,1.20000005E-1,3.9310345E-1,2.4705884E-1,5.225807E-1],"split_indices":[2,4,2,5,2,3,2,2,2,5,4,5,2,5,2,6,0,7,5,3,5,2,5,2,4,4,5,4,4,5,3,0,0,0,0,1,4,6,4,3,0,1,4,6,0,4,0,1,2,6,3,5,0,5,0,5,0,2,3,3,6,4,4,0,0,0,0,0,0,0,0,0,0,0,0,0,0,0,0,0,0,0,0,0,0,0,0,0,0,0,0,0,0,0,0,0,0,0,0,0,0,0,0,0,0,0,0,0,0,0,0],"split_type":[0,0,0,0,0,0,0,0,0,0,0,0,0,0,0,0,0,0,0,0,0,0,0,0,0,0,0,0,0,0,0,0,0,0,0,0,0,0,0,0,0,0,0,0,0,0,0,0,0,0,0,0,0,0,0,0,0,0,0,0,0,0,0,0,0,0,0,0,0,0,0,0,0,0,0,0,0,0,0,0,0,0,0,0,0,0,0,0,0,0,0,0,0,0,0,0,0,0,0,0,0,0,0,0,0,0,0,0,0,0,0],"sum_hessian":[1.4065E3,5.9525E2,8.1125E2,5.4625E2,4.9E1,6.7825E2,1.33E2,1.35E1,5.3275E2,3.1E1,1.8E1,2.235E2,4.5475E2,6.6E1,6.7E1,6E0,7.5E0,4.635E2,6.925E1,5.25E0,2.575E1,9.5E0,8.5E0,1.675E2,5.6E1,2E1,4.3475E2,4.75E0,6.125E1,1.4E1,5.3E1,4.5E0,1.5E0,2E0,5.5E0,4.2725E2,3.625E1,1.35E1,5.575E1,4E0,1.25E0,1.8E1,7.75E0,8.5E0,1E0,7.5E0,1E0,2.625E1,1.4125E2,2.825E1,2.775E1,1.375E1,6.25E0,4.32E2,2.75E0,2E0,2.75E0,4.875E1,1.25E1,1.05E1,3.5E0,2.75E1,2.55E1,1E0,1E0,4.5E0,1E0,1E0,4.2625E2,3.3E1,3.25E0,9.75E0,3.75E0,4.175E1,1.4E1,1.5E0,2.5E0,1.675E1,1.25E0,6.5E0,1.25E0,6E0,2.5E0,2.75E0,4.75E0,2.375E1,2.5E0,1.27E2,1.425E1,2.275E1,5.5E0,1.375E1,1.4E1,1.75E0,1.2E1,3.295E2,1.025E2,1E0,1E0,1.75E0,4.7E1,7.5E0,5E0,5.25E0,5.25E0,2.25E0,1.25E0,1.4E1,1.35E1,3.25E0,2.225E1],"tree_param":{"num_deleted":"0","num_feature":"8","num_nodes":"111","size_leaf_vector":"0"}},{"base_weights":[3.899774E-2,-1.2337781E0,9.488015E-1,-1.3310769E0,-2.848541E-1,1.1481723E0,-6.014026E-2,2.575211E-3,-1.3655263E0,6.679123E-2,-7.548785E-1,1.4919122E-1,1.2443624E0,-9.754176E-1,8.264431E-1,-7.7305293E-1,6.7677426E-1,-1.4331956E0,-9.7309357E-1,8.2885003E-1,-2.5838307E-1,-1.0796354E0,-3.5774E-2,5.637352E-1,-3.4315062E-1,6.5821046E-1,1.3965042E0,7.1575814E-1,-1.1060871E0,5.390027E-1,1.146377E0,-1.1463485E0,3.287948E-1,1.1892581E-2,9.33475E-1,-1.4674264E0,-1.002994E0,-6.2373215E-1,-1.2711931E0,1.0785159E0,-3.262371E-1,-5.9700066E-1,9.258654E-1,-1.2792315E0,-6.143283E-1,-8.9078E-1,4.314523E-1,2.3752026E-1,1.0601884E0,-6.625023E-1,6.530753E-1,7.919304E-1,-1.6170532E-1,1.4154598E0,-1.2319174E0,2.991408E-8,1.1635884E0,-1.2999655E0,-3.395609E-1,-3.6733516E-2,9.920963E-1,1.5657008E0,8.410477E-1,1.1356338E0,-0E0,-1.4697037E0,-4.8933834E-1,-3.841477E-1,-1.3605692E0,-8.523013E-1,7.0668083E-1,-1.33118E0,1.6740689E-1,2.877035E-1,1.5240926E0,-1.3946075E0,-2.9979512E-1,1.1140066E0,1.5284152E-1,-4.77083E-1,-1.3883332E0,-5.8334276E-2,-1.1938514E0,-9.327152E-2,8.30574E-1,1.2169135E0,-6.938389E-2,2.4737638E-1,1.1918548E0,-2.4181868E-1,-1.0924957E0,1.8418016E-2,9.3742675E-1,5.2686304E-1,1.1069986E0,3.8080163E-2,-9.43083E-1,1.1466835E0,1.489345E0,1.4997594E-2,-1.3341793E0,8.6532176E-2,-9.004607E-1,-5.785545E-1,2.478171E-1,1.1302981E0,2.1451508E-1,-3.4859324E-1,1.0901037E0],"categories":[],"categories_nodes":[],"categories_segments":[],"categories_sizes":[],"default_left":[true,true,true,true,true,true,true,true,true,true,true,true,true,true,true,true,true,true,true,true,true,true,true,true,true,true,true,true,true,true,true,false,false,false,true,true,true,true,true,true,false,true,true,true,true,false,true,true,true,true,true,true,true,true,false,false,false,true,true,true,true,false,true,false,false,false,false,false,false,false,false,false,false,false,false,false,false,false,false,false,false,false,false,false,false,false,false,false,false,false,false,false,false,false,false,false,false,false,false,false,false,false,false,false,false,false,false,false,false],"id":1,"left_children":[1,3,5,7,9,11,13,15,17,19,21,23,25,27,29,31,33,35,37,39,41,43,45,47,49,51,53,55,57,59,61,-1,-1,-1,63,65,67,69,71,73,-1,75,77,79,81,-1,83,85,87,89,91,93,95,97,-1,-1,-1,99,101,103,105,-1,107,-1,-1,-1,-1,-1,-1,-1,-1,-1,-1,-1,-1,-1,-1,-1,-1,-1,-1,-1,-1,-1,-1,-1,-1,-1,-1,-1,-1,-1,-1,-1,-1,-1,-1,-1,-1,-1,-1,-1,-1,-1,-1,-1,-1,-1,-1],"loss_changes":[1.5325339E3,5.055829E1,1.5530994E2,2.298059E1,8.740919E0,6.174225E1,1.0490878E2,7.6304398E0,1.1551819E1,7.8950973E0,5.2354155E0,1.197807E1,5.149298E1,1.4842297E1,5.424675E0,3.1685147E0,1.3208957E0,4.6204834E0,6.998909E0,3.0938668E0,9.570646E0,6.55838E-1,3.604259E0,4.8860846E0,9.027414E0,1.3614235E1,2.4947327E1,1.6563611E0,8.388306E0,9.557586E0,2.5508347E0,0E0,0E0,0E0,1.0600858E0,1.2957764E-1,6.923916E0,1.1674318E1,3.6235504E0,2.3982515E0,0E0,3.8715568E0,6.139884E-1,2.0750809E-1,2.0517504E0,0E0,1.3101195E0,6.2264214E0,1.0205822E0,3.5261507E0,1.2570744E0,8.263168E0,2.858089E0,7.4837646E0,0E0,0E0,0E0,2.137535E0,3.267939E0,2.7702522E0,1.9562855E0,0E0,6.199374E0,0E0,0E0,0E0,0E0,0E0,0E0,0E0,0E0,0E0,0E0,0E0,0E0,0E0,0E0,0E0,0E0,0E0,0E0,0E0,0E0,0E0,0E0,0E0,0E0,0E0,0E0,0E0,0E0,0E0,0E0,0E0,0E0,0E0,0E0,0E0,0E0,0E0,0E0,0E0,0E0,0E0,0E0,0E0,0E0,0E0,0E0],"parents":[2147483647,0,0,1,1,2,2,3,3,4,4,5,5,6,6,7,7,8,8,9,9,10,10,11,11,12,12,13,13,14,14,15,15,16,16,17,17,18,18,19,19,20,20,21,21,22,22,23,23,24,24,25,25,26,26,27,27,28,28,29,29,30,30,34,34,35,35,36,36,37,37,38,38,39,39,41,41,42,42,43,43,44,44,46,46,47,47,48,48,49,49,50,50,51,51,52,52,53,53,57,57,58,58,59,59,60,60,62,62],"right_children":[2,4,6,8,10,12,14,16,18,20,22,24,26,28,30,32,34,36,38,40,42,44,46,48,50,52,54,56,58,60,62,-1,-1,-1,64,66,68,70,72,74,-1,76,78,80,82,-1,84,86,88,90,92,94,96,98,-1,-1,-1,100,102,104,106,-1,108,-1,-1,-1,-1,-1,-1,-1,-1,-1,-1,-1,-1,-1,-1,-1,-1,-1,-1,-1,-1,-1,-1,-1,-1,-1,-1,-1,-1,-1,-1,-1,-1,-1,-1,-1,-1,-1,-1,-1,-1,-1,-1,-1,-1,-1,-1],"split_conditions":[-2.4058588E-1,5.6363577E-1,6.3986146E-1,-2.074986E0,-1.9982246E-1,-1.4968511E-1,2.576221E0,-5.3995234E-1,-3.8120297E-1,3.5630073E-2,-4.536336E-1,3.640539E-1,-3.0607957E-1,-5.036814E-1,-2.7648425E-1,-1.9177014E-1,-1.2675894E0,1.1032788E0,3.640539E-1,-1.9284165E-1,-2.0940965E-1,-5.3899754E-2,2.4679238E-1,-7.331215E-2,4.4420803E-1,8.8000464E-1,1.0676231E0,-6.704508E-1,5.6363577E-1,6.306342E-3,-1.955919E-1,-3.4390455E-1,9.8638445E-2,3.5677745E-3,-1.1090066E-1,2.8075488E0,-3.0939418E-1,1.1032788E0,4.043988E-1,-5.605749E-1,-9.787114E-2,-2.720812E-1,-1.8915215E-1,-2.923916E-1,3.2171214E-1,-2.67234E-1,-1.1999759E-1,-2.074986E0,-3.1539857E-1,-2.6262683E-1,-2.1295524E-1,-2.3254913E-1,1.0207185E0,2.6278269E-2,-3.6957523E-1,8.974224E-9,3.4907654E-1,-1.2874942E0,-2.551299E-1,1.294393E-1,1.0676231E0,4.6971026E-1,-2.8114527E-1,3.4069017E-1,-0E0,-4.409111E-1,-1.468015E-1,-1.15244314E-1,-4.081708E-1,-2.556904E-1,2.1200426E-1,-3.99354E-1,5.022207E-2,8.631106E-2,4.572278E-1,-4.183823E-1,-8.993854E-2,3.34202E-1,4.585246E-2,-1.4312491E-1,-4.1649997E-1,-1.7500283E-2,-3.5815543E-1,-2.7981458E-2,2.491722E-1,3.6507404E-1,-2.0815168E-2,7.4212916E-2,3.5755646E-1,-7.254561E-2,-3.2774872E-1,5.525405E-3,2.8122804E-1,1.5805891E-1,3.320996E-1,1.142405E-2,-2.8292492E-1,3.4400505E-1,4.468035E-1,4.4992785E-3,-4.002538E-1,2.5959654E-2,-2.7013823E-1,-1.7356636E-1,7.4345134E-2,3.3908945E-1,6.4354524E-2,-1.0457797E-1,3.2703114E-1],"split_indices":[2,4,2,5,6,2,2,2,2,5,2,5,0,5,6,6,4,7,5,0,3,6,5,4,4,5,5,4,4,4,6,0,0,0,0,1,0,7,4,2,0,3,0,0,6,0,0,5,0,0,2,4,5,2,0,0,0,4,3,5,5,0,0,0,0,0,0,0,0,0,0,0,0,0,0,0,0,0,0,0,0,0,0,0,0,0,0,0,0,0,0,0,0,0,0,0,0,0,0,0,0,0,0,0,0,0,0,0,0],"split_type":[0,0,0,0,0,0,0,0,0,0,0,0,0,0,0,0,0,0,0,0,0,0,0,0,0,0,0,0,0,0,0,0,0,0,0,0,0,0,0,0,0,0,0,0,0,0,0,0,0,0,0,0,0,0,0,0,0,0,0,0,0,0,0,0,0,0,0,0,0,0,0,0,0,0,0,0,0,0,0,0,0,0,0,0,0,0,0,0,0,0,0,0,0,0,0,0,0,0,0,0,0,0,0,0,0,0,0,0,0],"sum_hessian":[1.3214479E3,5.506944E2,7.7075354E2,4.9911453E2,5.1579865E1,6.434645E2,1.2728904E2,1.259128E1,4.8652325E2,2.9996271E1,2.1583593E1,5.6740215E1,5.8672424E2,6.25817E1,6.470734E1,5.7870173E0,6.8042626E0,4.1270615E2,7.381713E1,8.508148E0,2.1488123E1,1.4523315E1,7.0602775E0,3.0725134E1,2.6015081E1,1.2200518E2,4.647191E2,4.167438E0,5.841426E1,3.549872E1,2.920862E1,4.292404E0,1.4946129E0,2.1867304E0,4.617532E0,3.8005447E2,3.2651657E1,3.5410145E1,3.8406986E1,7.0505095E0,1.4576387E0,1.7095741E1,4.3923817E0,8.939461E0,5.583855E0,2.1744998E0,4.885778E0,1.9433798E1,1.1291338E1,1.9953686E1,6.0613956E0,1.0492681E2,1.707837E1,4.6184982E2,2.869271E0,1.988792E0,2.178646E0,4.606665E1,1.2347613E1,1.6038223E1,1.9460495E1,1.0567643E1,1.8640978E1,3.617532E0,1E0,3.786702E2,1.3842729E0,1.2716994E1,1.9934664E1,3.0525192E1,4.8849545E0,3.6941277E1,1.4657083E0,3.1339836E0,3.9165258E0,3.6385658E0,1.3457176E1,3.1778445E0,1.2145374E0,1.7135732E0,7.225888E0,3.4115117E0,2.1723433E0,2.441826E0,2.4439516E0,3.9293432E0,1.5504454E1,1.9754107E0,9.315927E0,1.0875768E1,9.077919E0,2.204915E0,3.8564806E0,5.8436398E1,4.6490417E1,1.4358421E1,2.7199478E0,1.0314688E2,3.5870294E2,1.1824483E0,4.48842E1,7.4976645E0,4.8499484E0,5.1667824E0,1.087144E1,1.6138538E1,3.3219578E0,3.1577954E0,1.5483182E1],"tree_param":{"num_deleted":"0","num_feature":"8","num_nodes":"109","size_leaf_vector":"0"}},{"base_weights":[3.0669365E-2,-1.0193383E0,7.663153E-1,-1.1223302E0,-3.1148577E-1,9.8603463E-1,8.677999E-2,3.469227E-2,-1.1488172E0,-5.2015626E-1,2.6768938E-1,5.544504E-1,1.2405888E0,-1.9141145E-1,7.8612816E-1,-5.6571937E-1,6.798567E-1,-1.2436576E0,-8.9667785E-1,-8.094533E-1,-1.0163678E-1,5.320988E-1,-4.7778234E-1,8.327809E-1,5.744314E-2,7.668026E-1,1.3094876E0,1.1300557E0,-5.131755E-1,4.8051998E-1,1.1076459E0,-9.056144E-1,2.712668E-1,1.6803153E-1,9.132913E-1,-1.2750249E0,-8.6660874E-1,-9.761114E-1,-2.0212854E-1,-9.556574E-1,4.3969032E-1,-4.9324697E-1,8.1022936E-1,8.5244226E-1,9.70475E-2,-7.83863E-1,1.756218E-1,3.1368202E-1,1.0211382E0,-3.151393E-1,9.0181416E-1,8.484944E-1,-7.0589787E-1,1.3160684E0,4.1962582E-1,3.2644454E-1,1.2533973E0,-8.469152E-1,1.4807887E-1,3.1977126E-1,1.1875834E0,5.1398486E-1,1.1735004E0,-2.7499807E-1,-1.0256244E0,-3.2766998E-1,-1.277711E0,4.2596933E-1,-1.009654E0,-6.549788E-1,-1.134822E0,8.501272E-1,-7.37398E-1,5.575747E-1,-1.0498172E0,-3.386667E-2,7.3191196E-1,-3.5552554E-2,-1.0715595E0,3.6600783E-1,1.2966024E0,-1.2301641E-1,1.0924464E0,-7.183175E-1,7.996703E-1,-1.0126387E0,-1.6902216E-1,4.4843042E-1,-7.6880294E-1,4.9785635E-1,1.1832517E0,-1.0519438E0,-5.80663E-2,3.8829994E-1,1.2043211E0,9.227567E-1,1.6491385E-1,1.3224077E0,5.880348E-1,-3.026944E-1,8.231982E-1,-3.7201744E-1,8.377226E-1,1.3366727E0,6.204012E-1,-4.8562288E-1,-1.0659686E0,6.010456E-1,-2.3798E-1,-1.8393649E-1,5.7802236E-1,-2.223871E-1,9.979379E-1,2.1712151E-1,1.2141565E0],"categories":[],"categories_nodes":[],"categories_segments":[],"categories_sizes":[],"default_left":[true,true,true,true,true,true,true,true,true,true,true,true,true,true,true,true,true,true,true,true,true,true,true,true,true,true,true,true,true,true,true,true,false,false,false,true,true,true,true,true,true,true,true,true,true,true,false,true,true,true,true,true,false,true,true,true,true,true,true,true,false,true,true,false,false,false,false,false,false,false,false,false,false,false,false,false,false,false,false,false,false,false,false,false,false,false,false,false,false,false,false,false,false,false,false,false,false,false,false,false,false,false,false,false,false,false,false,false,false,false,false,false,false,false,false],"id":2,"left_children":[1,3,5,7,9,11,13,15,17,19,21,23,25,27,29,31,33,35,37,39,41,43,45,47,49,51,53,55,57,59,61,63,-1,-1,-1,65,67,69,71,73,75,77,79,81,83,85,-1,87,89,91,93,95,-1,97,99,101,103,105,107,109,-1,111,113,-1,-1,-1,-1,-1,-1,-1,-1,-1,-1,-1,-1,-1,-1,-1,-1,-1,-1,-1,-1,-1,-1,-1,-1,-1,-1,-1,-1,-1,-1,-1,-1,-1,-1,-1,-1,-1,-1,-1,-1,-1,-1,-1,-1,-1,-1,-1,-1,-1,-1,-1,-1],"loss_changes":[9.0526154E2,3.485034E1,1.02804474E2,1.2945496E1,7.7184763E0,5.6511047E1,3.3121685E1,4.411393E0,8.730408E0,5.540778E0,3.6583934E0,2.692212E1,9.659821E0,5.247447E1,4.2258873E0,1.9327415E0,4.9949622E-1,2.4029846E0,6.209175E0,5.4090633E0,7.586311E0,1.7599311E0,1.147369E0,1.1892166E1,2.2640327E1,5.879011E0,1.1096497E0,1.9905586E0,2.1937359E1,2.6427717E0,2.8945732E-1,5.4582596E-2,0E0,0E0,0E0,2.727356E-1,5.2192116E0,4.5543747E0,8.049622E0,4.1146736E0,5.156531E-1,3.8529968E0,9.135494E-1,1.8870296E0,4.4331284E0,3.3819604E-1,0E0,5.4059377E0,7.147873E0,9.418466E0,2.952282E0,1.9817333E0,0E0,5.203552E-1,1.2844524E0,1.9449408E0,2.5855637E-1,4.692585E0,6.089177E0,3.102833E0,0E0,1.6684909E0,5.051956E-1,0E0,0E0,0E0,0E0,0E0,0E0,0E0,0E0,0E0,0E0,0E0,0E0,0E0,0E0,0E0,0E0,0E0,0E0,0E0,0E0,0E0,0E0,0E0,0E0,0E0,0E0,0E0,0E0,0E0,0E0,0E0,0E0,0E0,0E0,0E0,0E0,0E0,0E0,0E0,0E0,0E0,0E0,0E0,0E0,0E0,0E0,0E0,0E0,0E0,0E0,0E0,0E0],"parents":[2147483647,0,0,1,1,2,2,3,3,4,4,5,5,6,6,7,7,8,8,9,9,10,10,11,11,12,12,13,13,14,14,15,15,16,16,17,17,18,18,19,19,20,20,21,21,22,22,23,23,24,24,25,25,26,26,27,27,28,28,29,29,30,30,31,31,35,35,36,36,37,37,38,38,39,39,40,40,41,41,42,42,43,43,44,44,45,45,47,47,48,48,49,49,50,50,51,51,53,53,54,54,55,55,56,56,57,57,58,58,59,59,61,61,62,62],"right_children":[2,4,6,8,10,12,14,16,18,20,22,24,26,28,30,32,34,36,38,40,42,44,46,48,50,52,54,56,58,60,62,64,-1,-1,-1,66,68,70,72,74,76,78,80,82,84,86,-1,88,90,92,94,96,-1,98,100,102,104,106,108,110,-1,112,114,-1,-1,-1,-1,-1,-1,-1,-1,-1,-1,-1,-1,-1,-1,-1,-1,-1,-1,-1,-1,-1,-1,-1,-1,-1,-1,-1,-1,-1,-1,-1,-1,-1,-1,-1,-1,-1,-1,-1,-1,-1,-1,-1,-1,-1,-1,-1,-1,-1,-1,-1,-1],"split_conditions":[-2.4058588E-1,4.043988E-1,3.9564395E-1,-2.332961E0,-3.8436627E-1,2.6278269E-2,2.6547537E0,-5.3995234E-1,-4.680193E-1,1.2005837E0,-1.4510754E-1,5.5167234E-1,-3.097079E-1,-2.9261065E-1,-2.5331882E-1,-1.9177014E-1,-1.2675894E0,1.1032788E0,1.1032788E0,9.738139E-1,-5.9970915E-1,-2.4742952E-1,1.6981993E0,-2.6723427E-1,4.043988E-1,-3.1049377E-1,2.3837516E0,-8.296878E-1,2.8497106E-1,1.3996298E0,-7.1026003E-1,-3.1685454E-1,8.138004E-2,5.0409462E-2,2.7398738E-1,-6.445357E0,-1.3930507E0,-2.618835E-1,3.5630073E-2,-1.4417737E0,6.432543E-1,-1.8666816E-1,-2.2636528E-1,-2.72142E-1,-2.0940965E-1,-2.99478E-1,5.268654E-2,6.1792994E-1,-1.4464186E-1,-6.704508E-1,-2.3109496E-1,-1.9907328E-1,-2.1176937E-1,1.0207185E0,-2.320548E-1,-8.789183E-1,1.5070531E0,8.036237E-1,7.2032285E-1,5.5167234E-1,3.5627505E-1,-2.0436022E-1,-7.147522E-1,-8.249942E-2,-3.0768734E-1,-9.8301E-2,-3.8331333E-1,1.2779081E-1,-3.0289623E-1,-1.9649366E-1,-3.4044662E-1,2.5503817E-1,-2.2121942E-1,1.6727242E-1,-3.1494516E-1,-1.0160001E-2,2.195736E-1,-1.0665767E-2,-3.2146788E-1,1.0980236E-1,3.8898072E-1,-3.6904924E-2,3.2773393E-1,-2.1549526E-1,2.399011E-1,-3.037916E-1,-5.070665E-2,1.3452913E-1,-2.3064089E-1,1.4935692E-1,3.5497552E-1,-3.1558314E-1,-1.7419891E-2,1.16489984E-1,3.6129636E-1,2.76827E-1,4.9474157E-2,3.9672235E-1,1.7641045E-1,-9.0808325E-2,2.4695946E-1,-1.11605234E-1,2.513168E-1,4.010018E-1,1.8612036E-1,-1.4568686E-1,-3.197906E-1,1.8031369E-1,-7.1394004E-2,-5.518095E-2,1.7340672E-1,-6.6716135E-2,2.9938138E-1,6.5136455E-2,3.6424696E-1],"split_indices":[2,4,2,5,2,2,2,2,2,4,6,5,0,5,3,6,4,7,7,5,2,3,4,3,4,0,1,4,4,4,4,0,0,0,0,1,2,3,5,5,4,6,3,3,3,2,0,1,2,4,3,6,0,5,3,5,2,2,2,5,0,6,5,0,0,0,0,0,0,0,0,0,0,0,0,0,0,0,0,0,0,0,0,0,0,0,0,0,0,0,0,0,0,0,0,0,0,0,0,0,0,0,0,0,0,0,0,0,0,0,0,0,0,0,0],"split_type":[0,0,0,0,0,0,0,0,0,0,0,0,0,0,0,0,0,0,0,0,0,0,0,0,0,0,0,0,0,0,0,0,0,0,0,0,0,0,0,0,0,0,0,0,0,0,0,0,0,0,0,0,0,0,0,0,0,0,0,0,0,0,0,0,0,0,0,0,0,0,0,0,0,0,0,0,0,0,0,0,0,0,0,0,0,0,0,0,0,0,0,0,0,0,0,0,0,0,0,0,0,0,0,0,0,0,0,0,0,0,0,0,0,0,0],"sum_hessian":[1.1699489E3,4.8183163E2,6.881172E2,4.201191E2,6.1712543E1,5.1964526E2,1.6847191E2,9.395344E0,4.1072375E2,4.5442135E1,1.6270409E1,1.9396503E2,3.2568024E2,1.21047226E2,4.7424683E1,4.9302387E0,4.4651055E0,2.956025E2,1.1512125E2,2.6316828E1,1.9125305E1,1.2221737E1,4.0486712E0,1.2390245E2,7.006257E1,4.2888054E1,2.8279218E2,2.321058E1,9.783665E1,2.5592812E1,2.1831873E1,3.4480228E0,1.4822158E0,1.9372786E0,2.5278268E0,2.7070093E2,2.4901575E1,1.0294261E2,1.2178635E1,2.376969E1,2.5471375E0,1.3700546E1,5.4247594E0,6.4862666E0,5.735471E0,2.6211562E0,1.4275148E0,3.3698166E1,9.0204285E1,4.90471E1,2.101547E1,4.103563E1,1.8524251E0,2.8024072E2,2.55144E0,3.573664E0,1.9636917E1,6.48338E1,3.3002846E1,2.2035387E1,3.5574245E0,3.0591643E0,1.8772707E1,1.0775071E0,2.3705158E0,1.1131178E0,2.6958783E2,2.284116E0,2.2617458E1,3.5744537E1,6.7198074E1,3.9079652E0,8.270669E0,1.1041069E0,2.2665583E1,1.3093649E0,1.2377726E0,8.240353E0,5.4601936E0,3.7511902E0,1.6735691E0,1.3770216E0,5.109245E0,2.644407E0,3.0910635E0,1.4388006E0,1.1823556E0,3.0488657E1,3.2095082E0,2.229852E1,6.790576E1,1.188659E1,3.716051E1,8.637194E0,1.2378278E1,3.669888E1,4.336751E0,2.770123E2,3.2284455E0,1.0041534E0,1.5472867E0,1.6254704E0,1.9481936E0,1.6371471E1,3.265447E0,2.5685972E1,3.9147827E1,1.4929288E1,1.8073559E1,7.565995E0,1.4469392E1,1.4275361E0,1.6316283E0,1.024039E0,1.7748669E1],"tree_param":{"num_deleted":"0","num_feature":"8","num_nodes":"115","size_leaf_vector":"0"}},{"base_weights":[2.8008007E-2,-8.803932E-1,6.2890023E-1,-9.8079216E-1,-2.5521466E-1,8.159901E-1,7.897221E-2,-1.965509E-1,-1.0207626E0,-1.0149021E-2,-5.97356E-1,4.1501158E-1,1.0912927E0,-1.9420576E-1,5.5051714E-1,-7.516021E-1,4.9276784E-1,-1.0806793E0,-6.799151E-1,-7.565994E-1,2.2046702E-1,-8.967152E-1,4.3545935E-2,1.108036E0,2.4510191E-1,5.911214E-1,1.1748885E0,8.5123914E-1,-4.9742237E-1,2.5013047E-1,7.290662E-1,-1.0121155E0,5.2728597E-2,-1.1789609E-1,7.696641E-1,-1.1218195E0,-6.551173E-1,-2.7933508E-1,-9.3778485E-1,2.6087007E-1,-1.0355859E0,6.458972E-1,-5.932772E-2,-9.478972E-1,-1.1123654E-1,3.9996293E-1,-5.069392E-1,5.0953573E-1,1.266088E0,-7.070578E-2,6.5310097E-1,6.6205645E-1,-5.496625E-1,3.9676332E-1,1.1861653E0,1.0813861E0,-1.8036555E-1,-5.81093E-1,9.348458E-1,-3.8019663E-1,4.8744047E-1,7.852227E-1,-5.460672E-1,-1.9684267E-1,-1.1014661E0,6.5429795E-1,-5.967139E-1,7.56728E-1,-9.675937E-1,1.1676785E0,1.32732E-1,-1.1390184E0,-7.7128696E-1,-1.3606808E-1,-1.0063249E0,-8.204421E-1,2.9047674E-1,5.3793204E-1,-1.0578796E0,-1.1678865E0,-2.322942E-1,2.2790034E-1,1.3467356E0,-6.172964E-1,6.3796806E-1,-1.7574987E-1,-1.0416036E0,-4.1714284E-1,1.0470203E0,-8.9416534E-1,-8.011794E-5,9.491866E-1,-4.0386686E-1,-3.2281512E-1,3.480598E-1,2.5097165E-1,8.3534366E-1,7.050353E-1,-3.6041945E-1,-7.338666E-1,9.301509E-1,1.1932287E0,4.8860678E-1,-5.085934E-2,1.157504E0,1.0743785E-1,-6.550213E-1,-4.3267348E-1,-1.2107571E0,-1.0207137E0,1.4656472E-1,7.574415E-1,-6.207305E-2,3.6466143E-1,8.6736494E-1],"categories":[],"categories_nodes":[],"categories_segments":[],"categories_sizes":[],"default_left":[true,true,true,true,true,true,true,true,true,true,true,true,true,true,true,true,true,true,true,true,true,true,true,true,true,true,true,true,true,true,true,true,true,true,true,true,true,true,true,false,true,true,true,true,false,true,true,true,false,true,true,true,false,true,true,true,true,true,false,true,true,true,false,false,false,false,false,false,false,false,false,false,false,false,false,false,false,false,false,false,false,false,false,false,false,false,false,false,false,false,false,false,false,false,false,false,false,false,false,false,false,false,false,false,false,false,false,false,false,false,false,false,false,false,false],"id":3,"left_children":[1,3,5,7,9,11,13,15,17,19,21,23,25,27,29,31,33,35,37,39,41,43,45,47,49,51,53,55,57,59,61,63,65,67,69,71,73,75,77,-1,79,81,83,85,-1,87,89,91,-1,93,95,97,-1,99,101,103,105,107,-1,109,111,113,-1,-1,-1,-1,-1,-1,-1,-1,-1,-1,-1,-1,-1,-1,-1,-1,-1,-1,-1,-1,-1,-1,-1,-1,-1,-1,-1,-1,-1,-1,-1,-1,-1,-1,-1,-1,-1,-1,-1,-1,-1,-1,-1,-1,-1,-1,-1,-1,-1,-1,-1,-1,-1],"loss_changes":[5.5618445E2,2.5212982E1,6.3029175E1,1.07453E1,4.8139553E0,5.00466E1,2.030212E1,7.323348E0,6.0458984E0,6.1078033E0,4.6386805E0,2.184674E1,1.062085E1,3.212524E1,2.91601E0,2.2457166E0,1.5635037E0,4.179199E0,5.144169E0,2.6464758E0,3.2689319E0,5.533743E-1,1.8874422E0,2.82658E0,1.9649029E1,3.6627598E0,1.5551147E0,5.6208572E0,9.909084E0,3.6345243E0,2.9858894E0,3.624878E-1,1.7618033E0,3.3960385E0,1.3978677E0,6.560669E-1,4.8116627E0,6.9970407E0,6.1366234E0,0E0,4.4832277E-1,2.8721457E0,7.1202292E0,9.204979E-1,0E0,3.4879282E0,7.488023E-1,4.1343794E0,0E0,9.261482E0,4.662178E0,1.9606285E0,0E0,3.5775986E0,5.3570557E-1,1.6815128E0,7.5689936E-1,6.4344597E0,0E0,2.467091E0,2.5974998E0,8.7948036E-1,0E0,0E0,0E0,0E0,0E0,0E0,0E0,0E0,0E0,0E0,0E0,0E0,0E0,0E0,0E0,0E0,0E0,0E0,0E0,0E0,0E0,0E0,0E0,0E0,0E0,0E0,0E0,0E0,0E0,0E0,0E0,0E0,0E0,0E0,0E0,0E0,0E0,0E0,0E0,0E0,0E0,0E0,0E0,0E0,0E0,0E0,0E0,0E0,0E0,0E0,0E0,0E0,0E0],"parents":[2147483647,0,0,1,1,2,2,3,3,4,4,5,5,6,6,7,7,8,8,9,9,10,10,11,11,12,12,13,13,14,14,15,15,16,16,17,17,18,18,19,19,20,20,21,21,22,22,23,23,24,24,25,25,26,26,27,27,28,28,29,29,30,30,31,31,32,32,33,33,34,34,35,35,36,36,37,37,38,38,40,40,41,41,42,42,43,43,45,45,46,46,47,47,49,49,50,50,51,51,53,53,54,54,55,55,56,56,57,57,59,59,60,60,61,61],"right_children":[2,4,6,8,10,12,14,16,18,20,22,24,26,28,30,32,34,36,38,40,42,44,46,48,50,52,54,56,58,60,62,64,66,68,70,72,74,76,78,-1,80,82,84,86,-1,88,90,92,-1,94,96,98,-1,100,102,104,106,108,-1,110,112,114,-1,-1,-1,-1,-1,-1,-1,-1,-1,-1,-1,-1,-1,-1,-1,-1,-1,-1,-1,-1,-1,-1,-1,-1,-1,-1,-1,-1,-1,-1,-1,-1,-1,-1,-1,-1,-1,-1,-1,-1,-1,-1,-1,-1,-1,-1,-1,-1,-1,-1,-1,-1,-1],"split_conditions":[-2.5219116E-1,4.043988E-1,3.9564395E-1,-1.7466536E0,-2.0815119E-1,2.6278269E-2,2.576221E0,-5.3995234E-1,-3.780455E-1,-3.5154602E-1,7.3929083E-1,-1.2307029E0,-3.097079E-1,-1.1182988E-2,-3.3505505E-1,-2.3528692E-1,-3.1569302E-1,1.1032788E0,-2.621267E-1,-3.6296758E-1,-3.284951E-1,-3.2342494E-1,9.738139E-1,-2.6808548E-1,-7.331215E-2,-3.1049377E-1,-3.4617004E-1,1.0442706E0,5.423752E-1,-3.5197687E-1,2.8075488E0,-2.9192688E0,-6.97356E-1,-3.203718E-1,-2.6174992E-1,1.6554332E-1,-3.0939418E-1,-4.3159533E-1,-8.3201367E-1,7.8261025E-2,-3.777339E-1,-2.5575966E-1,-2.4507654E-1,-5.740383E-1,-3.3370964E-2,1.7181039E0,-3.5912134E-2,-1.6528444E0,3.7982643E-1,-2.7775085E-1,-1.4158599E-1,9.738139E-1,-1.6489875E-1,-2.895095E-1,1.0207185E0,-3.217681E-1,-3.16063E-1,1.0676231E0,2.8045374E-1,2.4670082E-1,9.269092E-1,-3.0232263E-1,-1.6382016E-1,-5.9052803E-2,-3.3043984E-1,1.9628939E-1,-1.7901418E-1,2.270184E-1,-2.9027814E-1,3.5030356E-1,3.9819602E-2,-3.4170553E-1,-2.313861E-1,-4.0820424E-2,-3.0189747E-1,-2.4613263E-1,8.714303E-2,1.6137962E-1,-3.173639E-1,-3.5036597E-1,-6.968826E-2,6.8370104E-2,4.040207E-1,-1.8518892E-1,1.9139042E-1,-5.272496E-2,-3.1248108E-1,-1.2514286E-1,3.141061E-1,-2.682496E-1,-2.4035384E-5,2.84756E-1,-1.2116006E-1,-9.684454E-2,1.0441794E-1,7.52915E-2,2.506031E-1,2.1151061E-1,-1.0812584E-1,-2.2015998E-1,2.7904528E-1,3.5796863E-1,1.4658204E-1,-1.5257803E-2,3.472512E-1,3.2231357E-2,-1.965064E-1,-1.2980205E-1,-3.6322716E-1,-3.0621412E-1,4.396942E-2,2.2723247E-1,-1.8621916E-2,1.0939843E-1,2.602095E-1],"split_indices":[2,4,2,5,6,2,2,2,2,6,5,5,0,5,6,0,0,7,3,5,6,2,5,3,4,0,6,2,3,4,1,5,2,0,0,4,0,4,5,0,2,3,0,5,0,4,0,5,0,6,2,5,0,0,5,0,5,5,0,5,5,0,0,0,0,0,0,0,0,0,0,0,0,0,0,0,0,0,0,0,0,0,0,0,0,0,0,0,0,0,0,0,0,0,0,0,0,0,0,0,0,0,0,0,0,0,0,0,0,0,0,0,0,0,0],"split_type":[0,0,0,0,0,0,0,0,0,0,0,0,0,0,0,0,0,0,0,0,0,0,0,0,0,0,0,0,0,0,0,0,0,0,0,0,0,0,0,0,0,0,0,0,0,0,0,0,0,0,0,0,0,0,0,0,0,0,0,0,0,0,0,0,0,0,0,0,0,0,0,0,0,0,0,0,0,0,0,0,0,0,0,0,0,0,0,0,0,0,0,0,0,0,0,0,0,0,0,0,0,0,0,0,0,0,0,0,0,0,0,0,0,0,0],"sum_hessian":[1.0169162E3,4.046778E2,6.122384E2,3.4819196E2,5.6485817E1,4.5646243E2,1.5577597E2,1.717264E1,3.3101932E2,3.35119E1,2.2973913E1,1.8683888E2,2.6962357E2,9.9006905E1,5.676907E1,9.462731E0,7.709908E0,2.796838E2,5.133551E1,7.371453E0,2.6140451E1,1.5387441E1,7.586473E0,3.5700996E1,1.5113788E2,3.9766056E1,2.298575E2,2.185316E1,7.715375E1,2.205879E1,3.4710278E1,6.9525495E0,2.5101824E0,2.584439E0,5.125469E0,2.5353761E2,2.6146208E1,2.0920477E1,3.0415035E1,1.6002488E0,5.771204E0,9.851975E0,1.6288475E1,1.4252E1,1.1354411E0,4.770926E0,2.8155472E0,8.340733E0,2.7360262E1,8.566017E1,6.5477715E1,3.78332E1,1.9328575E0,3.8004725E0,2.2605702E2,1.7827631E1,4.0255303E0,7.345681E1,3.6969364E0,5.8686805E0,1.619011E1,3.3614124E1,1.0961528E0,1.0030777E0,5.9494715E0,1.2992394E0,1.2109431E0,1.3274561E0,1.2569829E0,2.6415179E0,2.483951E0,2.3953532E2,1.4002292E1,1.1111689E1,1.503452E1,1.0504912E1,1.0415565E1,2.027087E0,2.8387947E1,4.565413E0,1.2057908E0,7.0013714E0,2.8506036E0,9.111933E0,7.176543E0,1.8536144E0,1.2398385E1,2.2654424E0,2.5054834E0,1.1629534E0,1.652594E0,5.604111E0,2.736621E0,5.3612797E1,3.204737E1,2.1161259E1,4.4316456E1,3.6605003E1,1.2281959E0,1.0977325E0,2.70274E0,2.2308748E2,2.969545E0,1.1439118E0,1.668372E1,2.987647E0,1.037883E0,6.0810238E1,1.2646569E1,2.2252116E0,3.6434686E0,1.0602321E1,5.5877886E0,6.381381E0,2.7232744E1],"tree_param":{"num_deleted":"0","num_feature":"8","num_nodes":"115","size_leaf_vector":"0"}},{"base_weights":[2.3551174E-2,-7.249961E-1,5.5225784E-1,-9.005804E-1,-3.509889E-1,7.415279E-1,6.404256E-2,-1.0277252E0,-6.1888707E-1,-1.4746244E-1,-7.8435606E-1,3.9554635E-1,9.7922486E-1,7.075273E-1,-7.227448E-2,-8.51817E-2,-1.0477543E0,1.5884832E-2,-7.9006696E-1,-4.19368E-1,2.0930804E-1,-8.669921E-1,2.8145248E-1,1.1935185E0,2.622136E-1,4.3136936E-1,1.077635E0,1.0269196E0,2.7002618E-1,-3.284434E-1,5.398897E-1,-7.6569206E-1,3.4059057E-1,-1.0997176E0,-8.281308E-1,-9.921532E-1,2.2170095E-1,3.3256093E-1,-8.2170206E-1,-8.6711454E-1,-2.186687E-1,2.7932268E-1,-8.9153916E-1,-9.4361603E-1,2.9955527E-1,-3.6922383E-1,9.352124E-1,1.0043517E-2,6.014367E-1,8.2096714E-1,1.8228269E-1,7.485722E-1,1.1336834E0,4.1989323E-2,1.13221E0,-9.644652E-2,7.367538E-1,-5.830055E-1,1.3328023E-1,-9.272861E-2,6.353634E-1,-1.2876676E-1,6.7187595E-1,-2.0206486E-1,-1.105871E0,-1.1120845E-1,-9.511398E-1,8.5147655E-1,7.200232E-3,-8.8576055E-1,-2.1585095E-1,-3.8955766E-1,-1.0686508E0,1.1207426E-1,-8.2457715E-1,-4.460593E-1,4.0802345E-1,-1.002399E0,6.7216E-2,-1.3442345E-1,6.5400517E-1,-5.1560235E-1,6.876918E-1,3.0323712E-2,1.0561268E0,7.4155253E-1,-1.2717935E-1,8.0067825E-1,-3.7892768E-1,5.6738174E-1,-6.262244E-1,9.7260904E-1,2.1310104E-1,4.674218E-1,-6.4189774E-1,2.5656438E-1,-8.616351E-1,6.2991416E-1,-1.1262372E0,6.824942E-1,-2.4997324E-1],"categories":[],"categories_nodes":[],"categories_segments":[],"categories_sizes":[],"default_left":[true,true,true,true,true,true,true,true,true,true,true,true,true,true,true,true,true,true,true,true,true,true,true,false,true,true,true,true,true,true,true,false,true,true,true,false,true,false,true,true,true,true,false,true,false,false,false,true,true,true,true,true,false,false,false,true,true,true,true,true,true,false,false,false,false,false,false,false,false,false,false,false,false,false,false,false,false,false,false,false,false,false,false,false,false,false,false,false,false,false,false,false,false,false,false,false,false,false,false,false,false],"id":4,"left_children":[1,3,5,7,9,11,13,15,17,19,21,23,25,27,29,31,33,35,37,39,41,43,45,-1,47,49,51,53,55,57,59,-1,61,63,65,-1,67,-1,69,71,73,75,-1,77,-1,-1,-1,79,81,83,85,87,-1,-1,-1,89,91,93,95,97,99,-1,-1,-1,-1,-1,-1,-1,-1,-1,-1,-1,-1,-1,-1,-1,-1,-1,-1,-1,-1,-1,-1,-1,-1,-1,-1,-1,-1,-1,-1,-1,-1,-1,-1,-1,-1,-1,-1,-1,-1],"loss_changes":[3.4998352E2,2.3723831E1,4.7840637E1,8.263504E0,1.03443575E1,3.0317902E1,1.28471775E1,3.1142273E0,8.682428E0,8.035263E0,3.561411E0,1.6043007E1,1.1430832E1,3.298993E0,1.9196724E1,1.5992253E0,9.8457336E-1,3.9392912E0,2.5057716E0,4.0182543E0,3.0314932E0,3.4290962E0,1.8193364E0,0E0,1.1371052E1,3.272633E0,2.5887299E0,1.4496107E0,2.1503627E0,1.0200635E1,2.2428293E0,0E0,6.359711E-1,5.0149536E-1,3.0534878E0,0E0,2.1153827E0,0E0,2.1927872E0,9.4611454E-1,6.839867E0,3.421803E0,0E0,2.0443916E0,0E0,0E0,0E0,7.279774E0,5.817093E0,2.4720612E0,4.0399036E0,2.0698986E0,0E0,0E0,0E0,3.0611227E0,4.6741295E-1,3.7459488E0,4.075219E0,4.902327E0,1.486846E0,0E0,0E0,0E0,0E0,0E0,0E0,0E0,0E0,0E0,0E0,0E0,0E0,0E0,0E0,0E0,0E0,0E0,0E0,0E0,0E0,0E0,0E0,0E0,0E0,0E0,0E0,0E0,0E0,0E0,0E0,0E0,0E0,0E0,0E0,0E0,0E0,0E0,0E0,0E0,0E0],"parents":[2147483647,0,0,1,1,2,2,3,3,4,4,5,5,6,6,7,7,8,8,9,9,10,10,11,11,12,12,13,13,14,14,15,15,16,16,17,17,18,18,19,19,20,20,21,21,22,22,24,24,25,25,26,26,27,27,28,28,29,29,30,30,32,32,33,33,34,34,36,36,38,38,39,39,40,40,41,41,43,43,47,47,48,48,49,49,50,50,51,51,55,55,56,56,57,57,58,58,59,59,60,60],"right_children":[2,4,6,8,10,12,14,16,18,20,22,24,26,28,30,32,34,36,38,40,42,44,46,-1,48,50,52,54,56,58,60,-1,62,64,66,-1,68,-1,70,72,74,76,-1,78,-1,-1,-1,80,82,84,86,88,-1,-1,-1,90,92,94,96,98,100,-1,-1,-1,-1,-1,-1,-1,-1,-1,-1,-1,-1,-1,-1,-1,-1,-1,-1,-1,-1,-1,-1,-1,-1,-1,-1,-1,-1,-1,-1,-1,-1,-1,-1,-1,-1,-1,-1,-1,-1],"split_conditions":[-2.1979922E-1,-1.1312139E-1,3.9564395E-1,-4.680193E-1,-1.7061055E-1,2.6278269E-2,-1.0499221E-1,-2.6847458E0,-4.802291E-1,-4.683547E-1,1.4863338E0,-1.5121305E0,-2.6639602E-1,1.0442706E0,2.6547537E0,-1.3870173E0,8.3309996E-1,-2.7417892E-1,-1.6423218E0,-3.4656948E-1,-1.0169104E-1,2.3550518E0,-4.602198E-1,3.5805556E-1,-7.331215E-2,-1.5189683E-1,-3.160041E-1,-8.894017E-1,6.6020206E-2,2.8497106E-1,-3.530136E-1,-2.2970763E-1,-3.0599828E0,-5.385864E0,-3.5306326E-1,-2.97646E-1,-3.5561222E-1,9.976828E-2,1.1032788E0,2.2334006E-1,-2.1054524E-1,-3.1921208E-1,-2.6746175E-1,1.1032788E0,8.9866586E-2,-1.10767156E-1,2.805637E-1,1.1032788E0,-3.5676256E-1,-3.2017893E-1,-2.7269793E-1,1.11236E0,3.4010506E-1,1.2596797E-2,3.3966303E-1,-7.1026003E-1,3.2193484E0,-9.8892474E-1,1.0676231E0,-3.1948978E-1,2.9488144E0,-3.863003E-2,2.0156279E-1,-6.061946E-2,-3.317613E-1,-3.3362534E-2,-2.8534195E-1,2.5544298E-1,2.1600695E-3,-2.6572818E-1,-6.475529E-2,-1.16867304E-1,-3.2059526E-1,3.362228E-2,-2.4737315E-1,-1.3381779E-1,1.2240704E-1,-3.007197E-1,2.01648E-2,-4.0327035E-2,1.9620156E-1,-1.5468071E-1,2.0630755E-1,9.097114E-3,3.1683806E-1,2.2246577E-1,-3.815381E-2,2.4020348E-1,-1.1367831E-1,1.7021453E-1,-1.8786733E-1,2.9178274E-1,6.393032E-2,1.4022654E-1,-1.9256933E-1,7.696932E-2,-2.5849053E-1,1.8897426E-1,-3.3787116E-1,2.0474827E-1,-7.499197E-2],"split_indices":[2,4,2,2,0,2,5,5,5,2,0,5,3,2,2,4,5,3,1,6,3,4,2,0,4,5,6,4,4,4,6,0,5,1,6,0,6,0,7,5,6,0,0,7,0,0,0,7,6,0,3,1,0,0,0,4,2,4,5,0,1,0,0,0,0,0,0,0,0,0,0,0,0,0,0,0,0,0,0,0,0,0,0,0,0,0,0,0,0,0,0,0,0,0,0,0,0,0,0,0,0],"split_type":[0,0,0,0,0,0,0,0,0,0,0,0,0,0,0,0,0,0,0,0,0,0,0,0,0,0,0,0,0,0,0,0,0,0,0,0,0,0,0,0,0,0,0,0,0,0,0,0,0,0,0,0,0,0,0,0,0,0,0,0,0,0,0,0,0,0,0,0,0,0,0,0,0,0,0,0,0,0,0,0,0,0,0,0,0,0,0,0,0,0,0,0,0,0,0,0,0,0,0,0,0],"sum_hessian":[8.823168E2,3.6507266E2,5.1724414E2,2.4748058E2,1.1759209E2,3.7236697E2,1.4487715E2,1.6869165E2,7.878892E1,8.09262E1,3.6665886E1,1.5272748E2,2.1963951E2,2.4593449E1,1.2028371E2,3.6194057E0,1.6507225E2,1.6927032E1,6.1861885E1,4.5825638E1,3.510056E1,3.4200718E1,2.465167E0,2.0727253E1,1.3200023E2,3.4265396E1,1.8537411E2,1.3436821E1,1.1156628E1,8.5125275E1,3.515843E1,1.0857286E0,2.533677E0,1.3024803E2,3.4824215E1,2.222276E0,1.4704756E1,1.4347533E0,6.042713E1,1.31557E1,3.266994E1,3.3703274E1,1.3972858E0,3.2272053E1,1.9286664E0,1.4536268E0,1.0115403E0,7.630591E1,5.5694317E1,1.2468085E1,2.1797308E1,2.906829E1,1.5630582E2,1.4327817E0,1.2004039E1,6.6939335E0,4.462694E0,5.470313E1,3.0422144E1,4.614049E0,3.054438E1,1.3013157E0,1.2323614E0,1.1171324E0,1.291309E2,5.378904E0,2.944531E1,2.9814942E0,1.1723261E1,5.4231102E1,6.19603E0,4.7746687E0,8.381031E0,2.1661022E1,1.1008918E1,4.70713E0,2.8996143E1,3.050636E1,1.7656935E0,6.2970337E1,1.3335569E1,3.6354978E0,5.205882E1,3.1170447E0,9.351041E0,7.267316E0,1.4529993E1,2.8061333E1,1.0069573E0,2.9395742E0,3.754359E0,2.4857485E0,1.9769459E0,2.535846E0,5.2167286E1,2.7728333E1,2.6938102E0,2.9452207E0,1.6688281E0,2.9218073E1,1.3263086E0],"tree_param":{"num_deleted":"0","num_feature":"8","num_nodes":"101","size_leaf_vector":"0"}},{"base_weights":[2.0135012E-2,-6.8130386E-1,4.310326E-1,-7.7660084E-1,-9.635043E-2,6.564556E-1,1.3454524E-1,-1.7801786E-2,-8.221932E-1,2.9013506E-1,-2.8465834E-1,3.2772616E-1,9.172143E-1,3.7335504E-2,8.602207E-1,-5.522503E-1,5.4897535E-1,-6.3037276E-1,-9.5466673E-1,5.095154E-1,-6.6181177E-1,-7.7119136E-1,1.4013815E-1,4.0737873E-1,-5.497038E-1,9.8734915E-1,3.8236994E-2,-3.7102036E-3,9.9471813E-1,-6.284246E-1,9.967366E-1,-8.1667626E-1,7.502392E-2,-1.3187468E-1,9.16262E-1,-8.109433E-1,-7.641956E-2,-1.0365273E0,-7.3881215E-1,1.1033988E-1,9.545161E-1,-8.1806296E-1,-1.7727709E-1,-1.1506636E0,-3.030789E-1,-3.141842E-2,8.6467755E-1,2.7586415E-1,8.615771E-1,-8.158711E-1,5.024399E-1,2.0764413E-1,1.0622301E0,-4.7137442E-1,6.3867897E-1,6.33633E-2,-5.70699E-1,1.0968176E0,1.6039696E-1,-1.6777837E-1,-9.282128E-1,6.055865E-1,-5.4350126E-1,5.1787275E-1,-8.522391E-1,1.105704E0,1.302187E-1,-9.028614E-1,-2.1491787E-1,-5.366991E-1,4.008512E-1,-1.1073779E0,-8.7657744E-1,2.8177336E-1,-7.9551256E-1,-7.692165E-1,6.12357E-1,1.1713581E0,2.3860559E-1,4.1071302E-1,-5.159747E-1,-1.736878E-1,7.208919E-1,8.950297E-1,1.4092498E-1,9.85066E-1,-3.8481215E-1,-2.3625451E-1,-1.336194E0,3.9663392E-1,-5.6558067E-1,6.521655E-1,1.0862195E0,2.4165338E-2,-9.067211E-1,8.600803E-1,-2.7784167E-3,-3.731393E-1,1.8236536E-1,-8.424043E-1,9.233151E-1,-6.26802E-1,7.285008E-1],"categories":[],"categories_nodes":[],"categories_segments":[],"categories_sizes":[],"default_left":[true,true,true,true,true,true,true,true,true,true,true,true,true,true,true,true,true,true,true,true,true,true,true,true,true,true,true,true,false,false,true,true,true,true,true,true,true,true,true,true,true,false,false,false,true,true,false,true,true,true,false,true,true,true,true,true,true,false,true,false,false,false,false,false,false,false,false,false,false,false,false,false,false,false,false,false,false,false,false,false,false,false,false,false,false,false,false,false,false,false,false,false,false,false,false,false,false,false,false,false,false,false,false],"id":5,"left_children":[1,3,5,7,9,11,13,15,17,19,21,23,25,27,29,31,33,35,37,39,41,43,45,47,49,51,53,55,-1,-1,57,59,61,63,65,67,69,71,73,75,77,-1,-1,-1,79,81,-1,83,85,87,-1,89,91,93,95,97,99,-1,101,-1,-1,-1,-1,-1,-1,-1,-1,-1,-1,-1,-1,-1,-1,-1,-1,-1,-1,-1,-1,-1,-1,-1,-1,-1,-1,-1,-1,-1,-1,-1,-1,-1,-1,-1,-1,-1,-1,-1,-1,-1,-1,-1,-1],"loss_changes":[2.2333589E2,1.5882126E1,3.2567932E1,8.49617E0,3.0841882E0,2.3470337E1,1.4943928E1,4.836505E0,5.2947083E0,3.2623749E0,5.943861E0,8.905923E0,9.461288E0,7.4017825E0,5.7138653E0,1.4215634E0,2.0625286E0,9.714058E0,1.6251297E0,2.0171313E0,8.652234E-2,2.0165596E0,2.0061061E0,6.599455E0,3.4243827E0,8.108719E0,4.103513E0,6.9393654E0,0E0,0E0,1.7758083E0,2.6790047E-1,1.4277798E0,2.1240456E0,6.258235E-1,3.8383522E0,5.7356777E0,1.12953186E-1,2.5786076E0,3.7514436E0,5.7731104E-1,0E0,0E0,0E0,1.3241444E0,1.6062655E0,0E0,7.412603E0,4.262289E0,2.3901577E0,0E0,2.2326581E0,5.696411E-1,1.5961239E0,8.7290645E-1,8.546385E0,8.613031E0,0E0,2.094936E0,0E0,0E0,0E0,0E0,0E0,0E0,0E0,0E0,0E0,0E0,0E0,0E0,0E0,0E0,0E0,0E0,0E0,0E0,0E0,0E0,0E0,0E0,0E0,0E0,0E0,0E0,0E0,0E0,0E0,0E0,0E0,0E0,0E0,0E0,0E0,0E0,0E0,0E0,0E0,0E0,0E0,0E0,0E0,0E0],"parents":[2147483647,0,0,1,1,2,2,3,3,4,4,5,5,6,6,7,7,8,8,9,9,10,10,11,11,12,12,13,13,14,14,15,15,16,16,17,17,18,18,19,19,20,20,21,21,22,22,23,23,24,24,25,25,26,26,27,27,30,30,31,31,32,32,33,33,34,34,35,35,36,36,37,37,38,38,39,39,40,40,44,44,45,45,47,47,48,48,49,49,51,51,52,52,53,53,54,54,55,55,56,56,58,58],"right_children":[2,4,6,8,10,12,14,16,18,20,22,24,26,28,30,32,34,36,38,40,42,44,46,48,50,52,54,56,-1,-1,58,60,62,64,66,68,70,72,74,76,78,-1,-1,-1,80,82,-1,84,86,88,-1,90,92,94,96,98,100,-1,102,-1,-1,-1,-1,-1,-1,-1,-1,-1,-1,-1,-1,-1,-1,-1,-1,-1,-1,-1,-1,-1,-1,-1,-1,-1,-1,-1,-1,-1,-1,-1,-1,-1,-1,-1,-1,-1,-1,-1,-1,-1,-1,-1,-1],"split_conditions":[-2.8014934E-1,5.6363577E-1,5.047678E-1,-1.7466536E0,8.262623E-2,-2.5418746E-1,1.2655204E-2,-5.3995234E-1,-2.9880488E-1,-1.6309282E-1,7.3929083E-1,1.8186886E0,8.283054E-1,2.1560056E0,-8.6026326E-2,-2.3528692E-1,-9.889248E-1,-1.9273987E-1,-4.680193E-1,-5.605749E-1,-2.2225374E-1,-5.9970915E-1,2.3550518E0,1.1032788E0,2.0535257E-1,-1.5849411E-1,2.7552438E0,1.0676231E0,2.9841545E-1,-1.8852739E-1,1.0676231E0,-3.5439566E-1,-1.15589544E-1,-2.6378412E0,-2.126445E-1,1.1032788E0,-3.466826E-1,5.985769E-1,-4.666971E-1,-2.6915824E-1,-2.4715155E-1,-2.4541889E-1,-5.3183127E-2,-3.451991E-1,4.1095853E-1,1.1032788E0,2.594033E-1,-1.699749E0,2.7024466E-1,-3.1393027E-1,1.5073198E-1,3.640539E-1,-3.709302E-1,-1.2675706E-1,4.0163627E0,-8.547969E-2,3.499927E0,3.290453E-1,2.4133887E0,-5.0333515E-2,-2.7846387E-1,1.8167597E-1,-1.6305038E-1,1.5536183E-1,-2.5567174E-1,3.317112E-1,3.906561E-2,-2.7085844E-1,-6.4475365E-2,-1.6100974E-1,1.2025536E-1,-3.3221337E-1,-2.6297325E-1,8.453201E-2,-2.3865378E-1,-2.3076496E-1,1.8370712E-1,3.5140744E-1,7.158168E-2,1.2321391E-1,-1.5479241E-1,-5.2106343E-2,2.1626757E-1,2.6850894E-1,4.2277493E-2,2.955198E-1,-1.1544365E-1,-7.087636E-2,-4.0085822E-1,1.1899018E-1,-1.696742E-1,1.9564965E-1,3.2586586E-1,7.2496017E-3,-2.7201635E-1,2.580241E-1,-8.3352503E-4,-1.1194179E-1,5.470961E-2,-2.527213E-1,2.7699456E-1,-1.8804061E-1,2.1855025E-1],"split_indices":[2,4,5,5,5,3,3,2,0,0,5,1,2,4,2,0,4,4,2,2,5,2,4,7,4,2,2,5,0,0,5,6,0,5,4,7,6,5,2,3,3,0,0,0,5,7,0,5,5,0,0,5,1,6,2,2,2,0,2,0,0,0,0,0,0,0,0,0,0,0,0,0,0,0,0,0,0,0,0,0,0,0,0,0,0,0,0,0,0,0,0,0,0,0,0,0,0,0,0,0,0,0,0],"split_type":[0,0,0,0,0,0,0,0,0,0,0,0,0,0,0,0,0,0,0,0,0,0,0,0,0,0,0,0,0,0,0,0,0,0,0,0,0,0,0,0,0,0,0,0,0,0,0,0,0,0,0,0,0,0,0,0,0,0,0,0,0,0,0,0,0,0,0,0,0,0,0,0,0,0,0,0,0,0,0,0,0,0,0,0,0,0,0,0,0,0,0,0,0,0,0,0,0,0,0,0,0,0,0],"sum_hessian":[7.7286224E2,2.8525256E2,4.8760968E2,2.450095E2,4.0243065E1,2.763121E2,2.1129756E2,1.3965782E1,2.3104373E2,1.30068655E1,2.72362E1,1.2322433E2,1.5308778E2,1.8726363E2,2.4033934E1,7.201079E0,6.7647033E0,9.673331E1,1.3431042E2,1.09485E1,2.0583653E0,1.2315465E1,1.4920735E1,1.1346019E2,9.764137E0,1.4166113E2,1.1426646E1,1.8052032E2,6.743294E0,1.716203E0,2.2317732E1,4.8532557E0,2.347823E0,2.5950787E0,4.169625E0,7.260315E1,2.4130156E1,9.462349E1,3.968693E1,6.429263E0,4.519237E0,1.0359484E0,1.0224171E0,5.9964175E0,6.319048E0,1.28376665E1,2.0830684E0,8.923056E1,2.4229633E1,7.9719796E0,1.7921579E0,1.2743295E1,1.2891785E2,6.2970896E0,5.1295567E0,1.6221849E2,1.8301838E1,1.9654335E1,2.663396E0,1.0791601E0,3.7740958E0,1.2750342E0,1.0727887E0,1.5122079E0,1.0828707E0,3.0321782E0,1.1374465E0,6.245641E1,1.0146737E1,1.2220346E1,1.190981E1,6.1471226E1,3.3152264E1,1.8799007E0,3.7807034E1,2.1427748E0,4.2864885E0,2.9803421E0,1.5388947E0,1.2382616E0,5.080786E0,1.144284E1,1.3948274E0,1.4958937E1,7.427162E1,2.2236195E1,1.9934381E0,4.458956E0,3.513024E0,1.0631747E1,2.1115475E0,8.682861E0,1.20234985E2,3.386663E0,2.9104269E0,3.5599906E0,1.5695659E0,3.42935E1,1.27924995E2,1.5854622E1,2.4472167E0,1.0731087E0,1.5902872E0],"tree_param":{"num_deleted":"0","num_feature":"8","num_nodes":"103","size_leaf_vector":"0"}},{"base_weights":[1.6455306E-2,-5.8539224E-1,3.4799966E-1,-7.719119E-1,-2.9905155E-1,1.3354242E-1,6.208664E-1,5.8480617E-2,-8.2056934E-1,-5.7046395E-2,-5.4369444E-1,8.583464E-1,6.405662E-2,7.572367E-1,-1.0552505E-1,-4.988494E-1,3.9790532E-1,-8.7357444E-1,-4.021908E-1,-4.6031648E-1,2.0647876E-1,-8.1176126E-1,-1.5398057E-1,-4.3475547E-1,1.0579334E0,1.0722541E-1,-6.8228E-1,1.2527265E-1,9.2272437E-1,-7.3076546E-1,5.440568E-1,-7.2860664E-1,-8.6619645E-2,-2.75416E-1,6.7209005E-1,-9.843364E-1,-6.5487427E-1,1.6518508E-1,-7.56637E-1,-7.219356E-1,2.1194701E-1,3.9776734E-1,-6.460351E-1,-9.9951315E-1,-3.4631813E-1,1.0259466E-1,-8.802651E-1,-9.758283E-1,2.784214E-1,2.8087378E-1,1.0902721E0,-4.3873815E-3,5.5759126E-1,-2.9350879E-2,-1.510147E0,-2.291906E-1,6.806077E-1,9.480263E-1,-7.5689226E-1,8.197052E-2,-9.0188E-1,8.926625E-2,8.389229E-1,2.223652E-1,8.8648003E-1,-9.9522096E-1,-1.8114011E-1,-1.4922987E-1,-7.155048E-1,-1.814822E-1,1.1881378E0,-9.035029E-1,-2.2695538E-1,-3.289917E-1,-9.6918213E-1,9.113153E-1,-2.0363623E-1,-2.2050717E-1,6.0450506E-1,-6.511856E-3,-7.972986E-1,-1.0455124E0,-7.697183E-2,-9.2628866E-1,1.1164899E-1,-3.4493032E-1,4.7747308E-1,-2.0249218E-1,2.45574E-1,1.0464603E0,-4.2516906E-2,-5.1117414E-1,5.716639E-1,-2.5559488E-1,-1.9593556E0,3.7292922E-1,-7.299995E-1,2.9658213E-1,9.831621E-1,1.4762484E-2,9.669157E-1,6.2819445E-1,-4.1211924E-1,-9.914866E-1,-4.4573206E-2,-3.1264743E-1,8.1509894E-1,9.9000764E-1,1.3916631E-1],"categories":[],"categories_nodes":[],"categories_segments":[],"categories_sizes":[],"default_left":[true,true,true,true,true,true,true,true,true,true,true,true,true,true,true,true,true,true,true,true,true,true,true,true,true,true,true,true,true,true,true,false,false,false,true,true,true,true,true,true,true,true,true,true,true,true,false,false,false,false,false,true,true,true,true,true,true,true,false,true,true,true,true,false,false,false,false,false,false,false,false,false,false,false,false,false,false,false,false,false,false,false,false,false,false,false,false,false,false,false,false,false,false,false,false,false,false,false,false,false,false,false,false,false,false,false,false,false,false],"id":6,"left_children":[1,3,5,7,9,11,13,15,17,19,21,23,25,27,29,31,33,35,37,39,41,43,45,47,49,51,53,55,57,59,61,-1,-1,-1,63,65,67,69,71,73,75,77,79,81,83,85,-1,-1,-1,-1,-1,87,89,91,93,95,97,99,-1,101,103,105,107,-1,-1,-1,-1,-1,-1,-1,-1,-1,-1,-1,-1,-1,-1,-1,-1,-1,-1,-1,-1,-1,-1,-1,-1,-1,-1,-1,-1,-1,-1,-1,-1,-1,-1,-1,-1,-1,-1,-1,-1,-1,-1,-1,-1,-1,-1],"loss_changes":[1.3766254E2,1.2857681E1,2.5946903E1,6.0184937E0,5.788743E0,1.2552982E1,1.944345E1,1.9223652E0,2.7456665E0,5.4652762E0,4.96953E0,6.091242E0,7.4679203E0,1.7109222E1,1.3302901E1,3.0559748E-1,1.3333724E0,2.337265E0,3.6557305E0,3.7199507E0,5.353445E0,2.1582146E0,4.0236597E0,1.6709772E0,1.760788E-1,1.0952217E1,6.812699E0,7.111729E0,6.2577667E0,2.3849697E0,2.091866E0,0E0,0E0,0E0,2.570603E-1,5.1672363E-1,1.253561E0,2.9006634E0,6.4951515E-1,1.121583E0,2.0615668E0,3.4750066E0,5.8571124E-1,7.636032E-1,2.6977527E0,2.9317107E0,0E0,0E0,0E0,0E0,0E0,8.743343E0,1.2739123E1,2.6412911E0,2.6402493E0,7.0018425E0,1.3372645E0,2.2576294E0,0E0,1.2863091E0,1.0167589E0,2.4352775E0,8.8594484E-1,0E0,0E0,0E0,0E0,0E0,0E0,0E0,0E0,0E0,0E0,0E0,0E0,0E0,0E0,0E0,0E0,0E0,0E0,0E0,0E0,0E0,0E0,0E0,0E0,0E0,0E0,0E0,0E0,0E0,0E0,0E0,0E0,0E0,0E0,0E0,0E0,0E0,0E0,0E0,0E0,0E0,0E0,0E0,0E0,0E0,0E0],"parents":[2147483647,0,0,1,1,2,2,3,3,4,4,5,5,6,6,7,7,8,8,9,9,10,10,11,11,12,12,13,13,14,14,15,15,16,16,17,17,18,18,19,19,20,20,21,21,22,22,23,23,24,24,25,25,26,26,27,27,28,28,29,29,30,30,34,34,35,35,36,36,37,37,38,38,39,39,40,40,41,41,42,42,43,43,44,44,45,45,51,51,52,52,53,53,54,54,55,55,56,56,57,57,59,59,60,60,61,61,62,62],"right_children":[2,4,6,8,10,12,14,16,18,20,22,24,26,28,30,32,34,36,38,40,42,44,46,48,50,52,54,56,58,60,62,-1,-1,-1,64,66,68,70,72,74,76,78,80,82,84,86,-1,-1,-1,-1,-1,88,90,92,94,96,98,100,-1,102,104,106,108,-1,-1,-1,-1,-1,-1,-1,-1,-1,-1,-1,-1,-1,-1,-1,-1,-1,-1,-1,-1,-1,-1,-1,-1,-1,-1,-1,-1,-1,-1,-1,-1,-1,-1,-1,-1,-1,-1,-1,-1,-1,-1,-1,-1,-1,-1],"split_conditions":[-2.8014934E-1,-1.9273987E-1,-2.4255651E-1,-2.004629E0,-2.4791595E-1,-1.5121305E0,6.5861845E-1,-1.3870173E0,1.1032788E0,-3.4656948E-1,5.985769E-1,-2.7291507E-1,-1.3295716E-1,-6.5038264E-2,2.576221E0,-5.0938565E-1,-7.914334E-1,-5.2941966E-1,-3.1576115E-1,-3.794167E-1,-1.5616617E-1,5.6363577E-1,3.8048076E-3,-5.9083235E-1,-2.2683872E-1,-2.496219E-1,3.875062E-1,2.0535257E-1,1.0676231E0,1.06078535E-1,-2.1547374E-1,-2.18582E-1,-2.5985895E-2,-8.26248E-2,-7.5006926E-1,2.3837516E0,-2.7273703E-1,8.8000464E-1,-4.5542312E-1,2.2334006E-1,-1.5198837E-1,-9.126383E-1,-6.9129986E-1,5.993833E-1,-2.1101227E-1,-6.040739E-1,-2.6407954E-1,-2.927485E-1,8.3526425E-2,8.426213E-2,3.2708162E-1,-1.9273987E-1,-2.1482477E-1,-2.7430132E-1,-3.118474E-1,3.640539E-1,9.21919E-1,-3.232289E-1,-2.270677E-1,1.3073807E0,1.7181039E0,9.418236E-1,7.3285475E-2,6.670956E-2,2.6594403E-1,-2.985663E-1,-5.4342035E-2,-4.4768963E-2,-2.1465145E-1,-5.444466E-2,3.5644135E-1,-2.7105087E-1,-6.808662E-2,-9.869752E-2,-2.9075465E-1,2.733946E-1,-6.109087E-2,-6.6152155E-2,1.8135153E-1,-1.953557E-3,-2.391896E-1,-3.1365374E-1,-2.3091549E-2,-2.778866E-1,3.34947E-2,-1.034791E-1,1.4324193E-1,-6.0747657E-2,7.3672205E-2,3.1393808E-1,-1.2755073E-2,-1.5335225E-1,1.7149918E-1,-7.667847E-2,-5.878067E-1,1.1187877E-1,-2.1899985E-1,8.897464E-2,2.9494864E-1,4.4287452E-3,2.9007474E-1,1.8845834E-1,-1.2363578E-1,-2.9744598E-1,-1.3371962E-2,-9.3794234E-2,2.445297E-1,2.9700232E-1,4.1749895E-2],"split_indices":[2,4,3,5,3,5,2,4,7,6,5,3,6,2,2,2,2,2,0,2,6,4,0,4,2,6,5,4,5,5,0,0,0,0,4,1,3,5,2,5,5,2,5,3,3,2,0,0,0,0,0,4,6,0,0,5,4,6,0,2,4,4,6,0,0,0,0,0,0,0,0,0,0,0,0,0,0,0,0,0,0,0,0,0,0,0,0,0,0,0,0,0,0,0,0,0,0,0,0,0,0,0,0,0,0,0,0,0,0],"split_type":[0,0,0,0,0,0,0,0,0,0,0,0,0,0,0,0,0,0,0,0,0,0,0,0,0,0,0,0,0,0,0,0,0,0,0,0,0,0,0,0,0,0,0,0,0,0,0,0,0,0,0,0,0,0,0,0,0,0,0,0,0,0,0,0,0,0,0,0,0,0,0,0,0,0,0,0,0,0,0,0,0,0,0,0,0,0,0,0,0,0,0,0,0,0,0,0,0,0,0,0,0,0,0,0,0,0,0,0,0],"sum_hessian":[6.878815E2,2.4406615E2,4.438153E2,1.4676743E2,9.729871E1,2.4933894E2,1.9447636E2,8.112735E0,1.386547E2,4.9532978E1,4.776574E1,2.0819424E1,2.2851952E2,1.6370119E2,3.0775177E1,2.892918E0,5.2198167E0,1.220979E2,1.6556795E1,1.9280872E1,3.0252104E1,2.7658037E1,2.0107702E1,2.6262138E0,1.819321E1,2.1683397E2,1.1685543E1,3.4335976E1,1.293652E2,1.5617717E1,1.515746E1,1.3647784E0,1.5281398E0,1.509186E0,3.710631E0,7.872587E1,4.337203E1,6.5715003E0,9.985295E0,1.3826314E1,5.4545584E0,2.5143728E1,5.1083765E0,1.889049E1,8.767549E0,1.549316E1,4.614543E0,1.283878E0,1.3423358E0,1.1138576E0,1.7079353E1,1.7456285E2,4.227112E1,7.1119123E0,4.5736303E0,2.1316938E1,1.3019035E1,1.2787446E2,1.4907492E0,2.8068926E0,1.2810823E1,6.4743695E0,8.683091E0,1.8555182E0,1.8551126E0,7.743739E1,1.2884761E0,5.014403E0,3.8357624E1,5.5225573E0,1.0489432E0,7.2651305E0,2.7201648E0,6.2399354E0,7.586379E0,1.5884914E0,3.866067E0,6.284013E0,1.8859715E1,1.1766589E0,3.9317176E0,1.786635E1,1.0241387E0,3.4172838E0,5.3502645E0,7.0987053E0,8.394455E0,9.7488815E1,7.7074036E1,2.288468E1,1.938644E1,4.0303397E0,3.0815728E0,1.6195453E0,2.9540849E0,9.795367E0,1.1521571E1,6.609723E0,6.4093127E0,2.5721967E0,1.2530226E2,1.2042062E0,1.6026864E0,1.145683E1,1.3539934E0,4.5333724E0,1.9409971E0,6.800092E0,1.8829987E0],"tree_param":{"num_deleted":"0","num_feature":"8","num_nodes":"109","size_leaf_vector":"0"}},{"base_weights":[1.1601467E-2,-4.0637028E-1,3.4476677E-1,-6.818366E-1,-2.2208928E-1,5.5225456E-1,-3.4535896E-2,-8.3588904E-1,-1.908214E-1,-3.0389425E-1,3.7013477E-1,3.06591E-1,8.253773E-1,-2.1149902E-1,2.629215E-1,-8.624975E-1,-7.3104E-2,5.853402E-2,-5.5984086E-1,4.1743836E-1,-3.698367E-1,2.2062586E-1,8.8320965E-1,4.0308318E-1,-3.3148798E-1,9.3212026E-1,3.419052E-1,1.0326516E-1,-5.985331E-1,1.1604428E-1,4.942904E-1,-9.0516686E-1,-3.8249886E-1,8.6276484E-1,-7.268778E-1,-2.0881209E-1,1.1629328E0,2.10223E-1,-6.711134E-1,-9.807297E-1,6.528526E-1,-4.1537017E-1,3.3906382E-1,-5.4985583E-2,6.309141E-1,4.72674E-1,-6.72165E-1,4.4151938E-1,-7.754055E-1,4.0699613E-1,9.912808E-1,-8.5816294E-2,8.8035977E-1,-5.3189623E-1,6.280334E-1,-7.2350156E-1,-2.173012E-2,2.0424303E-1,-5.720024E-1,5.878888E-1,-4.972718E-1,-1.1871347E-1,-9.281582E-1,-8.271343E-1,7.250965E-2,-9.743812E-1,1.1386787E-1,-9.103993E-1,-7.5645834E-2,7.901501E-1,-2.8440893E-1,8.28965E-1,-4.373248E-1,8.201999E-1,-5.049554E-1,-4.651375E-1,1.6573757E-1,1.722121E-1,1.0024602E0,1.595438E-1,6.628722E-1,-9.9098E-1,1.4345646E-1,1.3807739E0,-4.9984798E-1,-1.2344645E0,8.911739E-1,6.1073613E-1,-3.791691E-1,5.925842E-2,1.0033225E0,-4.1955322E-1,4.7998184E-1,-1.087291E0,-2.4867074E-1,7.63621E-1,-7.0595163E-1,-8.407811E-1,1.0354162E-1,-3.7029967E-1,5.364406E-1,4.2213112E-2,4.907748E-1,1.1765724E-1,-1.0996282E0,3.402157E-1,8.1931186E-1],"categories":[],"categories_nodes":[],"categories_segments":[],"categories_sizes":[],"default_left":[true,true,true,true,true,true,true,true,true,true,true,true,true,true,true,true,true,true,true,true,true,true,false,true,true,true,true,true,true,true,true,true,true,false,false,true,false,false,true,false,true,true,true,true,true,true,true,true,true,true,true,true,false,true,true,true,true,true,true,true,false,false,false,false,false,false,false,false,false,false,false,false,false,false,false,false,false,false,false,false,false,false,false,false,false,false,false,false,false,false,false,false,false,false,false,false,false,false,false,false,false,false,false,false,false,false,false],"id":7,"left_children":[1,3,5,7,9,11,13,15,17,19,21,23,25,27,29,31,33,35,37,39,41,43,-1,45,47,49,51,53,55,57,59,61,63,-1,-1,65,-1,-1,67,-1,69,71,73,75,77,79,81,83,85,87,89,91,-1,93,95,97,99,101,103,105,-1,-1,-1,-1,-1,-1,-1,-1,-1,-1,-1,-1,-1,-1,-1,-1,-1,-1,-1,-1,-1,-1,-1,-1,-1,-1,-1,-1,-1,-1,-1,-1,-1,-1,-1,-1,-1,-1,-1,-1,-1,-1,-1,-1,-1,-1,-1],"loss_changes":[8.617793E1,1.3783321E1,2.7119228E1,8.126862E0,8.152625E0,1.4685539E1,6.5144467E0,1.6233788E0,2.5593166E0,7.116453E0,1.3847921E0,7.448409E0,5.0917435E0,9.501548E0,1.5131316E0,1.2962914E0,3.0092573E0,5.3480377E0,1.0979202E0,4.830126E0,4.486706E0,1.9886062E0,0E0,8.0736065E0,5.8859024E0,2.2465057E0,4.806054E0,1.486173E1,2.4999924E0,1.9116147E0,1.9293652E0,1.2082825E0,1.7348932E0,0E0,0E0,3.7593017E0,0E0,0E0,1.3553395E0,0E0,1.7039833E0,3.8309174E0,3.9375663E0,1.0960718E0,1.0243392E0,5.7270565E0,1.8878708E0,6.4641047E0,9.228537E0,1.8866979E0,7.931137E-1,2.5349371E0,0E0,2.9165988E0,4.93888E0,2.8664293E0,1.6084198E0,1.2305752E0,1.447927E0,6.713238E-1,0E0,0E0,0E0,0E0,0E0,0E0,0E0,0E0,0E0,0E0,0E0,0E0,0E0,0E0,0E0,0E0,0E0,0E0,0E0,0E0,0E0,0E0,0E0,0E0,0E0,0E0,0E0,0E0,0E0,0E0,0E0,0E0,0E0,0E0,0E0,0E0,0E0,0E0,0E0,0E0,0E0,0E0,0E0,0E0,0E0,0E0,0E0],"parents":[2147483647,0,0,1,1,2,2,3,3,4,4,5,5,6,6,7,7,8,8,9,9,10,10,11,11,12,12,13,13,14,14,15,15,16,16,17,17,18,18,19,19,20,20,21,21,23,23,24,24,25,25,26,26,27,27,28,28,29,29,30,30,31,31,32,32,35,35,38,38,40,40,41,41,42,42,43,43,44,44,45,45,46,46,47,47,48,48,49,49,50,50,51,51,53,53,54,54,55,55,56,56,57,57,58,58,59,59],"right_children":[2,4,6,8,10,12,14,16,18,20,22,24,26,28,30,32,34,36,38,40,42,44,-1,46,48,50,52,54,56,58,60,62,64,-1,-1,66,-1,-1,68,-1,70,72,74,76,78,80,82,84,86,88,90,92,-1,94,96,98,100,102,104,106,-1,-1,-1,-1,-1,-1,-1,-1,-1,-1,-1,-1,-1,-1,-1,-1,-1,-1,-1,-1,-1,-1,-1,-1,-1,-1,-1,-1,-1,-1,-1,-1,-1,-1,-1,-1,-1,-1,-1,-1,-1,-1,-1,-1,-1,-1,-1],"split_conditions":[-1.5849411E-1,-5.671267E-1,3.9564395E-1,1.6554332E-1,9.617282E-1,-2.4285617E-1,2.576221E0,2.1012201E0,-2.1688849E-1,-1.6762967E0,2.4346702E0,8.8000464E-1,8.3309996E-1,8.036237E-1,-2.5331882E-1,9.738139E-1,-1.0228246E0,-2.5444955E-1,-2.923916E-1,-2.7382278E-1,9.738139E-1,-3.1763226E-1,2.649629E-1,1.8186886E0,-2.692712E-1,-4.8770696E-2,3.6458954E-1,3.9721644E-1,1.2204883E0,-2.560854E-1,2.8075488E0,-2.6847458E0,-5.1121384E-1,2.5882947E-1,-2.1806335E-1,-2.6940584E-1,3.4887984E-1,6.306691E-2,-3.1567205E-2,-2.9421893E-1,-2.1059099E-1,-4.0438395E0,-2.2321215E-1,1.2005837E0,-2.492015E-1,-3.1503087E-1,-2.7096963E-1,-2.7235836E-1,1.824667E-1,-6.6911384E-2,-6.374724E0,8.1850484E-2,2.6410794E-1,-4.5149997E-1,1.0207185E0,1.1032788E0,8.3309996E-1,3.247803E-1,-2.5334382E-1,-2.1547374E-1,-1.4918154E-1,-3.5614043E-2,-2.7844748E-1,-2.481403E-1,2.1752894E-2,-2.9231438E-1,3.4160364E-2,-2.731198E-1,-2.2693751E-2,2.3704503E-1,-8.532268E-2,2.4868952E-1,-1.3119744E-1,2.4605998E-1,-1.5148664E-1,-1.3954125E-1,4.9721275E-2,5.166363E-2,3.007381E-1,4.786314E-2,1.9886167E-1,-2.9729402E-1,4.3036938E-2,4.142322E-1,-1.499544E-1,-3.7033936E-1,2.673522E-1,1.8322085E-1,-1.1375073E-1,1.7777527E-2,3.0099675E-1,-1.2586597E-1,1.4399455E-1,-3.261873E-1,-7.4601226E-2,2.290863E-1,-2.117855E-1,-2.5223434E-1,3.1062488E-2,-1.1108991E-1,1.6093218E-1,1.2663934E-2,1.4723244E-1,3.5297174E-2,-3.2988846E-1,1.0206472E-1,2.4579357E-1],"split_indices":[2,2,2,4,4,3,2,1,6,5,4,5,5,2,3,5,2,6,0,3,5,2,0,1,3,2,4,2,4,3,1,5,4,0,0,3,0,0,0,0,3,1,3,4,3,0,6,4,2,2,1,2,0,4,5,7,5,4,0,0,0,0,0,0,0,0,0,0,0,0,0,0,0,0,0,0,0,0,0,0,0,0,0,0,0,0,0,0,0,0,0,0,0,0,0,0,0,0,0,0,0,0,0,0,0,0,0],"split_type":[0,0,0,0,0,0,0,0,0,0,0,0,0,0,0,0,0,0,0,0,0,0,0,0,0,0,0,0,0,0,0,0,0,0,0,0,0,0,0,0,0,0,0,0,0,0,0,0,0,0,0,0,0,0,0,0,0,0,0,0,0,0,0,0,0,0,0,0,0,0,0,0,0,0,0,0,0,0,0,0,0,0,0,0,0,0,0,0,0,0,0,0,0,0,0,0,0,0,0,0,0,0,0,0,0,0,0],"sum_hessian":[6.168496E2,2.735049E2,3.4334467E2,1.0854702E2,1.6495789E2,2.2164401E2,1.2170066E2,8.208963E1,2.645739E1,1.4536519E2,1.95927E1,1.17805214E2,1.03838806E2,7.6486404E1,4.5214256E1,7.919628E1,2.89335E0,1.629073E1,1.0166661E1,1.1729365E1,1.3363582E2,1.6279032E1,3.313668E0,1.02650406E2,1.5154806E1,8.429895E1,1.9539854E1,4.2585762E1,3.3900642E1,2.8575539E1,1.6638718E1,7.1917435E1,7.2788486E0,1.0584803E0,1.8348696E0,1.376863E1,2.522099E0,1.1713111E0,8.99535E0,1.2340636E0,1.0495302E1,1.2595937E2,7.6764474E0,1.0255724E1,6.023308E0,9.693698E1,5.713427E0,5.5302362E0,9.62457E0,9.333342E0,7.496561E1,1.1358138E1,8.181715E0,1.9260244E1,2.332552E1,2.765472E1,6.245921E0,2.5951982E1,2.6235557E0,1.5575573E1,1.0631453E0,2.2177958E0,6.969964E1,3.2677507E0,4.011098E0,3.4837244E0,1.0284905E1,6.039516E0,2.955834E0,9.29121E0,1.2040913E0,1.5465496E0,1.2441282E2,4.907265E0,2.7691822E0,3.2007308E0,7.054993E0,3.350438E0,2.6728694E0,3.732549E1,5.961149E1,3.953183E0,1.760244E0,2.534575E0,2.995661E0,7.749307E0,1.8752625E0,7.5895934E0,1.7437487E0,1.0317186E0,7.393389E1,7.3067284E0,4.05141E0,5.5459266E0,1.3714317E1,2.1561546E1,1.7639729E0,2.4205612E1,3.4491086E0,4.052055E0,2.1938663E0,1.7310467E1,8.641515E0,1.4739554E0,1.1496004E0,8.716802E0,6.858772E0],"tree_param":{"num_deleted":"0","num_feature":"8","num_nodes":"107","size_leaf_vector":"0"}},{"base_weights":[1.1355199E-2,-4.2081732E-1,2.3454878E-1,-6.0932356E-1,-1.8296957E-1,1.625751E-1,8.9921105E-1,-6.8590045E-1,-1.0857544E-1,-9.6345775E-2,-7.5777406E-1,5.813795E-1,6.1867967E-2,9.691102E-1,1.5954717E-1,-8.503266E-1,-4.4013157E-1,1.9284064E-1,-7.169027E-1,-1.4137621E-1,5.9018135E-1,-1.0338324E0,4.3862215E-1,1.2999862E-1,8.1379765E-1,7.8483E-1,3.4429222E-2,3.8100785E-1,1.0217879E0,-3.5422897E-1,6.670514E-1,-1.598439E-1,-8.820578E-1,1.1619084E-2,-5.834988E-1,1.0260967E0,-7.1106465E-3,-8.553782E-1,-9.362987E-2,-2.5874954E-2,-6.713362E-1,-9.324156E-2,8.1132066E-1,5.6794006E-1,-2.3440023E-1,8.645793E-1,4.466122E-2,1.2291363E0,1.6057405E-1,-7.9114646E-2,2.672351E-1,9.278699E-1,-4.059099E-1,-4.1732702E-1,2.3751414E-1,-9.274107E-1,-3.5839888E-1,3.9131996E-1,-7.307908E-1,4.222318E-1,-6.610783E-1,-7.2803575E-1,3.9608705E-1,3.2290342E-1,-1.2385538E-1,-8.46484E-1,6.7743145E-2,1.033651E0,1.6603304E-1,-5.2645713E-1,7.914918E-1,-7.5537676E-1,4.1069955E-1,9.4068795E-1,3.238204E-1,4.685293E-1,-4.3057594E-1,-8.3056605E-1,7.8452593E-1,-1.6628976E-1,3.8159418E-1,5.936186E-2,5.6743354E-1],"categories":[],"categories_nodes":[],"categories_segments":[],"categories_sizes":[],"default_left":[true,true,true,true,true,true,true,true,true,true,true,true,true,true,true,true,true,true,true,true,true,false,false,true,true,true,true,true,false,false,false,true,true,true,true,false,true,false,false,true,true,false,true,true,true,true,true,false,true,true,true,false,false,false,false,false,false,false,false,false,false,false,false,false,false,false,false,false,false,false,false,false,false,false,false,false,false,false,false,false,false,false,false],"id":8,"left_children":[1,3,5,7,9,11,13,15,17,19,21,23,25,27,29,31,33,35,37,39,41,-1,-1,43,45,47,49,51,-1,-1,-1,53,55,57,59,-1,61,-1,-1,63,65,-1,67,69,71,73,75,-1,77,79,81,-1,-1,-1,-1,-1,-1,-1,-1,-1,-1,-1,-1,-1,-1,-1,-1,-1,-1,-1,-1,-1,-1,-1,-1,-1,-1,-1,-1,-1,-1,-1,-1],"loss_changes":[5.3940445E1,8.427761E0,1.7493263E1,3.9832535E0,4.1909857E0,1.40478525E1,1.6966457E0,3.3271942E0,2.929725E0,2.4195576E0,4.109512E0,6.672615E0,5.335222E0,6.180916E-1,1.3545347E0,1.0379028E0,2.5189915E0,1.8346897E0,3.7354636E-1,4.372816E0,8.0783796E-1,0E0,0E0,3.8277352E0,1.6198254E0,2.5313735E0,6.932881E0,2.2132406E0,0E0,0E0,0E0,4.6595109E-1,8.8409424E-1,3.1965091E0,2.5780277E0,0E0,3.1481977E0,0E0,0E0,2.0879402E0,1.713521E0,0E0,3.683033E-1,3.060612E0,4.7950892E0,1.332447E0,9.4389224E-1,0E0,3.8927536E0,7.1531925E0,5.329729E0,0E0,0E0,0E0,0E0,0E0,0E0,0E0,0E0,0E0,0E0,0E0,0E0,0E0,0E0,0E0,0E0,0E0,0E0,0E0,0E0,0E0,0E0,0E0,0E0,0E0,0E0,0E0,0E0,0E0,0E0,0E0,0E0],"parents":[2147483647,0,0,1,1,2,2,3,3,4,4,5,5,6,6,7,7,8,8,9,9,10,10,11,11,12,12,13,13,14,14,15,15,16,16,17,17,18,18,19,19,20,20,23,23,24,24,25,25,26,26,27,27,31,31,32,32,33,33,34,34,36,36,39,39,40,40,42,42,43,43,44,44,45,45,46,46,48,48,49,49,50,50],"right_children":[2,4,6,8,10,12,14,16,18,20,22,24,26,28,30,32,34,36,38,40,42,-1,-1,44,46,48,50,52,-1,-1,-1,54,56,58,60,-1,62,-1,-1,64,66,-1,68,70,72,74,76,-1,78,80,82,-1,-1,-1,-1,-1,-1,-1,-1,-1,-1,-1,-1,-1,-1,-1,-1,-1,-1,-1,-1,-1,-1,-1,-1,-1,-1,-1,-1,-1,-1,-1,-1],"split_conditions":[-2.752685E-1,-1.9273987E-1,3.1169787E-2,1.1032788E0,-4.50338E-3,-5.7403827E-1,8.866788E-1,-5.2941966E-1,-2.5809628E-1,-3.1567205E-2,1.4863338E0,-2.677728E-1,-1.187971E0,-9.3004145E-2,2.716021E0,-2.6847458E0,-5.271337E-1,-1.3621985E0,-5.9590243E-2,-1.547039E-1,3.1714928E-1,-3.1014973E-1,1.3158666E-1,-3.5277084E-1,2.0535772E0,-2.6543617E-1,2.0535257E-1,6.2202924E-1,3.0653638E-1,-1.062687E-1,2.0011543E-1,-1.1882252E-1,9.738139E-1,-5.1121384E-1,-5.288027E-1,3.0782902E-1,-6.6729015E-1,-2.5661346E-1,-2.808896E-2,-1.9880143E-1,1.5588669E0,-2.797247E-2,1.3797252E0,-2.0061438E-1,-2.3254913E-1,-8.55466E-1,-5.9083235E-1,3.6874092E-1,-2.6093668E-1,1.1032788E0,-2.4727318E-1,2.78361E-1,-1.21772975E-1,-1.2519811E-1,7.1254246E-2,-2.7822322E-1,-1.0751967E-1,1.1739599E-1,-2.1923725E-1,1.2666954E-1,-1.9832349E-1,-2.1841073E-1,1.1882612E-1,9.687103E-2,-3.7156615E-2,-2.539452E-1,2.0322945E-2,3.100953E-1,4.9809914E-2,-1.5793714E-1,2.3744754E-1,-2.2661303E-1,1.2320987E-1,2.822064E-1,9.714613E-2,1.405588E-1,-1.2917279E-1,-2.4916983E-1,2.3535779E-1,-4.988693E-2,1.1447826E-1,1.7808558E-2,1.7023006E-1],"split_indices":[2,4,0,7,0,5,2,2,3,0,0,3,4,2,2,5,5,2,0,6,5,0,0,6,2,3,4,5,0,0,0,3,5,4,2,0,2,0,0,5,4,0,4,2,4,5,4,0,3,7,3,0,0,0,0,0,0,0,0,0,0,0,0,0,0,0,0,0,0,0,0,0,0,0,0,0,0,0,0,0,0,0,0],"split_type":[0,0,0,0,0,0,0,0,0,0,0,0,0,0,0,0,0,0,0,0,0,0,0,0,0,0,0,0,0,0,0,0,0,0,0,0,0,0,0,0,0,0,0,0,0,0,0,0,0,0,0,0,0,0,0,0,0,0,0,0,0,0,0,0,0,0,0,0,0,0,0,0,0,0,0,0,0,0,0,0,0,0,0],"sum_hessian":[5.5718774E2,1.894561E2,3.6773163E2,1.04819534E2,8.463656E1,3.3292508E2,3.4806553E1,9.059548E1,1.4224055E1,7.456685E1,1.0069708E1,6.3612183E1,2.693129E2,3.1517874E1,3.28868E0,5.280657E1,3.7788914E1,9.96805E0,4.2560053E0,7.072214E1,3.8447099E0,8.292225E0,1.7774835E0,2.2151312E1,4.1460873E1,8.838232E0,2.6047467E2,3.2678537E0,2.825002E1,1.7843233E0,1.5043569E0,2.5853708E0,5.0221195E1,9.324942E0,2.8463972E1,1.1294723E0,8.838578E0,3.1776204E0,1.078385E0,5.8928E1,1.1794142E1,1.0813122E0,2.7633977E0,9.806776E0,1.2344536E1,3.8776585E1,2.6842866E0,4.5972414E0,4.240991E0,1.75527E2,8.4947685E1,1.8223246E0,1.4455292E0,1.5383103E0,1.0470605E0,4.5508762E1,4.712433E0,6.482443E0,2.8424988E0,1.7202533E0,2.674372E1,2.8812299E0,5.9573483E0,1.2420276E1,4.6507725E1,9.417136E0,2.3770053E0,1.6076463E0,1.1557515E0,1.4336039E0,8.373172E0,6.734705E0,5.6098304E0,3.334404E1,5.4325457E0,1.4262853E0,1.2580013E0,1.5104774E0,2.7305136E0,1.4813585E2,2.739114E1,5.089975E1,3.404794E1],"tree_param":{"num_deleted":"0","num_feature":"8","num_nodes":"83","size_leaf_vector":"0"}},{"base_weights":[1.0362604E-2,-4.2764738E-1,1.5821557E-1,-5.217971E-1,7.424069E-2,3.321321E-1,-3.0434208E-2,-6.326202E-1,9.2578076E-2,-5.9420305E-1,2.3402359E-1,1.4975928E-1,5.848612E-1,-3.592828E-1,7.804326E-2,-7.122057E-1,-3.405711E-1,2.2229657E-1,-7.85907E-1,-8.1894314E-1,7.851593E-2,7.0946866E-1,-1.5996007E-2,2.3807954E-2,3.7418547E-1,4.2213686E-2,7.3919386E-1,-5.6324315E-1,6.802891E-2,-3.8205972E-1,1.458667E-1,-3.4808305E-1,-8.023557E-1,-6.1088616E-1,3.4112975E-1,-7.0809657E-3,1.5801355E0,9.4542193E-1,-1.17382124E-1,-6.080276E-1,3.9069542E-1,4.1276005E-1,-1.6965427E-1,4.2616573E-1,-5.4536736E-1,6.9192535E-1,-1.597684E-1,8.682149E-1,1.2572842E-2,2.3826037E-1,-6.805357E-1,-8.2114214E-1,3.6318386E-1,3.2800582E-1,-7.3388004E-1,4.2364395E-1,7.3862714E-3,-7.2700274E-1,7.248042E-1,1.8338493E-1,-8.2831126E-1,-7.68645E-1,5.411379E-1,8.2686394E-1,-6.9294685E-1,3.155586E-1,-5.4684275E-1,-8.9875895E-1,-2.2493236E-2,-2.6739997E-1,5.2195156E-1,-1.3591787E-1,7.737732E-1,2.4947137E-1,-3.7596375E-1,4.8374796E-1,-7.7395064E-1,-8.001132E-2,9.785385E-1,-5.0343376E-1,3.9929917E-1,9.1245675E-1,3.3958096E-2,3.460952E-1,-4.3771562E-1,5.9485006E-1,-5.142363E-1,-7.887557E-1,1.6399354E-1,-1.019997E0,-9.080376E-2,6.247057E-1,-3.098787E-1,-5.9345964E-2,1.2151083E0,-1.1419949E-1,-1.1916484E0,5.8661073E-1,-4.0788454E-1,-9.1933924E-1,8.31145E-2],"categories":[],"categories_nodes":[],"categories_segments":[],"categories_sizes":[],"default_left":[true,true,true,true,true,true,true,true,true,true,true,true,true,true,true,true,true,true,false,false,false,true,true,true,true,true,true,true,true,true,true,true,true,true,true,true,false,false,false,true,true,true,true,true,false,true,true,true,true,true,true,true,true,true,true,true,true,false,false,false,false,false,false,false,false,false,false,false,false,false,false,false,false,false,false,false,false,false,false,false,false,false,false,false,false,false,false,false,false,false,false,false,false,false,false,false,false,false,false,false,false],"id":9,"left_children":[1,3,5,7,9,11,13,15,17,19,21,23,25,27,29,31,33,35,-1,-1,-1,37,39,41,43,45,47,49,51,53,55,57,59,61,63,65,-1,-1,-1,67,69,71,73,75,-1,77,79,81,83,85,87,89,91,93,95,97,99,-1,-1,-1,-1,-1,-1,-1,-1,-1,-1,-1,-1,-1,-1,-1,-1,-1,-1,-1,-1,-1,-1,-1,-1,-1,-1,-1,-1,-1,-1,-1,-1,-1,-1,-1,-1,-1,-1,-1,-1,-1,-1,-1,-1],"loss_changes":[3.371946E1,6.24811E0,1.2780218E1,7.6009274E0,2.4495416E0,9.250578E0,6.720905E0,1.9416809E0,2.2032056E0,7.379811E-1,2.172012E0,3.3555818E0,7.051962E0,4.109902E0,4.4838953E0,2.1148071E0,4.269986E0,5.084831E0,0E0,0E0,0E0,1.3374252E0,3.3412013E0,5.887225E0,2.2743168E0,2.7073898E0,6.156704E0,3.145152E0,4.4936843E0,4.863968E0,4.781955E0,7.1290507E0,1.6280174E0,3.349451E0,4.0387526E0,2.7728364E0,0E0,0E0,0E0,9.399445E-1,8.521985E-1,5.249454E0,4.6193295E0,3.2073417E0,0E0,1.1580892E0,3.257454E0,2.0305176E0,1.7936983E0,1.5915763E0,2.6828575E0,5.305233E-1,2.4282455E0,2.4165235E0,3.4619837E0,5.8448505E0,5.9735312E0,0E0,0E0,0E0,0E0,0E0,0E0,0E0,0E0,0E0,0E0,0E0,0E0,0E0,0E0,0E0,0E0,0E0,0E0,0E0,0E0,0E0,0E0,0E0,0E0,0E0,0E0,0E0,0E0,0E0,0E0,0E0,0E0,0E0,0E0,0E0,0E0,0E0,0E0,0E0,0E0,0E0,0E0,0E0,0E0],"parents":[2147483647,0,0,1,1,2,2,3,3,4,4,5,5,6,6,7,7,8,8,9,9,10,10,11,11,12,12,13,13,14,14,15,15,16,16,17,17,21,21,22,22,23,23,24,24,25,25,26,26,27,27,28,28,29,29,30,30,31,31,32,32,33,33,34,34,35,35,39,39,40,40,41,41,42,42,43,43,45,45,46,46,47,47,48,48,49,49,50,50,51,51,52,52,53,53,54,54,55,55,56,56],"right_children":[2,4,6,8,10,12,14,16,18,20,22,24,26,28,30,32,34,36,-1,-1,-1,38,40,42,44,46,48,50,52,54,56,58,60,62,64,66,-1,-1,-1,68,70,72,74,76,-1,78,80,82,84,86,88,90,92,94,96,98,100,-1,-1,-1,-1,-1,-1,-1,-1,-1,-1,-1,-1,-1,-1,-1,-1,-1,-1,-1,-1,-1,-1,-1,-1,-1,-1,-1,-1,-1,-1,-1,-1,-1,-1,-1,-1,-1,-1,-1,-1,-1,-1,-1,-1],"split_conditions":[-3.8600427E-1,7.6268196E-1,5.047678E-1,1.1032788E0,-2.6915824E-1,-2.5418746E-1,-5.5102307E-1,8.3309996E-1,-4.272843E-1,-3.0821902E-1,8.262623E-2,-7.331215E-2,-1.5849411E-1,-2.377975E-1,-3.5476255E-1,-2.701398E-1,-5.308728E-1,-4.6501744E-1,-2.357721E-1,-2.4568295E-1,2.3554781E-2,-1.7721394E-1,7.3929083E-1,-7.1026003E-1,-1.2896086E-1,-6.306416E-1,7.0156574E-1,-1.1481618E0,-9.464185E-2,-2.7355784E-1,-2.6210934E-1,-2.9717427E-1,-1.6213567E0,-3.1567205E-2,-4.45628E-1,-2.6222658E-1,4.7404066E-1,2.836266E-1,-3.521464E-2,-6.0160625E-1,-2.60624E-1,-3.5059154E-1,-3.5312396E-1,-2.5522977E-1,-1.6361022E-1,-2.6558658E-1,6.306342E-3,8.298285E-1,-1.6048416E-1,1.1851175E0,2.4326181E0,-5.1143337E-2,-8.454947E-2,-2.736925E-1,1.3413164E-1,-2.0111872E-1,-2.5983787E-1,-2.1810083E-1,2.1744128E-1,5.501548E-2,-2.4849339E-1,-2.305935E-1,1.6234137E-1,2.480592E-1,-2.0788406E-1,9.466759E-2,-1.6405283E-1,-2.696277E-1,-6.747971E-3,-8.021999E-2,1.5658547E-1,-4.0775362E-2,2.3213197E-1,7.484141E-2,-1.1278913E-1,1.4512439E-1,-2.321852E-1,-2.4003398E-2,2.9356158E-1,-1.5103014E-1,1.1978976E-1,2.7373704E-1,1.0187429E-2,1.03828564E-1,-1.313147E-1,1.7845502E-1,-1.5427089E-1,-2.3662673E-1,4.9198065E-2,-3.059991E-1,-2.7241128E-2,1.8741171E-1,-9.296361E-2,-1.780379E-2,3.645325E-1,-3.425985E-2,-3.5749453E-1,1.7598322E-1,-1.2236536E-1,-2.7580178E-1,2.493435E-2],"split_indices":[2,4,5,7,3,3,4,5,2,0,5,4,2,6,6,3,2,2,0,0,0,3,5,4,0,4,2,4,2,3,3,6,2,0,2,3,0,0,0,2,3,6,6,3,0,0,4,1,3,2,2,3,6,3,2,6,3,0,0,0,0,0,0,0,0,0,0,0,0,0,0,0,0,0,0,0,0,0,0,0,0,0,0,0,0,0,0,0,0,0,0,0,0,0,0,0,0,0,0,0,0],"split_type":[0,0,0,0,0,0,0,0,0,0,0,0,0,0,0,0,0,0,0,0,0,0,0,0,0,0,0,0,0,0,0,0,0,0,0,0,0,0,0,0,0,0,0,0,0,0,0,0,0,0,0,0,0,0,0,0,0,0,0,0,0,0,0,0,0,0,0,0,0,0,0,0,0,0,0,0,0,0,0,0,0,0,0,0,0,0,0,0,0,0,0,0,0,0,0,0,0,0,0,0,0],"sum_hessian":[5.1863E2,1.3040796E2,3.8822208E2,1.097754E2,2.0632553E1,2.0160318E2,1.866189E2,9.2974625E1,1.6800776E1,3.4559488E0,1.7176605E1,1.1802632E2,8.357686E1,4.5716778E1,1.4090211E2,7.1933556E1,2.1041065E1,1.5289987E1,1.5107892E0,2.4275854E0,1.0283636E0,5.2863207E0,1.1890285E1,7.6307495E1,4.1718822E1,1.8788464E1,6.47884E1,3.0730623E1,1.4986156E1,1.7506664E1,1.2339545E2,1.5239844E1,5.6693714E1,1.5141057E1,5.9000077E0,1.3931369E1,1.3586185E0,4.001139E0,1.2851813E0,4.640266E0,7.250018E0,2.4970745E1,5.133675E1,3.999457E1,1.7242525E0,3.8804908E0,1.4907971E1,5.4853565E1,9.934834E0,3.791379E0,2.6939243E1,3.290691E0,1.1695465E1,5.8226733E0,1.1683991E1,4.036608E1,8.3029366E1,1.1500509E1,3.739335E0,1.2988943E0,5.5394817E1,1.3610073E1,1.5309838E0,4.1506963E0,1.7493118E0,8.979373E0,4.9519954E0,2.743244E0,1.8970222E0,1.0330826E0,6.2169356E0,1.0157143E1,1.4813602E1,1.6865213E1,3.447154E1,3.8733055E1,1.2615167E0,1.245857E0,2.634634E0,9.294219E0,5.6137533E0,5.2002087E1,2.85148E0,5.840356E0,4.0944777E0,2.7145283E0,1.0768504E0,2.3937832E1,3.0014114E0,2.2747252E0,1.0159657E0,8.474502E0,3.220964E0,4.7024555E0,1.120218E0,5.4949512E0,6.18904E0,3.3997612E1,6.3684697E0,5.43073E0,7.759863E1],"tree_param":{"num_deleted":"0","num_feature":"8","num_nodes":"101","size_leaf_vector":"0"}},{"base_weights":[6.010691E-3,-2.3201303E-1,1.8952881E-1,-4.6086803E-1,-1.147138E-1,3.66089E-1,-8.1665546E-2,-6.7157036E-1,-1.4772448E-1,8.92974E-1,-1.3389082E-1,1.010471E-1,5.8790374E-1,-2.3552696E-1,1.6916649E-1,-1.6843487E-1,-7.4103856E-1,1.9954501E-1,-4.3825722E-1,-1.9090457E-1,2.5506055E-1,3.0810207E-1,-4.5587263E-1,2.8758934E-1,8.805837E-1,4.066151E-2,-4.93388E-1,1.1161956E-1,8.400212E-1,-4.776148E-1,4.6572524E-1,-7.9744834E-1,-1.4514649E-1,-5.4196405E-1,5.4646206E-1,-9.9393564E-1,-1.5567097E-1,-7.0891425E-2,-4.0699455E-1,3.3600298E-1,-3.5205302E-1,1.845476E-1,1.0574459E0,-1.1377759E-1,-1.1118013E0,7.7626306E-1,1.6971105E-1,1.2141741E-1,8.963239E-1,-4.0431184E-1,6.043579E-1,1.9333716E-1,-5.716525E-1,6.617083E-1,3.0526318E-2,-1.8053394E-2,-7.137758E-1,-2.868855E-1,-8.7774026E-1,-6.30635E-1,3.2057902E-1,2.4489649E-2,-8.376192E-1,-4.1653362E-1,7.403544E-1,6.327659E-1,-5.011177E-1,-3.4476274E-1,8.671274E-2,-1.1734346E0,-3.067402E-1,1.6328344E-1,9.554675E-1,1.0940356E0,5.477705E-2,-6.9464785E-1,4.2086175E-1,-4.3604627E-1,-1.3954661E0,9.631755E-1,-1.0930814E-1,3.8006604E-2,8.642375E-1,9.109564E-1,1.3257429E-1,-1.3469903E-1,-1.0134894E0,9.060868E-1,4.4633947E-2,-2.4084778E-1,5.8285403E-1,-7.231516E-1,-2.3110841E-1,-9.763858E-3,8.779511E-1,-3.691973E-1,1.7639422E-1],"categories":[],"categories_nodes":[],"categories_segments":[],"categories_sizes":[],"default_left":[true,true,true,true,true,true,true,true,true,false,true,true,true,true,true,true,true,true,true,true,true,true,true,true,true,true,true,true,false,true,false,true,true,true,true,false,true,true,true,true,false,true,false,true,true,true,true,false,true,true,true,true,true,true,true,false,false,false,false,false,false,false,false,false,false,false,false,false,false,false,false,false,false,false,false,false,false,false,false,false,false,false,false,false,false,false,false,false,false,false,false,false,false,false,false,false,false],"id":10,"left_children":[1,3,5,7,9,11,13,15,17,-1,19,21,23,25,27,29,31,33,35,37,39,41,43,45,47,49,51,53,-1,55,-1,57,59,61,63,-1,65,67,69,71,-1,73,-1,75,77,79,81,-1,83,85,87,89,91,93,95,-1,-1,-1,-1,-1,-1,-1,-1,-1,-1,-1,-1,-1,-1,-1,-1,-1,-1,-1,-1,-1,-1,-1,-1,-1,-1,-1,-1,-1,-1,-1,-1,-1,-1,-1,-1,-1,-1,-1,-1,-1,-1],"loss_changes":[2.134692E1,5.6586695E0,1.3241653E1,4.635957E0,2.8635767E0,9.776325E0,4.2704635E0,1.3647804E0,3.1291885E0,0E0,3.1580384E0,9.0693035E0,7.7339287E0,4.8886514E0,1.5376662E0,1.4899532E0,1.1331463E0,4.0056577E0,2.4719977E0,3.1573868E0,1.0202113E0,5.0861096E0,4.6729803E0,2.5373657E0,4.352951E-1,8.755414E0,2.0147457E0,1.767416E0,0E0,5.123515E-1,0E0,1.1304417E0,1.2050557E0,8.743458E-1,2.235676E0,0E0,3.660196E0,3.4916668E0,2.9948058E0,1.6314439E0,0E0,5.862525E0,0E0,5.003937E0,7.7503204E-1,1.5494986E0,3.4989233E0,0E0,3.7602234E-1,3.0763695E0,2.555273E0,8.797871E-1,1.4868088E0,7.4912715E-1,2.1626103E0,0E0,0E0,0E0,0E0,0E0,0E0,0E0,0E0,0E0,0E0,0E0,0E0,0E0,0E0,0E0,0E0,0E0,0E0,0E0,0E0,0E0,0E0,0E0,0E0,0E0,0E0,0E0,0E0,0E0,0E0,0E0,0E0,0E0,0E0,0E0,0E0,0E0,0E0,0E0,0E0,0E0,0E0],"parents":[2147483647,0,0,1,1,2,2,3,3,4,4,5,5,6,6,7,7,8,8,10,10,11,11,12,12,13,13,14,14,15,15,16,16,17,17,18,18,19,19,20,20,21,21,22,22,23,23,24,24,25,25,26,26,27,27,29,29,31,31,32,32,33,33,34,34,36,36,37,37,38,38,39,39,41,41,43,43,44,44,45,45,46,46,48,48,49,49,50,50,51,51,52,52,53,53,54,54],"right_children":[2,4,6,8,10,12,14,16,18,-1,20,22,24,26,28,30,32,34,36,38,40,42,44,46,48,50,52,54,-1,56,-1,58,60,62,64,-1,66,68,70,72,-1,74,-1,76,78,80,82,-1,84,86,88,90,92,94,96,-1,-1,-1,-1,-1,-1,-1,-1,-1,-1,-1,-1,-1,-1,-1,-1,-1,-1,-1,-1,-1,-1,-1,-1,-1,-1,-1,-1,-1,-1,-1,-1,-1,-1,-1,-1,-1,-1,-1,-1,-1,-1],"split_conditions":[-1.5849411E-1,-5.671267E-1,3.9564395E-1,-7.331215E-2,-5.6586385E-1,2.6278269E-2,2.576221E0,-1.4525924E0,-2.9266417E-1,2.678922E-1,9.617282E-1,2.557595E-2,-2.8274602E-1,7.2032285E-1,2.1161962E0,1.1032788E0,9.738139E-1,-3.1677774E-1,-2.4024132E-1,-2.513319E-1,-1.6978225E-1,-4.3882933E-3,-2.9357105E-1,-7.8987855E-1,-2.71256E-1,3.9721644E-1,-3.16063E-1,-8.296878E-1,2.5200638E-1,8.2534686E-2,1.3971758E-1,-1.1368936E0,-5.1121384E-1,-3.2129496E-1,-7.6165676E-1,-2.981807E-1,-2.1688849E-1,-3.1505656E-1,-2.4091898E-1,2.4346702E0,-1.0561591E-1,-2.724851E-1,3.1723377E-1,-3.5125545E-1,-2.5457832E-1,2.6814574E-1,2.76214E-1,3.6425225E-2,2.242486E0,-2.622119E-1,6.9238615E-1,-6.704508E-1,5.6363577E-1,-1.3073987E0,2.7871156E0,-5.4160184E-3,-2.1413276E-1,-8.606565E-2,-2.633221E-1,-1.8919052E-1,9.617371E-2,7.346895E-3,-2.5128576E-1,-1.2496009E-1,2.2210634E-1,1.8982978E-1,-1.5033531E-1,-1.03428826E-1,2.6013823E-2,-3.520304E-1,-9.202206E-2,4.8985034E-2,2.8664026E-1,3.282107E-1,1.6433116E-2,-2.0839436E-1,1.2625854E-1,-1.3081388E-1,-4.1863984E-1,2.8895265E-1,-3.279244E-2,1.1401981E-2,2.5927126E-1,2.7328694E-1,3.9772287E-2,-4.040971E-2,-3.040468E-1,2.7182606E-1,1.3390184E-2,-7.225434E-2,1.7485622E-1,-2.169455E-1,-6.9332525E-2,-2.9291576E-3,2.6338533E-1,-1.107592E-1,5.291827E-2],"split_indices":[2,2,2,4,2,2,2,2,0,0,4,2,0,2,4,7,5,0,0,0,2,2,0,4,3,2,5,4,0,5,0,5,4,0,5,0,6,0,0,4,0,3,0,6,3,2,2,0,1,6,5,4,4,4,2,0,0,0,0,0,0,0,0,0,0,0,0,0,0,0,0,0,0,0,0,0,0,0,0,0,0,0,0,0,0,0,0,0,0,0,0,0,0,0,0,0,0],"split_type":[0,0,0,0,0,0,0,0,0,0,0,0,0,0,0,0,0,0,0,0,0,0,0,0,0,0,0,0,0,0,0,0,0,0,0,0,0,0,0,0,0,0,0,0,0,0,0,0,0,0,0,0,0,0,0,0,0,0,0,0,0,0,0,0,0,0,0,0,0,0,0,0,0,0,0,0,0,0,0,0,0,0,0,0,0,0,0,0,0,0,0,0,0,0,0,0,0],"sum_hessian":[4.8668622E2,2.1176367E2,2.7492258E2,7.076656E1,1.409971E2,1.6630217E2,1.08620384E2,4.1618473E1,2.9148092E1,1.7822274E0,1.3921487E2,7.643141E1,8.9870766E1,6.736155E1,4.125884E1,5.464624E0,3.615385E1,1.3420246E1,1.5727845E1,1.2186124E2,1.7353638E1,5.6042404E1,2.038901E1,4.5335403E1,4.453536E1,3.2931625E1,3.4429924E1,3.9073444E1,2.1853943E0,3.83954E0,1.6250838E0,3.2718346E1,3.4355056E0,4.098271E0,9.321975E0,4.453395E0,1.127445E1,7.92018E1,4.265944E1,1.5706191E1,1.6474457E0,4.9179752E1,6.8626537E0,1.417145E1,6.2175603E0,7.7251015E0,3.7610302E1,1.081621E0,4.345374E1,1.8561895E1,1.436973E1,3.3720295E0,3.1057894E1,4.1002073E0,3.4973236E1,1.6687174E0,2.1708226E0,5.067568E0,2.7650778E1,1.5086962E0,1.9268093E0,1.7200155E0,2.3782556E0,1.3698977E0,7.952077E0,3.1814582E0,8.092993E0,2.8496115E1,5.0705685E1,3.6963596E0,3.8963078E1,1.3269866E1,2.436325E0,5.213157E0,4.3966595E1,6.648626E0,7.5228233E0,2.5884538E0,3.6291068E0,6.3064117E0,1.4186897E0,3.250167E1,5.1086335E0,4.244775E1,1.0059865E0,1.3713585E1,4.8483105E0,8.934579E0,5.4351506E0,1.7750738E0,1.5969557E0,2.071764E1,1.0340254E1,1.2313852E0,2.8688223E0,8.941018E0,2.6032219E1],"tree_param":{"num_deleted":"0","num_feature":"8","num_nodes":"97","size_leaf_vector":"0"}},{"base_weights":[6.431244E-3,-1.7328373E-1,1.7283973E-1,-3.9577207E-1,-8.220996E-2,1.057059E-1,8.1785417E-1,-7.0684755E-1,-2.0466335E-1,-5.226089E-2,-8.8917327E-1,6.647887E-1,3.6901176E-2,9.626579E-1,5.712492E-2,6.7419946E-2,-7.6628596E-1,-6.193056E-1,-1.0012225E-1,1.220531E-1,-1.7504568E-1,-2.2960417E-1,-1.3084837E0,-7.7270515E-2,7.994681E-1,1.6944401E-1,-1.08037725E-1,-4.4661716E-1,5.5917794E-1,-3.1290793E-1,-9.6446776E-1,2.9024908E-1,-7.9102004E-1,1.0914133E0,-2.1432562E-1,4.6472296E-2,7.816079E-1,-2.593133E-1,2.6115367E-1,-9.401702E-1,6.0920596E-1,6.41444E-1,-4.92634E-1,9.108473E-1,-1.0004549E-1,-4.649761E-2,3.4634832E-1,-2.5817752E-1,1.2666464E-1,-7.1102184E-1,1.638156E-1,-9.282557E-1,3.9607403E-3,1.6804996E-1,1.500398E0,3.4342828E-1,-2.9779574E-1,2.9449838E-1,-3.5467738E-1,-1.9717814E-1,1.1355858E0,4.4576618E-1,-3.2728723E-1,1.37859015E-2,5.7681185E-1,-9.778791E-1,2.5376186E-1,9.6201706E-1,2.0445049E-2,-4.9399033E-1,3.4204313E-1,2.1807276E-1,-4.203613E-1,5.1630415E-2,5.2132463E-1,-1.8106668E-1,-9.421489E-1,9.583797E-3,5.9446627E-1],"categories":[],"categories_nodes":[],"categories_segments":[],"categories_sizes":[],"default_left":[true,true,true,true,true,true,true,true,true,true,true,true,true,false,true,false,true,true,true,true,true,true,false,true,true,true,true,false,false,true,false,false,true,true,true,true,true,true,true,false,false,false,true,true,true,true,true,true,true,false,false,false,false,false,false,false,false,false,false,false,false,false,false,false,false,false,false,false,false,false,false,false,false,false,false,false,false,false,false],"id":11,"left_children":[1,3,5,7,9,11,13,15,17,19,21,23,25,-1,27,-1,29,31,33,35,37,39,-1,41,43,45,47,-1,-1,49,-1,-1,51,53,55,57,59,61,63,-1,-1,-1,65,67,69,71,73,75,77,-1,-1,-1,-1,-1,-1,-1,-1,-1,-1,-1,-1,-1,-1,-1,-1,-1,-1,-1,-1,-1,-1,-1,-1,-1,-1,-1,-1,-1,-1],"loss_changes":[1.373685E1,4.442613E0,1.0240122E1,3.653242E0,3.771318E0,8.328457E0,2.4050903E0,1.151761E0,1.7143911E0,3.304162E0,1.2457108E0,2.4339657E0,3.752997E0,0E0,1.4217751E0,0E0,1.7001696E0,1.4882615E0,4.849909E0,3.1529474E0,3.3906589E0,2.5906777E0,0E0,1.676707E0,2.112708E0,3.9101472E0,3.3264854E0,0E0,0E0,1.68363E0,0E0,0E0,7.725587E-1,9.302664E-1,1.5823162E0,5.9212904E0,2.4809709E0,3.8011327E0,1.1738412E0,0E0,0E0,0E0,1.4992273E0,8.028927E-1,7.1307766E-1,4.719301E0,2.8687081E0,2.8533275E0,2.0283427E0,0E0,0E0,0E0,0E0,0E0,0E0,0E0,0E0,0E0,0E0,0E0,0E0,0E0,0E0,0E0,0E0,0E0,0E0,0E0,0E0,0E0,0E0,0E0,0E0,0E0,0E0,0E0,0E0,0E0,0E0],"parents":[2147483647,0,0,1,1,2,2,3,3,4,4,5,5,6,6,7,7,8,8,9,9,10,10,11,11,12,12,14,14,16,16,17,17,18,18,19,19,20,20,21,21,23,23,24,24,25,25,26,26,29,29,32,32,33,33,34,34,35,35,36,36,37,37,38,38,42,42,43,43,44,44,45,45,46,46,47,47,48,48],"right_children":[2,4,6,8,10,12,14,16,18,20,22,24,26,-1,28,-1,30,32,34,36,38,40,-1,42,44,46,48,-1,-1,50,-1,-1,52,54,56,58,60,62,64,-1,-1,-1,66,68,70,72,74,76,78,-1,-1,-1,-1,-1,-1,-1,-1,-1,-1,-1,-1,-1,-1,-1,-1,-1,-1,-1,-1,-1,-1,-1,-1,-1,-1,-1,-1,-1,-1],"split_conditions":[-9.718765E-2,-5.671267E-1,-3.0945424E-2,-4.714046E-1,-9.895015E-2,-9.961798E-1,8.866788E-1,-2.6847458E0,-3.5017222E-1,-2.6409417E-1,-2.6613107E-1,-3.2017893E-1,3.9410836E-1,2.8879738E-1,3.0487567E-1,2.0225985E-2,-3.158126E-1,-3.2362473E-1,-3.4591293E-1,-2.6531458E-1,9.617282E-1,-3.1734517E-1,-3.9254513E-1,9.4023824E-2,1.3836445E0,2.7231589E-2,2.5930495E0,-1.3398515E-1,1.6775338E-1,-3.208424E-1,-2.8934035E-1,8.707473E-2,2.0166733E0,-2.6559255E-1,-2.7014416E-1,3.640539E-1,2.2334006E-1,-1.1368936E0,-3.1763226E-1,-2.820511E-1,1.8276179E-1,1.9243322E-1,-1.4183214E0,-6.2010385E-2,-2.0458068E-1,2.4402708E-2,-2.6639602E-1,1.0676231E0,8.821097E-1,-2.1330656E-1,4.914468E-2,-2.7847672E-1,1.1882221E-3,5.041499E-2,4.5011944E-1,1.0302849E-1,-8.933873E-2,8.834952E-2,-1.0640322E-1,-5.9153445E-2,3.4067574E-1,1.3372986E-1,-9.818617E-2,4.1357707E-3,1.7304356E-1,-2.9336375E-1,7.612856E-2,2.8860512E-1,6.133515E-3,-1.481971E-1,1.0261294E-1,6.542183E-2,-1.261084E-1,1.5489125E-2,1.563974E-1,-5.4320004E-2,-2.826447E-1,2.8751392E-3,1.7833988E-1],"split_indices":[2,2,0,4,2,5,2,5,6,3,3,0,2,0,4,0,0,0,6,3,4,0,0,2,2,2,2,0,0,0,0,0,4,3,3,5,5,5,2,0,0,0,5,0,6,2,3,5,4,0,0,0,0,0,0,0,0,0,0,0,0,0,0,0,0,0,0,0,0,0,0,0,0,0,0,0,0,0,0],"split_type":[0,0,0,0,0,0,0,0,0,0,0,0,0,0,0,0,0,0,0,0,0,0,0,0,0,0,0,0,0,0,0,0,0,0,0,0,0,0,0,0,0,0,0,0,0,0,0,0,0,0,0,0,0,0,0,0,0,0,0,0,0,0,0,0,0,0,0,0,0,0,0,0,0,0,0,0,0,0,0],"sum_hessian":[4.5733127E2,2.1985487E2,2.374764E2,6.2884876E1,1.5696999E2,2.1614378E2,2.1332607E1,2.2904161E1,3.9980713E1,1.5237946E2,4.5905414E0,2.2736126E1,1.9340765E2,1.7698317E1,3.6342916E0,1.623359E0,2.1280804E1,7.0589004E0,3.2921814E1,6.2977745E1,8.94017E1,2.3856018E0,2.2049398E0,3.5580683E0,1.9178057E1,1.0093561E2,9.2472046E1,1.8692107E0,1.7650809E0,7.2572904E0,1.4023513E1,1.0113862E0,6.0475144E0,2.1310325E0,3.0790781E1,5.746328E1,5.5144677E0,7.526674E1,1.4134961E1,1.2261108E0,1.159491E0,1.1038139E0,2.4542544E0,1.7053825E1,2.124232E0,4.5784748E1,5.5150864E1,5.6334614E1,3.6137436E1,3.6868825E0,3.5704079E0,5.014268E0,1.0332465E0,1.0872494E0,1.0437832E0,3.602722E0,2.7188059E1,3.567297E1,2.179031E1,1.582275E0,3.9321926E0,6.1294413E0,6.91373E1,8.509838E0,5.625123E0,1.2993737E0,1.1548805E0,1.6050978E1,1.0028483E0,1.0611981E0,1.063034E0,2.7055332E1,1.8729414E1,2.102794E1,3.4122925E1,5.176353E1,4.571084E0,2.9719707E1,6.4177275E0],"tree_param":{"num_deleted":"0","num_feature":"8","num_nodes":"79","size_leaf_vector":"0"}},{"base_weights":[6.9960165E-3,-2.458252E-1,8.3070464E-2,-3.2645935E-1,1.703946E-1,5.34976E-2,8.237072E-1,-4.241898E-1,1.393578E-1,8.3805376E-1,1.5607061E-2,5.288713E-1,2.1716278E-2,9.966802E-1,4.179845E-1,-2.3469976E-1,-5.8544034E-1,-5.836525E-1,2.883841E-1,-1.7849648E-1,1.4388018E0,-2.0555075E-1,6.128045E-1,-5.555717E-1,7.681451E-1,5.798138E-1,-3.2122794E-3,-4.0171602E-1,7.129252E-1,-5.7980335E-1,-4.7272023E-2,-6.222544E-1,3.657087E-1,5.3226954E-1,-7.6326095E-2,-4.022231E-1,9.2699695E-1,9.256758E-1,-8.047935E-2,-1.2127302E0,6.0022146E-2,-2.6203975E-1,8.4962296E-1,8.58288E-1,1.7863452E-1,-2.1823315E-2,7.763291E-1,2.066704E-1,-6.736535E-1,-2.2831118E-1,4.4826007E-1,-8.154901E-1,-3.1280938E-1,6.970256E-1,-1.633988E-1,-3.7880588E-1,3.815668E-1,-1.2314606E-1,-7.770707E-1,6.219639E-1,-5.561624E-1,1.2826057E-1,9.968386E-1,1.0267311E0,1.334754E-1,-2.0309447E-1,7.72746E-1,1.7304748E-2,-3.845096E-1,-2.2589287E-3,9.924049E-1],"categories":[],"categories_nodes":[],"categories_segments":[],"categories_sizes":[],"default_left":[true,true,true,true,true,true,true,true,true,true,true,true,true,false,true,true,true,false,true,false,false,true,true,true,true,true,true,false,false,true,true,true,false,true,true,true,false,false,false,false,true,false,true,true,true,true,true,false,false,false,false,false,false,false,false,false,false,false,false,false,false,false,false,false,false,false,false,false,false,false,false],"id":12,"left_children":[1,3,5,7,9,11,13,15,17,19,21,23,25,-1,27,29,31,-1,33,-1,-1,35,37,39,41,43,45,-1,-1,47,49,51,-1,53,55,57,-1,-1,-1,-1,59,-1,61,63,65,67,69,-1,-1,-1,-1,-1,-1,-1,-1,-1,-1,-1,-1,-1,-1,-1,-1,-1,-1,-1,-1,-1,-1,-1,-1],"loss_changes":[8.376996E0,3.436965E0,7.2875686E0,3.9169817E0,1.7445948E0,4.867688E0,4.8050404E-1,2.0104513E0,1.8328848E0,2.2000084E0,2.0840816E0,5.6670127E0,4.227909E0,0E0,1.6265216E0,2.17089E0,1.5339146E0,0E0,1.2394577E0,0E0,0E0,2.9495301E0,9.980526E-1,1.7843213E0,1.6465921E0,1.2982697E0,4.249878E0,0E0,0E0,1.0155718E0,2.1758578E0,1.914752E0,0E0,1.0540035E0,1.0137419E0,1.0083549E0,0E0,0E0,0E0,0E0,1.4322383E0,0E0,1.5666952E0,7.6724434E-1,1.6507094E0,4.0643983E0,1.151381E0,0E0,0E0,0E0,0E0,0E0,0E0,0E0,0E0,0E0,0E0,0E0,0E0,0E0,0E0,0E0,0E0,0E0,0E0,0E0,0E0,0E0,0E0,0E0,0E0],"parents":[2147483647,0,0,1,1,2,2,3,3,4,4,5,5,6,6,7,7,8,8,9,9,10,10,11,11,12,12,14,14,15,15,16,16,18,18,21,21,22,22,23,23,24,24,25,25,26,26,29,29,30,30,31,31,33,33,34,34,35,35,40,40,42,42,43,43,44,44,45,45,46,46],"right_children":[2,4,6,8,10,12,14,16,18,20,22,24,26,-1,28,30,32,-1,34,-1,-1,36,38,40,42,44,46,-1,-1,48,50,52,-1,54,56,58,-1,-1,-1,-1,60,-1,62,64,66,68,70,-1,-1,-1,-1,-1,-1,-1,-1,-1,-1,-1,-1,-1,-1,-1,-1,-1,-1,-1,-1,-1,-1,-1,-1],"split_conditions":[-3.8600427E-1,1.1032788E0,2.1904565E-1,1.0413467E0,-1.0430844E0,-1.5590352E0,6.9238615E-1,-2.9195958E-1,-2.6915824E-1,-3.3229274E-1,8.8000464E-1,-1.187971E0,-1.0685432E0,2.9900408E-1,-1.2333593E-1,-5.5102307E-1,2.5250173E0,-1.7509575E-1,-1.8666816E-1,-5.3548947E-2,4.3164054E-1,-6.3072406E-2,-2.9881257E-1,-2.7291507E-1,-2.7422237E-1,5.5167234E-1,2.5142887E0,-1.2051481E-1,2.1387757E-1,-1.9811766E0,-3.2623023E-1,5.985769E-1,1.09712616E-1,-2.0698959E-1,-5.469786E-1,-3.0939418E-1,2.780991E-1,2.7770275E-1,-2.4143808E-2,-3.6381906E-1,-2.6847458E0,-7.8611925E-2,-2.6128298E-1,-1.5903237E-1,-2.9511225E-1,-1.9203935E-2,-3.1317937E-1,6.2001124E-2,-2.0209606E-1,-6.849336E-2,1.3447803E-1,-2.4464704E-1,-9.384282E-2,2.0910768E-1,-4.9019642E-2,-1.1364177E-1,1.1447004E-1,-3.694382E-2,-2.3312122E-1,1.8658918E-1,-1.6684873E-1,3.8478173E-2,2.990516E-1,3.0801934E-1,4.004262E-2,-6.092834E-2,2.3182382E-1,5.191425E-3,-1.15352884E-1,-6.776786E-4,2.9772148E-1],"split_indices":[2,7,3,4,5,5,5,0,3,6,5,4,4,0,2,4,1,0,6,0,0,0,0,3,3,5,4,0,0,5,6,5,0,0,2,0,0,0,0,0,5,0,2,6,0,6,0,0,0,0,0,0,0,0,0,0,0,0,0,0,0,0,0,0,0,0,0,0,0,0,0],"split_type":[0,0,0,0,0,0,0,0,0,0,0,0,0,0,0,0,0,0,0,0,0,0,0,0,0,0,0,0,0,0,0,0,0,0,0,0,0,0,0,0,0,0,0,0,0,0,0,0,0,0,0,0,0,0,0,0,0,0,0,0,0,0,0,0,0,0,0,0,0,0,0],"sum_hessian":[4.3348624E2,9.9750404E1,3.3373584E2,8.374262E1,1.600778E1,3.2195282E2,1.1783013E1,6.929384E1,1.4448783E1,2.1819513E0,1.3825829E1,1.9195307E1,3.027575E2,7.2398653E0,4.543148E0,3.2986256E1,3.6307587E1,1.9708147E0,1.2477968E1,1.0715737E0,1.1103774E0,1.0568022E1,3.2578068E0,3.2307782E0,1.5964529E1,1.1993329E1,2.907642E2,1.1063504E0,3.4367974E0,1.0872908E1,2.2113348E1,3.528757E1,1.0200138E0,7.2022915E0,5.275677E0,9.553808E0,1.0142136E0,2.0137975E0,1.2440093E0,1.0934656E0,2.1373127E0,1.0076749E0,1.4956854E1,6.4067445E0,5.586585E0,2.849336E2,5.8305964E0,1.0309885E0,9.841919E0,1.659115E1,5.522199E0,2.071597E1,1.4571604E1,5.8216023E0,1.3806891E0,3.2809992E0,1.994678E0,6.238052E0,3.315756E0,1.1129534E0,1.0243593E0,2.8522003E0,1.2104653E1,4.8606124E0,1.5461317E0,3.801924E0,1.7846609E0,2.5804675E2,2.688684E1,1.4815736E0,4.349023E0],"tree_param":{"num_deleted":"0","num_feature":"8","num_nodes":"71","size_leaf_vector":"0"}},{"base_weights":[8.440695E-3,-2.3730278E-1,6.062842E-2,-3.7883723E-1,-2.6040133E-2,1.0615104E0,4.649218E-2,-5.2143145E-1,3.3418395E-2,1.5126197E-1,-3.420897E-1,-1.0242553E-1,1.8533673E0,2.1293271E-2,6.296687E-1,-1.3501893E-1,-7.258887E-1,-1.5516466E-1,7.109924E-1,-5.7509895E-2,8.3762664E-1,-6.571636E-1,-1.0741799E-2,-2.750207E-2,2.6025093E-1,6.9671036E-3,7.862085E-1,-3.8386008E-1,1.1540357E0,1.8524848E-1,-8.2921946E-1,3.1188262E-1,-8.1972885E-1,-5.334597E-1,1.20603524E-1,-6.3208686E-3,1.1911187E0,-6.1126262E-2,-8.293764E-1,-3.832547E-1,5.572835E-1,-6.070926E-1,-4.832957E-3,5.154263E-1,-4.0267915E-3,-3.588565E-1,5.0667477E-1,8.587959E-1,6.990616E-2,-5.607653E-1,5.102224E-1,-9.0799826E-1,-2.5329548E-1,-3.1123695E-1,8.8433886E-1,-6.519236E-1,-5.7517916E-2,3.533545E-1,-3.4503192E-1,-6.0223496E-1,1.5511258E-1,4.0473484E-2,-6.9028085E-1,-1.18319884E-1,1.1228662E-1,7.3937136E-1,-2.773679E-1,-7.6145804E-1,2.7790183E-1],"categories":[],"categories_nodes":[],"categories_segments":[],"categories_sizes":[],"default_left":[true,true,true,true,true,true,true,true,true,true,true,false,false,true,true,true,true,true,false,true,true,true,true,true,true,true,true,true,false,false,true,true,false,true,true,false,false,false,false,true,false,true,true,true,true,false,false,false,false,false,false,false,false,false,false,false,false,false,false,false,false,false,false,false,false,false,false,false,false],"id":13,"left_children":[1,3,5,7,9,11,13,15,17,19,21,-1,-1,23,25,27,29,31,-1,33,35,37,39,41,43,45,47,49,-1,-1,51,53,-1,55,57,-1,-1,-1,-1,59,-1,61,63,65,67,-1,-1,-1,-1,-1,-1,-1,-1,-1,-1,-1,-1,-1,-1,-1,-1,-1,-1,-1,-1,-1,-1,-1,-1],"loss_changes":[5.412165E0,2.2006779E0,4.8737946E0,2.6155252E0,1.7738768E0,4.614059E0,5.0441227E0,2.5011206E0,1.681757E0,2.9686592E0,1.178008E0,0E0,0E0,3.8658903E0,1.3806524E0,4.4886165E0,2.1576653E0,3.4964767E0,0E0,1.4684684E0,1.4447935E0,5.448437E-1,1.5994109E0,3.61974E0,3.792975E0,8.8846624E-1,5.3033304E-1,2.0768764E0,0E0,0E0,6.4568615E-1,2.720944E0,0E0,2.2721088E-1,1.5165697E0,0E0,0E0,0E0,0E0,6.295778E-1,0E0,5.8658123E-1,3.5535283E0,5.2840614E0,6.3203154E0,0E0,0E0,0E0,0E0,0E0,0E0,0E0,0E0,0E0,0E0,0E0,0E0,0E0,0E0,0E0,0E0,0E0,0E0,0E0,0E0,0E0,0E0,0E0,0E0],"parents":[2147483647,0,0,1,1,2,2,3,3,4,4,5,5,6,6,7,7,8,8,9,9,10,10,13,13,14,14,15,15,16,16,17,17,19,19,20,20,21,21,22,22,23,23,24,24,25,25,26,26,27,27,30,30,31,31,33,33,34,34,39,39,41,41,42,42,43,43,44,44],"right_children":[2,4,6,8,10,12,14,16,18,20,22,-1,-1,24,26,28,30,32,-1,34,36,38,40,42,44,46,48,50,-1,-1,52,54,-1,56,58,-1,-1,-1,-1,60,-1,62,64,66,68,-1,-1,-1,-1,-1,-1,-1,-1,-1,-1,-1,-1,-1,-1,-1,-1,-1,-1,-1,-1,-1,-1,-1,-1],"split_conditions":[-4.680193E-1,4.6115585E-2,-4.666971E-1,8.3309996E-1,-2.1021421E-1,-2.6334715E-1,3.1133464E-1,-3.127371E-1,-4.429342E-2,-2.526578E-1,8.423005E-1,-3.072766E-2,5.5601025E-1,1.1032788E0,-2.750122E-1,-3.1507713E-1,-2.6847458E0,-3.258799E-1,2.1329772E-1,-3.5017222E-1,-1.1308073E0,-2.6407242E-1,-3.1827565E-2,-3.9734966E-1,2.7024466E-1,1.2200476E0,1.8852696E0,1.7741808E-1,3.4621072E-1,5.5574547E-2,1.1032788E0,-7.2519195E-1,-2.4591866E-1,1.91715E0,-3.166312E-1,-1.8962607E-3,3.5733563E-1,-1.833788E-2,-2.4881293E-1,-5.469786E-1,1.6718507E-1,-1.7466536E0,-3.1936133E-1,1.06785215E-1,-2.6955783E-1,-1.07656956E-1,1.5200244E-1,2.5763878E-1,2.097185E-2,-1.6822961E-1,1.5306672E-1,-2.723995E-1,-7.598865E-2,-9.3371086E-2,2.6530167E-1,-1.9557709E-1,-1.7255375E-2,1.0600636E-1,-1.0350958E-1,-1.806705E-1,4.6533775E-2,1.2142045E-2,-2.0708427E-1,-3.5495967E-2,3.3685986E-2,2.2181141E-1,-8.321037E-2,-2.2843742E-1,8.337055E-2],"split_indices":[2,4,2,5,6,3,0,0,0,6,4,0,0,7,2,0,5,6,0,6,2,3,0,2,5,0,2,1,0,0,7,2,0,4,6,0,0,0,0,2,0,5,6,1,3,0,0,0,0,0,0,0,0,0,0,0,0,0,0,0,0,0,0,0,0,0,0,0,0],"split_type":[0,0,0,0,0,0,0,0,0,0,0,0,0,0,0,0,0,0,0,0,0,0,0,0,0,0,0,0,0,0,0,0,0,0,0,0,0,0,0,0,0,0,0,0,0,0,0,0,0,0,0,0,0,0,0,0,0,0,0,0,0,0,0,0,0,0,0,0,0],"sum_hessian":[4.1988617E2,7.292889E1,3.4695728E2,4.319643E1,2.9732452E1,3.8002248E0,3.4315707E2,3.189835E1,1.12980795E1,1.9381138E1,1.03513155E1,1.8911337E0,1.9090911E0,3.2993707E2,1.3219986E1,1.16122465E1,2.0286102E1,9.441353E0,1.8567269E0,1.5563416E1,3.8177211E0,4.801928E0,5.549388E0,2.7472327E2,5.5213802E1,2.8655572E0,1.0354428E1,1.0321905E1,1.2903414E0,1.985534E0,1.830057E1,5.8563094E0,3.5850437E0,3.6949131E0,1.1868503E1,1.4169445E0,2.4007766E0,1.3801395E0,3.4217885E0,3.5479295E0,2.0014582E0,9.370227E0,2.6535306E2,2.7607168E1,2.7606632E1,1.8171407E0,1.0484166E0,9.221071E0,1.1333575E0,8.928163E0,1.3937432E0,1.5591293E1,2.7092762E0,3.0225606E0,2.8337488E0,2.662461E0,1.032452E0,8.073863E0,3.7946396E0,2.4377468E0,1.1101829E0,1.1251488E0,8.245078E0,1.3476132E2,1.3059174E2,2.1579008E1,6.0281596E0,7.0269885E0,2.0579643E1],"tree_param":{"num_deleted":"0","num_feature":"8","num_nodes":"69","size_leaf_vector":"0"}},{"base_weights":[5.7163886E-3,-9.9721454E-2,1.01378836E-1,9.4391775E-1,-1.1528383E-1,5.989308E-2,6.674604E-1,-1.5244883E-1,2.4876416E-1,6.945717E-1,2.8329896E-2,8.812218E-1,-1.1219375E-2,-2.6920402E-1,3.954111E-3,3.9234918E-1,-5.481629E-1,-3.3595532E-1,8.6087495E-1,6.851186E-2,-3.9500695E-1,9.238218E-1,2.3749794E-1,-4.121088E-1,4.3333215E-1,-5.9691924E-1,-1.9575763E-1,6.556013E-2,-6.258241E-1,7.238201E-1,-1.348672E-1,-6.7126924E-1,-1.8831329E-1,9.1588193E-1,2.4166319E-1,1.9873366E-1,-7.195892E-2,-8.4191644E-1,-1.2784281E-1,1.0663062E-1,-7.587198E-1,7.564515E-2,-2.9701275E-1,1.6061951E-4,8.851669E-1,-9.613332E-1,4.191434E-1,-2.8163454E-1,9.993827E-1,-3.7834337E-1,4.4880667E-1,5.9435356E-2,5.5559534E-1,8.22285E-1,-9.331355E-2,1.3750232E-2,-1.5920558E0,-1.0161043E0,5.2087963E-2],"categories":[],"categories_nodes":[],"categories_segments":[],"categories_sizes":[],"default_left":[true,true,true,false,true,true,true,true,true,true,true,true,true,true,true,true,true,false,true,true,true,false,false,false,false,true,true,true,true,true,true,false,false,false,false,true,true,true,true,false,false,false,false,false,false,false,false,false,false,false,false,false,false,false,false,false,false,false,false],"id":14,"left_children":[1,3,5,-1,7,9,11,13,15,17,19,21,23,25,27,29,31,-1,33,35,37,-1,-1,-1,-1,39,41,43,45,47,49,-1,-1,-1,-1,51,53,55,57,-1,-1,-1,-1,-1,-1,-1,-1,-1,-1,-1,-1,-1,-1,-1,-1,-1,-1,-1,-1],"loss_changes":[4.1450977E0,3.2843232E0,5.0194225E0,0E0,2.6564405E0,4.0233865E0,2.1297097E0,3.2191525E0,2.309945E0,1.9205737E0,3.315304E0,8.565807E-2,9.78293E-1,2.3122015E0,3.0017328E0,2.910406E0,1.588738E-2,0E0,6.739855E-2,3.259386E0,1.9108348E0,0E0,0E0,0E0,0E0,2.1286292E0,2.328933E0,3.7742867E0,2.8201194E0,3.0630126E0,1.1725504E0,0E0,0E0,0E0,0E0,4.556464E0,1.7204655E0,3.9667869E0,1.9323795E0,0E0,0E0,0E0,0E0,0E0,0E0,0E0,0E0,0E0,0E0,0E0,0E0,0E0,0E0,0E0,0E0,0E0,0E0,0E0,0E0],"parents":[2147483647,0,0,1,1,2,2,4,4,5,5,6,6,7,7,8,8,9,9,10,10,11,11,12,12,13,13,14,14,15,15,16,16,18,18,19,19,20,20,25,25,26,26,27,27,28,28,29,29,30,30,35,35,36,36,37,37,38,38],"right_children":[2,4,6,-1,8,10,12,14,16,18,20,22,24,26,28,30,32,-1,34,36,38,-1,-1,-1,-1,40,42,44,46,48,50,-1,-1,-1,-1,52,54,56,58,-1,-1,-1,-1,-1,-1,-1,-1,-1,-1,-1,-1,-1,-1,-1,-1,-1,-1,-1,-1],"split_conditions":[-9.718765E-2,-4.0438395E0,-3.0945424E-2,2.8317535E-1,9.738139E-1,-1.4652259E0,8.866788E-1,-7.331215E-2,1.499153E0,-3.5783014E-1,-5.8704995E-2,9.738139E-1,3.0487567E-1,-6.6185164E-1,-4.455342E-3,1.0207185E0,2.136101E0,-1.00786604E-1,-3.3410285E-2,3.9410836E-1,8.796558E-2,2.7714655E-1,7.124939E-2,-1.2363265E-1,1.2999965E-1,-1.4525924E0,-2.6987922E-1,-3.1567205E-2,1.4094675E0,-5.1121384E-1,6.830635E-1,-2.0138077E-1,-5.649399E-2,2.747646E-1,7.249896E-2,-2.8288233E-1,-2.748608E-1,-1.9273987E-1,-2.7000952E-1,3.1989187E-2,-2.2761595E-1,2.2693545E-2,-8.9103825E-2,4.8185855E-5,2.6555008E-1,-2.8839996E-1,1.2574303E-1,-8.449037E-2,2.9981482E-1,-1.1350302E-1,1.34642E-1,1.7830608E-2,1.6667861E-1,2.466855E-1,-2.7994066E-2,4.12507E-3,-4.7761676E-1,-3.0483133E-1,1.562639E-2],"split_indices":[2,1,0,0,5,5,2,4,4,6,6,5,4,2,0,5,4,0,3,2,2,0,0,0,0,2,3,0,0,4,4,0,0,0,0,0,3,4,3,0,0,0,0,0,0,0,0,0,0,0,0,0,0,0,0,0,0,0,0],"split_type":[0,0,0,0,0,0,0,0,0,0,0,0,0,0,0,0,0,0,0,0,0,0,0,0,0,0,0,0,0,0,0,0,0,0,0,0,0,0,0,0,0,0,0,0,0,0,0,0,0,0,0,0,0,0,0,0,0,0,0],"sum_hessian":[4.089551E2,1.945178E2,2.144373E2,1.9814975E0,1.9253632E2,2.0082544E2,1.3611857E1,1.7522876E2,1.7307549E1,8.518951E0,1.9230649E2,1.0124533E1,3.4873245E0,9.991829E1,7.531047E1,1.50954275E1,2.2121215E0,1.0419838E0,7.476968E0,1.7640114E2,1.5905347E1,9.087992E0,1.0365415E0,1.8720858E0,1.6152385E0,1.698858E1,8.292971E1,6.941598E1,5.894494E0,9.039325E0,6.0561028E0,1.0034275E0,1.208694E0,6.42693E0,1.0500381E0,9.132479E1,8.507635E1,5.1459484E0,1.0759398E1,3.2402272E0,1.3748353E1,2.2601606E1,6.0328102E1,6.5212616E1,4.2033644E0,4.522488E0,1.372006E0,1.9397303E0,7.099594E0,4.521694E0,1.5344086E0,6.652413E1,2.4800653E1,1.1094857E0,8.3966866E1,2.8624675E0,2.2834811E0,1.0295647E0,9.729834E0],"tree_param":{"num_deleted":"0","num_feature":"8","num_nodes":"59","size_leaf_vector":"0"}},{"base_weights":[5.826497E-3,5.439369E-1,-1.1773101E-2,-5.8240044E-1,7.173768E-1,-2.6092857E-2,6.328116E-1,8.424822E-1,-2.3937082E-1,9.569832E-1,-3.5067484E-2,1.6169542E-1,9.1558605E-1,9.6378744E-1,3.4144205E-1,-7.332361E-2,1.5951999E-1,-6.745854E-1,6.5897185E-1,2.4217233E-1,1.0348212E0,-1.896622E-1,6.3105106E-1,-1.4951934E-1,5.155797E-2,6.893767E-1,9.340329E-2,-3.0529594E-1,6.8645164E-2,8.5670376E-1,-1.511683E-1,3.751736E-1,9.695547E-1,2.0394969E-1,-2.5260797E-1],"categories":[],"categories_nodes":[],"categories_segments":[],"categories_sizes":[],"default_left":[true,true,true,false,true,true,true,true,false,false,true,true,false,true,true,true,true,false,false,false,false,false,false,true,true,true,true,false,false,false,false,false,false,false,false],"id":15,"left_children":[1,3,5,-1,7,9,11,13,-1,-1,15,17,-1,19,21,23,25,-1,-1,-1,-1,-1,-1,27,29,31,33,-1,-1,-1,-1,-1,-1,-1,-1],"loss_changes":[3.786868E0,2.8916328E0,3.5934231E0,0E0,1.5687847E0,3.3867044E0,9.791801E-1,2.982936E-1,0E0,0E0,2.8224902E0,2.269441E0,0E0,1.4724731E-1,6.6735196E-1,3.0167947E0,2.1199403E0,0E0,0E0,0E0,0E0,0E0,0E0,6.704302E0,1.9810377E1,2.313962E-1,2.2161517E0,0E0,0E0,0E0,0E0,0E0,0E0,0E0,0E0],"parents":[2147483647,0,0,1,1,2,2,4,4,5,5,6,6,7,7,10,10,11,11,13,13,14,14,15,15,16,16,23,23,24,24,25,25,26,26],"right_children":[2,4,6,-1,8,10,12,14,-1,-1,16,18,-1,20,22,24,26,-1,-1,-1,-1,-1,-1,28,30,32,34,-1,-1,-1,-1,-1,-1,-1,-1],"split_conditions":[-2.168795E0,-1.5860634E0,2.5142887E0,-1.7472014E-1,7.382707E-2,-6.51599E0,2.7024466E-1,-2.4971273E0,-7.181125E-2,2.8709498E-1,1.1032788E0,-3.076036E-1,2.7467582E-1,-2.7300194E-1,-2.5152045E-1,-2.4212298E-1,-1.1368936E0,-2.0237564E-1,1.9769156E-1,7.26517E-2,3.1044635E-1,-5.6898665E-2,1.8931533E-1,-1.1312139E-1,-2.1599053E-1,-1.3714167E0,-2.1348634E-1,-9.158879E-2,2.059355E-2,2.5701115E-1,-4.5350492E-2,1.12552084E-1,2.9086643E-1,6.118491E-2,-7.5782396E-2],"split_indices":[5,4,4,0,0,1,5,5,0,0,7,0,0,3,2,6,5,0,0,0,0,0,0,4,6,5,6,0,0,0,0,0,0,0,0],"split_type":[0,0,0,0,0,0,0,0,0,0,0,0,0,0,0,0,0,0,0,0,0,0,0,0,0,0,0,0,0,0,0,0,0,0,0],"sum_hessian":[3.9818204E2,1.1663469E1,3.8651855E2,1.2417133E0,1.0421756E1,3.7905716E2,7.4614153E0,9.322205E0,1.099551E0,2.473551E0,3.765836E2,3.3882463E0,4.0731688E0,6.7616024E0,2.5606027E0,3.1523184E2,6.1351765E1,1.1304998E0,2.2577467E0,1.0010842E0,5.760518E0,1.0253526E0,1.5352502E0,1.9565614E2,1.1957568E2,5.760519E0,5.5591244E1,1.1391659E2,8.173956E1,2.3402925E1,9.617276E1,3.8179586E0,1.9425602E0,4.244208E1,1.3149163E1],"tree_param":{"num_deleted":"0","num_feature":"8","num_nodes":"35","size_leaf_vector":"0"}},{"base_weights":[8.962661E-3,-2.044139E-1,4.1079327E-2,-4.73426E-1,-9.4964586E-2,3.1335514E-2,9.199121E-1,-4.6597414E-2,-7.2027725E-1,8.902793E-2,-2.5506562E-1,1.8871821E-2,6.9775206E-1,-6.7936903E-1,3.064578E-1,4.5184515E-2,-8.880581E-1,-3.5462937E-1,2.9111177E-1,-5.432386E-1,