{"learner":{"attributes":{"best_iteration":"99","best_ntree_limit":"100","scikit_learn":"{\"use_label_encoder\": true, \"n_estimators\": 100, \"objective\": \"binary:logistic\", \"max_depth\": null, \"learning_rate\": null, \"verbosity\": null, \"booster\": null, \"tree_method\": null, \"gamma\": null, \"min_child_weight\": null, \"max_delta_step\": null, \"subsample\": null, \"colsample_bytree\": null, \"colsample_bylevel\": null, \"colsample_bynode\": null, \"reg_alpha\": null, \"reg_lambda\": null, \"scale_pos_weight\": null, \"base_score\": null, \"missing\": NaN, \"num_parallel_tree\": null, \"random_state\": null, \"n_jobs\": null, \"monotone_constraints\": null, \"interaction_constraints\": null, \"importance_type\": null, \"gpu_id\": null, \"validate_parameters\": null, \"predictor\": null, \"enable_categorical\": false, \"classes_\": [0, 1], \"n_classes_\": 2, \"_le\": {\"classes_\": [0, 1]}, \"_estimator_type\": \"classifier\"}"},"feature_names":[],"feature_types":[],"gradient_booster":{"model":{"gbtree_model_param":{"num_trees":"100","size_leaf_vector":"0"},"tree_info":[0,0,0,0,0,0,0,0,0,0,0,0,0,0,0,0,0,0,0,0,0,0,0,0,0,0,0,0,0,0,0,0,0,0,0,0,0,0,0,0,0,0,0,0,0,0,0,0,0,0,0,0,0,0,0,0,0,0,0,0,0,0,0,0,0,0,0,0,0,0,0,0,0,0,0,0,0,0,0,0,0,0,0,0,0,0,0,0,0,0,0,0,0,0,0,0,0,0,0,0],"trees":[{"base_weights":[8.710388E-2,-1.6455487E0,1.2859598E0,-1.7362638E0,-1.6666667E-1,1.5475614E0,2.3217248E-2,-1.830666E0,-1.1812866E0,-7.894737E-1,5E-1,7.734242E-1,1.7417678E0,-1.1245791E0,1.1225806E0,-1.8739449E0,-1.3170732E0,-4.642857E-1,-1.5042735E0,-1.5384616E-1,-1.3170732E0,7.5E-1,-1E0,1.1839081E0,1.7283951E-1,5.548387E-1,1.8238294E0,-1.4805195E0,1.14285715E-1,7.9545456E-1,1.5072464E0,-1.6015936E0,-1.9137255E0,5E-1,-1.375E0,9.0909094E-1,-5.904762E-1,-1.6431925E0,-8E-2,6.666667E-1,-7.2E-1,-1.6923077E0,-5.263158E-1,4.3137255E-1,1.5294118E0,2.6865673E-1,1.3824562E0,-4E-1,7.5409836E-1,1.0697675E0,-8.219178E-2,1.8416395E0,-1.4285715E0,-0E0,-1.5760368E0,1E0,-4.347826E-1,1.904762E-1,1.2916666E0,7.2E-1,1.6239316E0,-8.108108E-1,-1.8895028E0,-2.2222222E-1,-1.9186885E0,-1.53125E0,-6.666667E-1,-8E-1,5.263158E-1,-1.7514124E0,-1E0,2.857143E-1,-1E0,1.2727273E0,-1.8181819E-1,-1.2941177E0,3.3333334E-1,-1.1428572E0,6.666667E-1,1.0526316E-1,1.0588236E0,6.181818E-1,-1E0,1.4472728E0,-2.857143E-1,7.5E-1,-5.4867256E-1,1.0649351E0,2.0408164E-1,-2.857143E-1,1.2631578E0,-5.5172414E-1,1.3684211E0,1.5E0,1.9353681E0,-2.857143E-1,5E-1,-7.058824E-1,-1.7005347E0,-2.2222222E-1,1.3043479E0,-1.2E0,4E-1,-1.2903225E-1,9.230769E-1,1.4285715E0,2.5E-1,1.2E0,-0E0,1.6785715E0,2.2222222E-1],"categories":[],"categories_nodes":[],"categories_segments":[],"categories_sizes":[],"default_left":[true,true,true,true,true,true,true,true,true,true,true,true,true,true,true,true,true,true,true,true,true,true,false,true,true,true,true,true,true,true,true,true,true,false,true,false,true,true,true,true,true,false,true,true,false,true,true,true,true,true,true,true,false,true,true,true,true,true,true,true,true,false,false,false,false,false,false,false,false,false,false,false,false,false,false,false,false,false,false,false,false,false,false,false,false,false,false,false,false,false,false,false,false,false,false,false,false,false,false,false,false,false,false,false,false,false,false,false,false,false,false],"id":0,"left_children":[1,3,5,7,9,11,13,15,17,19,21,23,25,27,29,31,33,35,37,39,41,43,-1,45,47,49,51,53,55,57,59,61,63,-1,65,-1,67,69,71,73,75,-1,77,79,-1,81,83,85,87,89,91,93,-1,95,97,99,101,103,105,107,109,-1,-1,-1,-1,-1,-1,-1,-1,-1,-1,-1,-1,-1,-1,-1,-1,-1,-1,-1,-1,-1,-1,-1,-1,-1,-1,-1,-1,-1,-1,-1,-1,-1,-1,-1,-1,-1,-1,-1,-1,-1,-1,-1,-1,-1,-1,-1,-1,-1,-1],"loss_changes":[3.0665068E3,8.0707886E1,2.8818164E2,2.7634888E1,1.5342106E1,1.0731287E2,1.9148561E2,8.295654E0,1.9101845E1,6.1691523E0,7.5E0,3.5973694E1,5.518872E1,3.291063E1,8.553207E0,1.748169E0,5.0030518E0,5.389394E0,1.1443268E1,5.0092306E0,2.1506882E0,3.3137255E0,0E0,1.5438362E1,2.0529448E1,1.2798905E1,3.386731E1,8.16674E0,8.945341E0,1.2962664E1,1.999939E0,1.2754486E1,2.784668E0,0E0,3.40625E0,0E0,6.563408E0,1.9551239E0,2.3885715E0,2.5454545E0,4.2109804E0,0E0,4.255639E0,2.4974198E0,0E0,8.04559E0,8.117416E0,5.754425E0,4.9971104E0,5.996855E0,1.3185244E1,1.4284424E1,0E0,7.8571427E-1,4.676651E0,2.8937197E0,7.826087E0,5.0346212E0,3.0654755E0,2.16E0,1.8672256E0,0E0,0E0,0E0,0E0,0E0,0E0,0E0,0E0,0E0,0E0,0E0,0E0,0E0,0E0,0E0,0E0,0E0,0E0,0E0,0E0,0E0,0E0,0E0,0E0,0E0,0E0,0E0,0E0,0E0,0E0,0E0,0E0,0E0,0E0,0E0,0E0,0E0,0E0,0E0,0E0,0E0,0E0,0E0,0E0,0E0,0E0,0E0,0E0,0E0,0E0],"parents":[2147483647,0,0,1,1,2,2,3,3,4,4,5,5,6,6,7,7,8,8,9,9,10,10,11,11,12,12,13,13,14,14,15,15,16,16,17,17,18,18,19,19,20,20,21,21,23,23,24,24,25,25,26,26,27,27,28,28,29,29,30,30,31,31,32,32,34,34,36,36,37,37,38,38,39,39,40,40,42,42,43,43,45,45,46,46,47,47,48,48,49,49,50,50,51,51,53,53,54,54,55,55,56,56,57,57,58,58,59,59,60,60],"right_children":[2,4,6,8,10,12,14,16,18,20,22,24,26,28,30,32,34,36,38,40,42,44,-1,46,48,50,52,54,56,58,60,62,64,-1,66,-1,68,70,72,74,76,-1,78,80,-1,82,84,86,88,90,92,94,-1,96,98,100,102,104,106,108,110,-1,-1,-1,-1,-1,-1,-1,-1,-1,-1,-1,-1,-1,-1,-1,-1,-1,-1,-1,-1,-1,-1,-1,-1,-1,-1,-1,-1,-1,-1,-1,-1,-1,-1,-1,-1,-1,-1,-1,-1,-1,-1,-1,-1,-1,-1,-1,-1,-1,-1],"split_conditions":[-2.4353024E-1,1.0364158E0,5.6754255E-1,-3.846047E-1,-5.5279374E-1,-3.4101254E-1,2.5790496E0,1.1113085E0,3.171596E-1,-2.2138706E-1,3.6915228E-2,3.4831858E-1,-1.4433412E-1,5.610585E-1,-2.474747E-1,2.7252644E-1,-3.3703995E-1,-3.3380136E-1,4.026061E-1,3.3568656E-1,3.5758206E-1,2.502101E0,-3E-1,-1.4171629E-1,-2.3120365E-1,3.415815E-1,3.685298E-1,-3.3548778E-1,-3.1402972E-1,2.628157E-2,2.6618652E0,2.9674826E0,-3.3792937E-1,1.5E-1,6.4750127E-3,2.7272728E-1,6.4750127E-3,-1.12364314E-1,-1.07581854E-1,1.7692583E0,3.5673994E-1,-5.0769234E-1,-4.328499E-2,-1.7283353E-1,4.5882356E-1,-3.4823895E-1,3.0660627E0,-1.1819183E0,3.6179274E-1,-3.2907426E-1,9.571896E-1,-2.4041966E-1,-4.2857146E-1,-3.3649582E-1,3.1884384E-1,-3.344109E-1,1.3731272E0,3.4156122E0,3.685298E-1,1.0550778E-1,4.6816716E0,-2.4324325E-1,-5.6685084E-1,-6.666667E-2,-5.756066E-1,-4.5937502E-1,-2.0000002E-1,-2.4000001E-1,1.5789475E-1,-5.2542377E-1,-3E-1,8.5714296E-2,-3E-1,3.818182E-1,-5.454546E-2,-3.8823533E-1,1.0000001E-1,-3.4285718E-1,2.0000002E-1,3.157895E-2,3.176471E-1,1.8545455E-1,-3E-1,4.3418184E-1,-8.5714296E-2,2.2500001E-1,-1.6460177E-1,3.1948054E-1,6.1224494E-2,-8.5714296E-2,3.7894738E-1,-1.6551724E-1,4.1052634E-1,4.5000002E-1,5.8061045E-1,-8.5714296E-2,1.5E-1,-2.1176472E-1,-5.1016045E-1,-6.666667E-2,3.9130437E-1,-3.6E-1,1.20000005E-1,-3.8709678E-2,2.769231E-1,4.2857146E-1,7.5E-2,3.6E-1,-0E0,5.0357145E-1,6.666667E-2],"split_indices":[2,4,2,2,2,6,2,7,5,6,6,5,2,4,6,5,0,0,4,5,5,4,0,2,4,5,5,0,0,4,2,1,0,0,4,0,4,4,6,4,5,0,0,3,0,6,1,4,5,0,4,3,0,0,5,0,4,2,5,4,2,0,0,0,0,0,0,0,0,0,0,0,0,0,0,0,0,0,0,0,0,0,0,0,0,0,0,0,0,0,0,0,0,0,0,0,0,0,0,0,0,0,0,0,0,0,0,0,0,0,0],"split_type":[0,0,0,0,0,0,0,0,0,0,0,0,0,0,0,0,0,0,0,0,0,0,0,0,0,0,0,0,0,0,0,0,0,0,0,0,0,0,0,0,0,0,0,0,0,0,0,0,0,0,0,0,0,0,0,0,0,0,0,0,0,0,0,0,0,0,0,0,0,0,0,0,0,0,0,0,0,0,0,0,0,0,0,0,0,0,0,0,0,0,0,0,0,0,0,0,0,0,0,0,0,0,0,0,0,0,0,0,0,0,0],"sum_hessian":[1.47425E3,6.0275E2,8.715E2,5.6775E2,3.5E1,7.2175E2,1.4975E2,4.8325E2,8.45E1,1.8E1,1.7E1,1.4575E2,5.76E2,7.325E1,7.65E1,4.4325E2,4E1,2.7E1,5.75E1,8.75E0,9.25E0,1.5E1,2E0,8.6E1,5.975E1,3.775E1,5.3825E2,5.675E1,1.65E1,4.3E1,3.35E1,6.175E1,3.815E2,1E0,3.9E1,1.75E0,2.525E1,5.225E1,5.25E0,3.5E0,5.25E0,5.5E0,3.75E0,1.175E1,3.25E0,1.575E1,7.025E1,3.025E1,2.95E1,2.05E1,1.725E1,5.3575E2,2.5E0,3.5E0,5.325E1,6E0,1.05E1,2E1,2.3E1,5.25E0,2.825E1,1.75E1,4.425E1,1.25E0,3.8025E2,3.1E1,8E0,2.15E1,3.75E0,4.325E1,9E0,4.25E0,1E0,1.75E0,1.75E0,3.25E0,2E0,2.5E0,1.25E0,8.5E0,3.25E0,1.275E1,3E0,6.775E1,2.5E0,3E0,2.725E1,1.825E1,1.125E1,2.5E0,1.8E1,1.35E1,3.75E0,1.19E2,4.1675E2,2.5E0,1E0,7.5E0,4.575E1,1.25E0,4.75E0,5.25E0,5.25E0,1.45E1,5.5E0,2E1,3E0,2.75E0,2.5E0,2.7E1,1.25E0],"tree_param":{"num_deleted":"0","num_feature":"8","num_nodes":"111","size_leaf_vector":"0"}},{"base_weights":[6.534989E-2,-1.2506949E0,9.682103E-1,-1.3608534E0,-4.7110686E-1,1.166945E0,4.215593E-3,-1.4245728E0,-9.063683E-1,-7.64227E-1,3.6201176E-1,5.9016794E-1,1.3409134E0,-9.2029303E-1,8.4266037E-1,-1.4579023E0,-1.025188E0,8.082499E-3,-1.1269423E0,-1.9388565E-1,-1.0022873E0,6.311842E-1,-1.0534586E0,3.7560603E-1,9.943741E-1,3.330368E-1,1.4124287E0,-1.1328317E0,4.0358767E-2,5.940302E-1,1.2298181E0,-4.2081657E-1,-1.4613358E0,-5.461743E-1,-1.3104101E0,7.260653E-1,-8.173107E-1,-1.2056009E0,-3.752611E-1,4.8125726E-1,-9.595007E-1,-1.3425164E0,-4.846481E-1,1.3196305E0,2.7834737E-1,6.612747E-1,-5.8777027E-2,1.123298E0,3.138878E-1,1.1275485E0,-2.4739975E-2,1.4274433E0,-1.1599157E0,-2.8306913E-1,-1.268081E0,1.052963E0,-2.8606156E-1,4.3207255E-1,1.3463829E0,1.3123151E0,-1.7608838E-1,-7.2952205E-1,8.7830836E-1,-1.4114698E0,-4.6714288E-1,-9.862287E-1,1.2079028E0,-1.4163688E0,4.2268977E-2,2.1467051E-1,-1.2559526E0,3.8546816E-1,-1.1513757E0,-4.2682953E-2,8.7585735E-1,-3.2384625E-1,-1.2744305E0,-1.3784919E0,-3.71631E-1,-6.924444E-1,8.1507057E-1,-2.6776528E-1,6.8004596E-1,-1.2623698E-1,8.117812E-1,-6.7050266E-1,1.7593023E-1,1.1820356E0,-1.3436557E-1,-5.4294E-1,5.5635005E-1,1.425904E0,3.252306E-2,-5.8138454E-1,7.165975E-1,1.4907529E0,1.0971142E0,6.115787E-1,-1.2125125E0,2.6661417E-1,-1.3210509E0,-5.728766E-1,4.863104E-1,5.70637E-1,-1.5258648E-1,1.4406911E0,4.431167E-1,6.138709E-1,1.3968914E0],"categories":[],"categories_nodes":[],"categories_segments":[],"categories_sizes":[],"default_left":[true,true,true,true,true,true,true,true,true,true,true,true,true,true,true,true,true,true,true,true,true,true,false,true,true,true,true,true,true,true,true,false,false,true,true,true,true,true,true,true,true,true,true,false,true,true,true,true,true,true,true,true,false,true,true,false,true,true,true,true,false,false,false,false,false,false,false,false,false,false,false,false,false,false,false,false,false,false,false,false,false,false,false,false,false,false,false,false,false,false,false,false,false,false,false,false,false,false,false,false,false,false,false,false,false,false,false,false,false],"id":1,"left_children":[1,3,5,7,9,11,13,15,17,19,21,23,25,27,29,31,33,35,37,39,41,43,-1,45,47,49,51,53,55,57,59,-1,-1,61,63,65,67,69,71,73,75,77,79,-1,81,83,85,87,89,91,93,95,-1,97,99,-1,101,103,105,107,-1,-1,-1,-1,-1,-1,-1,-1,-1,-1,-1,-1,-1,-1,-1,-1,-1,-1,-1,-1,-1,-1,-1,-1,-1,-1,-1,-1,-1,-1,-1,-1,-1,-1,-1,-1,-1,-1,-1,-1,-1,-1,-1,-1,-1,-1,-1,-1,-1],"loss_changes":[1.6477081E3,4.7817505E1,1.5755573E2,1.3011353E1,1.7710667E1,6.762683E1,1.1051666E2,4.247925E0,1.2812759E1,7.0197086E0,8.002781E0,1.3484745E1,3.7231445E1,1.3890751E1,6.46624E0,7.944336E-1,4.284443E0,8.492253E0,2.5718155E0,9.190291E0,5.9089203E0,3.7153258E0,0E0,1.3191063E1,4.4552116E0,1.0251046E1,2.0507568E1,6.026451E0,4.6808467E0,5.201441E0,3.5137672E0,0E0,0E0,4.6558857E0,1.2345963E0,7.5092473E0,3.495016E0,3.5485916E0,4.161821E0,2.030281E0,1.2382188E0,2.5295258E-1,4.97651E0,0E0,2.8978105E0,7.6906757E0,6.2871485E0,3.533661E0,2.4037867E0,3.6088638E0,1.1053475E1,8.522278E0,0E0,8.155472E0,4.225258E0,0E0,2.6725297E0,3.3702908E0,3.7519455E-2,7.287216E-1,0E0,0E0,0E0,0E0,0E0,0E0,0E0,0E0,0E0,0E0,0E0,0E0,0E0,0E0,0E0,0E0,0E0,0E0,0E0,0E0,0E0,0E0,0E0,0E0,0E0,0E0,0E0,0E0,0E0,0E0,0E0,0E0,0E0,0E0,0E0,0E0,0E0,0E0,0E0,0E0,0E0,0E0,0E0,0E0,0E0,0E0,0E0,0E0,0E0],"parents":[2147483647,0,0,1,1,2,2,3,3,4,4,5,5,6,6,7,7,8,8,9,9,10,10,11,11,12,12,13,13,14,14,15,15,16,16,17,17,18,18,19,19,20,20,21,21,23,23,24,24,25,25,26,26,27,27,28,28,29,29,30,30,33,33,34,34,35,35,36,36,37,37,38,38,39,39,40,40,41,41,42,42,44,44,45,45,46,46,47,47,48,48,49,49,50,50,51,51,53,53,54,54,56,56,57,57,58,58,59,59],"right_children":[2,4,6,8,10,12,14,16,18,20,22,24,26,28,30,32,34,36,38,40,42,44,-1,46,48,50,52,54,56,58,60,-1,-1,62,64,66,68,70,72,74,76,78,80,-1,82,84,86,88,90,92,94,96,-1,98,100,-1,102,104,106,108,-1,-1,-1,-1,-1,-1,-1,-1,-1,-1,-1,-1,-1,-1,-1,-1,-1,-1,-1,-1,-1,-1,-1,-1,-1,-1,-1,-1,-1,-1,-1,-1,-1,-1,-1,-1,-1,-1,-1,-1,-1,-1,-1,-1,-1,-1,-1,-1,-1],"split_conditions":[-2.4353024E-1,4.026061E-1,5.952473E-1,-3.487922E-1,-3.876053E-1,-3.1611204E-1,2.5790496E0,1.1113085E0,2.742107E-1,3.3316016E-1,-3.712024E-2,-3.3138096E-2,-1.4963798E-1,7.9873717E-1,-2.3236342E-1,-3.3792937E-1,-3.2274097E-1,3.0003424E0,1.1113085E0,-2.2151712E-1,3.584242E-1,3.297916E-1,-3.160376E-1,3.4831858E-1,3.6179274E-1,2.8515846E-1,3.685298E-1,3.1884384E-1,3.4073937E-1,1.3929338E0,3.0719607E0,-1.2624498E-1,-4.3840075E-1,-3.2396525E-1,-4.6062413E-1,-2.5337878E-1,-3.245333E-1,-3.363127E-1,3.415815E-1,-7.5025785E-1,-1.7083782E-1,-4.180578E-1,2.3436484E0,3.9588916E-1,3.5505566E-1,-1.5817387E-1,-6.450712E-2,3.026462E0,-3.353265E-1,3.0037127E0,1.2531434E-1,3.5673994E-1,-3.4797472E-1,1.3632375E0,-9.8385274E-1,3.158889E-1,3.63477E-1,-2.4171126E-1,-2.39154E-1,2.6777196E0,-5.2826516E-2,-2.1885662E-1,2.6349252E-1,-4.2344096E-1,-1.4014287E-1,-2.9586864E-1,3.6237085E-1,-4.2491066E-1,1.26806935E-2,6.440116E-2,-3.7678578E-1,1.15640454E-1,-3.454127E-1,-1.2804886E-2,2.627572E-1,-9.715388E-2,-3.8232917E-1,-4.1354758E-1,-1.114893E-1,-2.0773332E-1,2.4452119E-1,-8.032959E-2,2.040138E-1,-3.7871093E-2,2.4353437E-1,-2.011508E-1,5.277907E-2,3.5461068E-1,-4.0309675E-2,-1.6288202E-1,1.6690502E-1,4.2777124E-1,9.756918E-3,-1.7441536E-1,2.1497926E-1,4.472259E-1,3.291343E-1,1.8347362E-1,-3.6375377E-1,7.9984255E-2,-3.9631528E-1,-1.7186297E-1,1.4589313E-1,1.711911E-1,-4.5775943E-2,4.3220735E-1,1.3293502E-1,1.8416128E-1,4.190674E-1],"split_indices":[2,4,2,2,2,0,2,7,5,5,6,4,2,4,3,0,0,1,7,6,5,5,0,5,5,5,5,5,5,4,1,0,0,0,2,3,2,0,5,2,3,2,4,0,5,2,2,1,0,1,4,5,0,1,4,0,5,3,3,2,0,0,0,0,0,0,0,0,0,0,0,0,0,0,0,0,0,0,0,0,0,0,0,0,0,0,0,0,0,0,0,0,0,0,0,0,0,0,0,0,0,0,0,0,0,0,0,0,0],"split_type":[0,0,0,0,0,0,0,0,0,0,0,0,0,0,0,0,0,0,0,0,0,0,0,0,0,0,0,0,0,0,0,0,0,0,0,0,0,0,0,0,0,0,0,0,0,0,0,0,0,0,0,0,0,0,0,0,0,0,0,0,0,0,0,0,0,0,0,0,0,0,0,0,0,0,0,0,0,0,0,0,0,0,0,0,0,0,0,0,0,0,0,0,0,0,0,0,0,0,0,0,0,0,0,0,0,0,0,0,0],"sum_hessian":[1.3847017E3,5.632708E2,8.214309E2,4.9287958E2,7.039121E1,6.808567E2,1.4057422E2,4.3040213E2,6.2477444E1,5.213204E1,1.8259174E1,1.5879109E2,5.220656E2,6.680941E1,7.376481E1,3.948046E2,3.5597553E1,1.2328706E1,5.0148735E1,1.5886307E1,3.624573E1,1.5807272E1,2.451903E0,1.049895E2,5.3801582E1,3.496436E1,4.8710126E2,5.4559254E1,1.22501545E1,4.6461723E1,2.7303085E1,1.710504E0,3.930941E2,1.4373325E1,2.1224228E1,6.657716E0,5.6709905E0,4.4851448E1,5.29729E0,8.639309E0,7.246998E0,2.0909195E1,1.5336538E1,4.4278007E0,1.1379471E1,6.3021545E1,4.1967957E1,4.4684914E1,9.116671E0,1.0188129E1,2.477623E1,4.8471707E2,2.38418E0,7.916063E0,4.6643192E1,2.4436867E0,9.806468E0,3.9527092E1,6.934633E0,2.585265E1,1.4504361E0,1.3166509E1,1.206817E0,1.8351162E1,2.8730671E0,1.2321714E0,5.4255443E0,2.9602134E0,2.710777E0,1.4239048E0,4.3427544E1,2.929348E0,2.3679419E0,4.094528E0,4.5447807E0,3.0729225E0,4.1740756E0,1.9757273E1,1.1519219E0,1.3625377E1,1.7111615E0,4.964122E0,6.4153495E0,1.0137784E1,5.288376E1,1.1122428E1,3.084553E1,4.2748535E1,1.9363799E0,1.7374581E0,7.379212E0,7.7691474E0,2.4189816E0,1.427408E1,1.0502149E1,4.0381116E2,8.090591E1,4.207792E0,3.7082705E0,1.4216111E0,4.522158E1,7.3393426E0,2.4671252E0,3.1973372E1,7.5537195E0,5.7403183E0,1.1943145E0,3.6844077E0,2.2168242E1],"tree_param":{"num_deleted":"0","num_feature":"8","num_nodes":"109","size_leaf_vector":"0"}},{"base_weights":[5.221409E-2,-1.0337331E0,7.831312E-1,-1.1207752E0,-2.305616E-1,9.970312E-1,1.427103E-1,-1.1985879E0,-7.186766E-1,1.7295074E-1,-6.2635225E-1,5.9033805E-1,1.2295232E0,-2.1037681E-1,7.0425195E-1,-1.2373495E0,-7.9386514E-1,-2.085389E-1,-9.8425853E-1,-3.356552E-2,1.3300784E0,-7.6980066E-1,4.9994525E-1,8.7141174E-1,1.8898046E-1,7.153644E-1,1.2794429E0,-5.00532E-1,6.519279E-1,1.1945349E0,4.6492425E-1,-9.9334705E-1,-1.2699637E0,-8.6534095E-1,2.4841826E-1,-3.2389984E-1,9.786873E-1,-1.1360619E0,-5.8811873E-1,6.8926495E-1,-4.2947477E-1,-1.0161827E0,-3.1158417E-1,-1.7718808E-1,9.6196604E-1,1.0013258E0,3.5296105E-2,-1.005008E-1,8.412055E-1,8.7043536E-1,8.287462E-2,1.2924836E0,9.5740244E-2,2.0731409E-1,-8.273768E-1,-4.743109E-1,7.950933E-1,1.2821681E0,2.3691636E-1,9.251834E-2,8.822837E-1,-1.2443258E0,3.1599995E-1,-1.1597595E-1,-1.2744486E0,-3.1827664E-1,-1.018375E0,5.7406437E-2,-7.371893E-1,-6.541093E-1,-1.2447935E0,-7.714924E-1,7.9112846E-1,1.1202033E0,5.1816907E-3,-7.045605E-1,4.8086774E-1,-2.5854337E-1,-1.1367757E0,-8.5127574E-1,5.0475895E-1,5.5037398E-2,1.1016539E0,-2.1646707E-1,1.0249578E0,-3.7179127E-1,4.5559296E-1,5.098666E-1,1.18086E0,9.028375E-2,9.819217E-1,1.0385057E0,-6.536677E-1,5.8767265E-1,1.3118215E0,-1.1661624E0,8.198793E-1,5.959759E-1,-1.1416522E0,7.3500043E-1,-9.142007E-1,3.2857037E-1,-1.2278932E0,6.038827E-2,9.342293E-1,1.3676981E0,7.0769715E-1,6.923586E-1,-4.274314E-1,-6.530198E-2,9.962807E-1],"categories":[],"categories_nodes":[],"categories_segments":[],"categories_sizes":[],"default_left":[true,true,true,true,true,true,true,true,true,true,true,true,true,true,true,true,true,true,true,true,false,true,true,true,true,true,true,true,true,true,true,true,true,true,false,true,false,true,true,true,true,true,true,false,false,true,true,true,true,true,true,true,true,true,true,true,true,true,false,true,true,false,false,false,false,false,false,false,false,false,false,false,false,false,false,false,false,false,false,false,false,false,false,false,false,false,false,false,false,false,false,false,false,false,false,false,false,false,false,false,false,false,false,false,false,false,false,false,false,false,false],"id":2,"left_children":[1,3,5,7,9,11,13,15,17,19,21,23,25,27,29,31,33,35,37,39,-1,41,43,45,47,49,51,53,55,57,59,61,63,65,-1,67,-1,69,71,73,75,77,79,-1,-1,81,83,85,87,89,91,93,95,97,99,101,103,105,-1,107,109,-1,-1,-1,-1,-1,-1,-1,-1,-1,-1,-1,-1,-1,-1,-1,-1,-1,-1,-1,-1,-1,-1,-1,-1,-1,-1,-1,-1,-1,-1,-1,-1,-1,-1,-1,-1,-1,-1,-1,-1,-1,-1,-1,-1,-1,-1,-1,-1,-1,-1],"loss_changes":[9.745576E2,3.4274414E1,1.0038159E2,1.3074585E1,8.022903E0,5.1271362E1,3.680849E1,4.848694E0,9.917461E0,6.0959163E0,4.4618473E0,2.2617477E1,8.04187E0,2.8921734E1,7.8470917E0,1.423584E0,2.8430061E0,3.994235E0,2.270462E0,6.724422E0,0E0,2.2548332E0,1.251996E0,1.2836021E1,1.6030073E1,3.1794376E0,4.7668457E0,2.0086708E1,5.086731E0,1.6139526E0,7.6519394E0,1.4975174E1,1.3739929E0,2.4583588E0,0E0,4.017144E0,0E0,9.8085403E-1,4.558748E0,2.4508474E0,4.127641E0,1.0190535E0,4.574109E0,0E0,0E0,9.672867E0,4.4506474E0,9.128556E0,2.3316307E0,2.2178822E0,6.051329E0,3.4991455E0,5.0977626E0,1.5355968E1,8.687473E0,2.7755494E0,2.6308842E0,4.962921E-2,0E0,8.84527E0,2.586853E0,0E0,0E0,0E0,0E0,0E0,0E0,0E0,0E0,0E0,0E0,0E0,0E0,0E0,0E0,0E0,0E0,0E0,0E0,0E0,0E0,0E0,0E0,0E0,0E0,0E0,0E0,0E0,0E0,0E0,0E0,0E0,0E0,0E0,0E0,0E0,0E0,0E0,0E0,0E0,0E0,0E0,0E0,0E0,0E0,0E0,0E0,0E0,0E0,0E0,0E0],"parents":[2147483647,0,0,1,1,2,2,3,3,4,4,5,5,6,6,7,7,8,8,9,9,10,10,11,11,12,12,13,13,14,14,15,15,16,16,17,17,18,18,19,19,21,21,22,22,23,23,24,24,25,25,26,26,27,27,28,28,29,29,30,30,31,31,32,32,33,33,35,35,37,37,38,38,39,39,40,40,41,41,42,42,45,45,46,46,47,47,48,48,49,49,50,50,51,51,52,52,53,53,54,54,55,55,56,56,57,57,59,59,60,60],"right_children":[2,4,6,8,10,12,14,16,18,20,22,24,26,28,30,32,34,36,38,40,-1,42,44,46,48,50,52,54,56,58,60,62,64,66,-1,68,-1,70,72,74,76,78,80,-1,-1,82,84,86,88,90,92,94,96,98,100,102,104,106,-1,108,110,-1,-1,-1,-1,-1,-1,-1,-1,-1,-1,-1,-1,-1,-1,-1,-1,-1,-1,-1,-1,-1,-1,-1,-1,-1,-1,-1,-1,-1,-1,-1,-1,-1,-1,-1,-1,-1,-1,-1,-1,-1,-1,-1,-1,-1,-1,-1,-1,-1,-1],"split_conditions":[-2.4266192E-1,6.402848E-1,3.9400357E-1,-3.8924664E-1,-2.215102E-1,2.3880836E-2,2.0454055E-1,1.1113085E0,3.1800172E-1,-1.8999141E-1,-3.2872078E-1,3.4326577E-1,-3.5085845E-1,2.7958322E0,3.297916E-1,2.624208E-1,3.651613E-1,3.035733E-1,-2.3120365E-1,3.2389665E-1,3.9902353E-1,1.5513864E0,-1.9942564E-1,2.9826486E0,4.8183233E-1,-3.2400188E-1,3.6684555E-1,3.348444E-1,-3.6047706E-1,3.0719607E0,2.311491E0,2.2031406E-1,-3.3792937E-1,2.9273766E-1,7.452548E-2,-5.084954E-1,2.936062E-1,3.4326577E-1,3.651613E-1,-2.4101147E-1,3.6179274E-1,-2.5068328E-1,-5.935828E-1,-5.3156428E-2,2.8858984E-1,-3.3290666E-1,-1.8961129E-1,-2.5813174E-1,-2.1390963E-1,2.7084213E-1,2.8852698E-1,-3.2740527E-1,-1.4193466E-1,3.0458412E0,-9.8385274E-1,-3.3304274E-1,3.1884384E-1,3.223495E0,7.107491E-2,6.343305E-1,3.2337987E-1,-3.7329775E-1,9.479999E-2,-3.479279E-2,-3.8233462E-1,-9.5483E-2,-3.0551252E-1,1.7221931E-2,-2.2115679E-1,-1.962328E-1,-3.7343806E-1,-2.3144774E-1,2.3733854E-1,3.36061E-1,1.5545073E-3,-2.1136816E-1,1.4426033E-1,-7.756302E-2,-3.4103274E-1,-2.5538275E-1,1.5142769E-1,1.651122E-2,3.304962E-1,-6.4940125E-2,3.0748734E-1,-1.1153739E-1,1.3667789E-1,1.5295999E-1,3.5425803E-1,2.7085127E-2,2.9457653E-1,3.1155172E-1,-1.9610031E-1,1.763018E-1,3.9354646E-1,-3.4984872E-1,2.459638E-1,1.7879277E-1,-3.4249568E-1,2.2050014E-1,-2.7426022E-1,9.8571114E-2,-3.6836797E-1,1.8116482E-2,2.8026882E-1,4.1030943E-1,2.1230915E-1,2.077076E-1,-1.2822942E-1,-1.9590594E-2,2.9888424E-1],"split_indices":[2,4,2,2,6,2,4,7,5,3,2,5,6,2,5,5,5,4,4,5,0,4,3,1,4,0,5,5,6,1,2,5,0,5,0,4,0,5,5,3,5,3,2,0,0,0,3,6,3,5,5,0,3,1,4,0,5,2,0,2,4,0,0,0,0,0,0,0,0,0,0,0,0,0,0,0,0,0,0,0,0,0,0,0,0,0,0,0,0,0,0,0,0,0,0,0,0,0,0,0,0,0,0,0,0,0,0,0,0,0,0],"split_type":[0,0,0,0,0,0,0,0,0,0,0,0,0,0,0,0,0,0,0,0,0,0,0,0,0,0,0,0,0,0,0,0,0,0,0,0,0,0,0,0,0,0,0,0,0,0,0,0,0,0,0,0,0,0,0,0,0,0,0,0,0,0,0,0,0,0,0,0,0,0,0,0,0,0,0,0,0,0,0,0,0,0,0,0,0,0,0,0,0,0,0,0,0,0,0,0,0,0,0,0,0,0,0,0,0,0,0,0,0,0,0],"sum_hessian":[1.2257887E3,4.9296307E2,7.3282556E2,4.4440607E2,4.855703E1,5.489274E2,1.8389813E2,3.706905E2,7.371557E1,2.4322765E1,2.4234266E1,2.0094969E2,3.4797772E2,1.1328927E2,7.060886E1,3.3641385E2,3.4276634E1,2.5849085E1,4.7866486E1,2.1463158E1,2.8596063E0,2.1777184E1,2.4570825E0,1.1749553E2,8.345416E1,3.2151997E1,3.1582574E2,8.508031E1,2.8208961E1,2.1851997E1,4.8756863E1,4.3373585E1,2.9304028E2,3.223579E1,2.040843E0,2.4222593E1,1.6264927E0,3.3255085E1,1.46114E1,7.333348E0,1.412981E1,1.3370308E1,8.406876E0,1.246588E0,1.2104945E0,1.0152342E2,1.5972112E1,5.838616E1,2.5067997E1,2.5519129E1,6.632869E0,3.1229337E2,3.532372E0,2.6991238E1,5.8089073E1,2.9205854E0,2.5288376E1,1.970944E1,2.1425555E0,2.6411661E1,2.2345203E1,3.6438606E1,6.9349775E0,1.238442E0,2.9180182E2,7.719608E0,2.4516182E1,1.3046666E1,1.1175927E1,7.4129615E0,2.5842125E1,1.3285684E1,1.3257159E0,4.1079926E0,3.2253554E0,1.1024496E1,3.105314E0,2.2676275E0,1.110268E1,5.0352416E0,3.3716338E0,9.8804245E0,9.1643E1,1.3355767E1,2.6163442E0,3.9464714E1,1.8921448E1,1.3955399E1,1.1112598E1,3.417086E0,2.2102043E1,2.7086024E0,3.9242663E0,9.177831E0,3.0311554E2,1.0653881E0,2.466984E0,2.138735E1,5.603887E0,2.6651356E0,5.5423935E1,1.6871024E0,1.233483E0,4.2548327E0,2.1033543E1,1.5953425E1,3.7560158E0,1.2109705E1,1.4301955E1,2.4453883E0,1.9899815E1],"tree_param":{"num_deleted":"0","num_feature":"8","num_nodes":"111","size_leaf_vector":"0"}},{"base_weights":[4.5082074E-2,-9.1510683E-1,6.3004184E-1,-1.0108261E0,-3.3280128E-1,3.5973355E-1,9.817631E-1,-8.8870823E-1,-1.2117012E0,-2.7442023E-2,-6.4714754E-1,5.444703E-1,-5.43832E-2,1.099923E0,1.0675707E-1,-1.0538695E0,-5.89193E-1,-1.2230135E0,-5.583009E-1,-4.0599427E-1,2.9658636E-1,-9.082275E-1,-3.2568514E-1,2.668826E-1,8.817824E-1,-2.7553278E-1,5.056903E-1,4.090465E-2,1.1770587E0,-7.2978806E-1,8.391044E-1,-1.1014522E0,-4.4063416E-1,7.855402E-2,-7.8635246E-1,1.8794489E-1,-8.78683E-1,-6.8755555E-1,3.5889104E-1,-4.385268E-1,4.7328854E-1,-1.1311139E0,-3.3248726E-1,1.01685554E-1,-9.338138E-1,7.121274E-1,-7.4922256E-2,9.072639E-1,-6.6357964E-1,-5.195772E-1,2.7626112E-1,2.4882822E-1,7.734814E-1,7.686213E-1,-5.02176E-1,1.1951455E0,-8.811396E-1,1.3815677E-1,-9.467463E-1,-2.8564882E-1,1.0359532E0,-7.195215E-1,-1.1499338E0,1.6440263E-2,-1.0290067E0,9.8588216E-1,-8.0455846E-1,-9.485089E-1,-2.546871E-1,-2.367187E-1,-1.1930735E0,-3.757842E-1,7.284417E-1,-7.272342E-1,1.370764E-1,9.440184E-1,7.846902E-2,-3.4525183E-1,-1.2059139E0,-7.5550604E-1,5.5542934E-1,-5.912289E-1,4.8208392E-1,-1.1325195E0,-3.8303543E-2,8.6251247E-1,-7.3886746E-1,-4.4904244E-1,2.444446E-1,1.0147427E0,5.344904E-1,5.4123026E-1,-5.9745395E-1,1.1463476E0,-1.2907742E-1,4.8901072E-1,-5.688277E-1,1.0306529E0,2.0605893E-1,3.1722435E-1,1.3004912E0,-8.809123E-1,9.1010123E-1,5.889084E-1,1.2092437E0,8.135215E-1,-6.1656696E-1,-5.8744386E-2,-1.1031263E0,4.3484616E-1,-1.0147508E0,1.157708E0,-1.3947989E-1],"categories":[],"categories_nodes":[],"categories_segments":[],"categories_sizes":[],"default_left":[true,true,true,true,true,true,true,true,true,true,true,true,true,true,true,true,true,false,true,true,true,true,true,true,true,true,true,true,true,true,true,true,true,true,true,false,false,true,true,true,true,true,true,true,true,true,true,true,false,true,true,true,true,true,true,true,false,true,true,true,true,false,false,false,false,false,false,false,false,false,false,false,false,false,false,false,false,false,false,false,false,false,false,false,false,false,false,false,false,false,false,false,false,false,false,false,false,false,false,false,false,false,false,false,false,false,false,false,false,false,false,false,false],"id":3,"left_children":[1,3,5,7,9,11,13,15,17,19,21,23,25,27,29,31,33,-1,35,37,39,41,43,45,47,49,51,53,55,57,59,61,63,65,67,-1,-1,69,71,73,75,77,79,81,83,85,87,89,-1,91,93,95,97,99,101,103,-1,105,107,109,111,-1,-1,-1,-1,-1,-1,-1,-1,-1,-1,-1,-1,-1,-1,-1,-1,-1,-1,-1,-1,-1,-1,-1,-1,-1,-1,-1,-1,-1,-1,-1,-1,-1,-1,-1,-1,-1,-1,-1,-1,-1,-1,-1,-1,-1,-1,-1,-1,-1,-1,-1,-1],"loss_changes":[5.9962317E2,2.2191559E1,6.2714996E1,7.426056E0,5.602375E0,2.8846004E1,2.9627258E1,1.0228714E1,2.655487E-1,3.8915052E0,2.121832E0,2.4162384E1,1.4644155E1,2.0648132E1,2.2260115E1,3.6027527E0,1.0623383E1,0E0,1.1270778E0,3.3912866E0,2.4343233E0,1.5920277E0,3.85546E0,2.202472E1,5.216934E0,1.1536394E1,2.1120777E0,7.593375E0,9.842987E0,3.337492E0,4.570408E0,1.5676575E0,3.1781783E0,1.6174795E1,5.1059494E0,0E0,0E0,2.2280655E0,1.5187473E0,7.3801726E-1,2.5839152E0,2.091198E-1,2.5593295E0,2.7625246E0,1.0367227E0,1.4339329E1,9.9762535E0,4.0938187E0,0E0,5.198037E0,9.52801E0,3.9260266E0,2.1119814E0,1.5534539E0,6.711149E0,1.2919922E0,0E0,2.6821985E0,1.8447256E0,2.3636215E0,2.5438595E0,0E0,0E0,0E0,0E0,0E0,0E0,0E0,0E0,0E0,0E0,0E0,0E0,0E0,0E0,0E0,0E0,0E0,0E0,0E0,0E0,0E0,0E0,0E0,0E0,0E0,0E0,0E0,0E0,0E0,0E0,0E0,0E0,0E0,0E0,0E0,0E0,0E0,0E0,0E0,0E0,0E0,0E0,0E0,0E0,0E0,0E0,0E0,0E0,0E0,0E0,0E0,0E0],"parents":[2147483647,0,0,1,1,2,2,3,3,4,4,5,5,6,6,7,7,8,8,9,9,10,10,11,11,12,12,13,13,14,14,15,15,16,16,18,18,19,19,20,20,21,21,22,22,23,23,24,24,25,25,26,26,27,27,28,28,29,29,30,30,31,31,32,32,33,33,34,34,37,37,38,38,39,39,40,40,41,41,42,42,43,43,44,44,45,45,46,46,47,47,49,49,50,50,51,51,52,52,53,53,54,54,55,55,57,57,58,58,59,59,60,60],"right_children":[2,4,6,8,10,12,14,16,18,20,22,24,26,28,30,32,34,-1,36,38,40,42,44,46,48,50,52,54,56,58,60,62,64,66,68,-1,-1,70,72,74,76,78,80,82,84,86,88,90,-1,92,94,96,98,100,102,104,-1,106,108,110,112,-1,-1,-1,-1,-1,-1,-1,-1,-1,-1,-1,-1,-1,-1,-1,-1,-1,-1,-1,-1,-1,-1,-1,-1,-1,-1,-1,-1,-1,-1,-1,-1,-1,-1,-1,-1,-1,-1,-1,-1,-1,-1,-1,-1,-1,-1,-1,-1,-1,-1,-1,-1],"split_conditions":[-2.7828395E-1,4.026061E-1,-2.2353825E-1,-2.2816466E-1,-2.2151712E-1,3.9246482E-1,5.952473E-1,-5.4829156E-1,-3.058409E-1,-6.057986E-1,-5.5279374E-1,2.4583165E-2,2.6577435E0,-1.5244317E-1,2.5790496E0,4.608812E-2,2.7252644E-1,-3.6690408E-1,-2.9753214E-1,-2.8773737E-1,-3.619129E-1,-4.328499E-2,-3.0999385E-2,3.1294888E-1,3.0669053E0,2.8376678E-1,2.628157E-2,3.4831858E-1,3.685298E-1,3.4663433E-1,-2.908207E-1,2.3463035E-1,-3.1381172E-1,1.3194242E0,-1.9159053E-1,5.638347E-2,-2.636049E-1,-3.08353E-1,8.779634E-1,1.1552551E0,-2.4120584E-1,-1.9205314E-1,3.6179274E-1,-1.7932297E-1,1.2740946E0,3.0500538E0,-3.5004297E-1,3.5505566E-1,-1.990739E-1,-9.8385274E-1,3.3989722E-1,-1.5197742E-1,-2.985499E-1,-1.20770074E-1,9.769962E-1,-9.983813E-2,-2.643419E-1,-2.5741103E-1,-2.120651E-1,3.6684555E-1,3.0719607E0,-2.1585646E-1,-3.4498015E-1,4.932079E-3,-3.0870202E-1,2.9576465E-1,-2.4136755E-1,-2.845527E-1,-7.6406136E-2,-7.101561E-2,-3.5792208E-1,-1.12735264E-1,2.1853252E-1,-2.1817027E-1,4.112292E-2,2.8320554E-1,2.3540707E-2,-1.0357555E-1,-3.6177418E-1,-2.2665182E-1,1.6662881E-1,-1.7736867E-1,1.4462519E-1,-3.3975586E-1,-1.1491063E-2,2.5875375E-1,-2.2166024E-1,-1.3471274E-1,7.333338E-2,3.0442283E-1,1.6034713E-1,1.6236909E-1,-1.7923619E-1,3.4390432E-1,-3.8723227E-2,1.4670323E-1,-1.706483E-1,3.0919588E-1,6.1817683E-2,9.516731E-2,3.901474E-1,-2.642737E-1,2.7303037E-1,1.7667252E-1,3.6277312E-1,2.4405646E-1,-1.849701E-1,-1.7623316E-2,-3.309379E-1,1.3045385E-1,-3.0442527E-1,3.4731242E-1,-4.184397E-2],"split_indices":[2,4,3,3,6,2,2,2,2,2,2,2,2,2,2,4,5,0,2,6,6,0,6,5,1,4,4,5,5,5,0,5,0,1,4,0,0,0,4,4,3,6,5,6,4,1,4,5,0,4,5,4,0,6,4,2,0,6,3,5,1,0,0,0,0,0,0,0,0,0,0,0,0,0,0,0,0,0,0,0,0,0,0,0,0,0,0,0,0,0,0,0,0,0,0,0,0,0,0,0,0,0,0,0,0,0,0,0,0,0,0,0,0],"split_type":[0,0,0,0,0,0,0,0,0,0,0,0,0,0,0,0,0,0,0,0,0,0,0,0,0,0,0,0,0,0,0,0,0,0,0,0,0,0,0,0,0,0,0,0,0,0,0,0,0,0,0,0,0,0,0,0,0,0,0,0,0,0,0,0,0,0,0,0,0,0,0,0,0,0,0,0,0,0,0,0,0,0,0,0,0,0,0,0,0,0,0,0,0,0,0,0,0,0,0,0,0,0,0,0,0,0,0,0,0,0,0,0,0],"sum_hessian":[1.0655419E3,4.0317737E2,6.6236456E2,3.4562732E2,5.7550053E1,3.7567215E2,2.866924E2,2.1832515E2,1.2730216E2,2.9743856E1,2.7806196E1,2.5956558E2,1.1610655E2,2.5235732E2,3.433509E1,1.3910184E2,7.9223305E1,1.2427875E2,3.0234175E0,1.3601127E1,1.614273E1,1.433695E1,1.3469245E1,1.43371E2,1.1619459E2,8.3603195E1,3.250336E1,1.723692E1,2.3512039E2,1.6028996E1,1.8306095E1,1.283469E2,1.0754957E1,1.8196455E1,6.102685E1,1.0323056E0,1.9911119E0,1.0015449E1,3.5856783E0,2.8411791E0,1.3301551E1,9.640282E0,4.6966686E0,8.399307E0,5.0699377E0,6.1793537E1,8.157747E1,1.1471595E2,1.4786373E0,5.800669E1,2.55965E1,1.7574907E1,1.4928454E1,7.1887913E0,1.0048128E1,2.3348788E2,1.6324984E0,3.278103E0,1.2750893E1,2.6594481E0,1.56466465E1,1.624132E1,1.1210557E2,6.599908E0,4.155049E0,8.917775E0,9.27868E0,4.6163174E1,1.4863677E1,6.070159E0,3.9452896E0,1.1943719E0,2.3913066E0,1.7166988E0,1.1244805E0,5.4329805E0,7.8685703E0,1.3258932E0,8.314389E0,3.28213E0,1.4145384E0,2.7804124E0,5.618895E0,3.932654E0,1.1372839E0,5.635801E1,5.435525E0,3.738132E1,4.4196144E1,8.770618E1,2.7009775E1,3.560267E0,5.4446426E1,7.553748E0,1.8042753E1,1.3895195E1,3.679711E0,9.710854E0,5.217601E0,4.7521133E0,2.4366777E0,8.219987E0,1.8281415E0,6.2784576E0,2.2720944E2,1.6888918E0,1.5892115E0,2.1152313E0,1.0635662E1,1.5406108E0,1.1188372E0,1.4191706E1,1.4549406E0],"tree_param":{"num_deleted":"0","num_feature":"8","num_nodes":"113","size_leaf_vector":"0"}},{"base_weights":[3.6602538E-2,-7.411323E-1,5.6244385E-1,-8.182219E-1,1.1213642E-1,7.122077E-1,-4.453556E-2,-9.239391E-1,-4.3161568E-1,-1.204482E-1,1.0955416E0,3.8809174E-1,1.0094334E0,-6.225924E-1,4.1064548E-1,-9.83217E-1,-4.081378E-1,-1.7342538E-1,-7.816359E-1,1.0566464E-1,-6.808936E-1,5.961888E-1,1.6308023E-1,1.0270663E0,-8.299501E-1,-7.845134E-1,4.6367325E-2,1.6501392E-1,7.555883E-1,-7.042889E-1,-1.0327799E0,-4.9880114E-1,5.035806E-1,-4.526821E-1,4.8532555E-1,-8.3637565E-1,4.0087685E-1,-2.583341E-1,4.2305484E-1,-9.43044E-1,2.1547918E-1,-5.868006E-1,6.7525756E-1,6.297843E-1,1.8770216E-2,3.8108304E-1,1.0876205E0,1.8661697E-1,-8.969393E-1,-6.699792E-1,2.7534798E-1,-5.8257267E-2,6.8008703E-1,1.2532341E0,3.9429745E-1,-5.2087303E-2,-1.0527481E0,-8.7256336E-1,-1.1161842E0,3.2745987E-2,-6.903522E-1,1.0538332E0,-3.1642148E-1,-7.557887E-1,8.172786E-2,1.1727785E-1,1.1132897E0,-9.1171896E-1,9.397619E-2,1.7545608E-1,-5.9973127E-1,6.3213843E-1,-3.9947173E-1,-1.1396108E0,-1.8732093E-1,-9.2763394E-1,7.121777E-1,5.3760305E-2,7.714274E-1,6.9664225E-2,7.553753E-1,1.3398854E-1,-9.27148E-1,9.652636E-1,-5.5218276E-2,6.715224E-1,1.1366252E0,-3.0781627E-1,7.650877E-1,-6.2355447E-1,-1.1553944E0,6.864591E-1,-1.8486933E-1,1.6880244E-1,-1.0011184E0,1.0931576E0,3.6095095E-1,-1.0486678E0,6.665764E-1],"categories":[],"categories_nodes":[],"categories_segments":[],"categories_sizes":[],"default_left":[true,true,true,true,true,true,true,true,true,true,false,true,true,true,true,true,true,true,true,true,true,true,true,true,false,true,true,true,true,true,true,true,true,true,true,true,false,true,true,true,false,true,true,true,true,true,true,true,true,false,true,true,true,false,true,false,false,false,false,false,false,false,false,false,false,false,false,false,false,false,false,false,false,false,false,false,false,false,false,false,false,false,false,false,false,false,false,false,false,false,false,false,false,false,false,false,false,false,false],"id":4,"left_children":[1,3,5,7,9,11,13,15,17,19,-1,21,23,25,27,29,31,33,35,37,39,41,43,45,-1,47,49,51,53,55,57,59,61,63,65,67,-1,69,71,73,-1,75,77,79,81,83,85,87,89,-1,91,93,95,-1,97,-1,-1,-1,-1,-1,-1,-1,-1,-1,-1,-1,-1,-1,-1,-1,-1,-1,-1,-1,-1,-1,-1,-1,-1,-1,-1,-1,-1,-1,-1,-1,-1,-1,-1,-1,-1,-1,-1,-1,-1,-1,-1,-1,-1],"loss_changes":[3.7831445E2,2.4638275E1,5.0197952E1,1.3594223E1,7.405522E0,4.2256424E1,2.924045E1,7.792267E0,6.6779766E0,3.4451978E0,0E0,9.894932E0,8.322128E0,5.3359947E0,5.1481314E0,2.5856018E0,2.6757674E0,8.43796E0,2.3885612E0,2.4005191E0,2.0329146E0,1.0731113E1,6.9863997E0,8.526398E0,0E0,4.474249E0,1.9033213E0,4.36684E0,4.109312E0,8.877092E0,1.7165375E0,2.790185E0,1.7550547E0,5.2276387E0,3.0548859E0,2.2334843E0,0E0,1.5652599E0,2.139729E0,7.091079E-1,0E0,3.9622297E0,6.1764336E0,1.6715899E0,8.886542E0,5.4385986E0,3.4869385E0,1.6428969E0,1.7897816E0,0E0,1.7633696E0,5.9857817E0,1.1157908E0,0E0,7.100486E0,0E0,0E0,0E0,0E0,0E0,0E0,0E0,0E0,0E0,0E0,0E0,0E0,0E0,0E0,0E0,0E0,0E0,0E0,0E0,0E0,0E0,0E0,0E0,0E0,0E0,0E0,0E0,0E0,0E0,0E0,0E0,0E0,0E0,0E0,0E0,0E0,0E0,0E0,0E0,0E0,0E0,0E0,0E0,0E0],"parents":[2147483647,0,0,1,1,2,2,3,3,4,4,5,5,6,6,7,7,8,8,9,9,11,11,12,12,13,13,14,14,15,15,16,16,17,17,18,18,19,19,20,20,21,21,22,22,23,23,25,25,26,26,27,27,28,28,29,29,30,30,31,31,32,32,33,33,34,34,35,35,37,37,38,38,39,39,41,41,42,42,43,43,44,44,45,45,46,46,47,47,48,48,50,50,51,51,52,52,54,54],"right_children":[2,4,6,8,10,12,14,16,18,20,-1,22,24,26,28,30,32,34,36,38,40,42,44,46,-1,48,50,52,54,56,58,60,62,64,66,68,-1,70,72,74,-1,76,78,80,82,84,86,88,90,-1,92,94,96,-1,98,-1,-1,-1,-1,-1,-1,-1,-1,-1,-1,-1,-1,-1,-1,-1,-1,-1,-1,-1,-1,-1,-1,-1,-1,-1,-1,-1,-1,-1,-1,-1,-1,-1,-1,-1,-1,-1,-1,-1,-1,-1,-1,-1,-1],"split_conditions":[-2.2270098E-1,1.0364158E0,7.1679604E-1,-3.821699E-1,-3.3564013E-1,-2.349725E-1,2.3512392E0,1.1113085E0,-2.4120584E-1,-1.8528429E-1,3.2866248E-1,3.3989722E-1,3.685298E-1,8.779634E-1,-2.474747E-1,2.7252644E-1,3.651613E-1,-2.4771133E-1,9.90286E-1,-6.057986E-1,2.3436484E0,-3.6536676E-1,-2.5486475E-1,-9.983813E-2,-2.4898504E-1,-3.345757E-1,1.0625088E0,3.3911517E0,-2.0091328E-1,2.9674826E0,-3.120625E-1,2.9273766E-1,-2.9789954E-1,-2.7081674E-1,-2.7226603E-1,3.651613E-1,1.2026306E-1,1.8088715E0,-1.2922342E-1,-3.1151481E-2,6.4643756E-2,1.4512089E-1,-1.4433412E-1,-8.077213E-2,-2.1864313E-1,3.4326577E-1,-3.2219297E-1,-3.3631793E-1,3.5673994E-1,-2.0099378E-1,-2.6037806E-1,3.685298E-1,4.030387E0,3.7597027E-1,-1.5815237E-1,-1.5626192E-2,-3.1582445E-1,-2.6176903E-1,-3.348553E-1,9.823796E-3,-2.0710567E-1,3.1614998E-1,-9.492645E-2,-2.2673662E-1,2.451836E-2,3.518336E-2,3.3398694E-1,-2.735157E-1,2.819286E-2,5.2636825E-2,-1.7991939E-1,1.8964154E-1,-1.1984152E-1,-3.4188324E-1,-5.6196284E-2,-2.7829018E-1,2.1365331E-1,1.6128093E-2,2.3142822E-1,2.0899268E-2,2.2661261E-1,4.0196564E-2,-2.7814442E-1,2.895791E-1,-1.6565483E-2,2.0145673E-1,3.4098756E-1,-9.234488E-2,2.2952633E-1,-1.8706635E-1,-3.4661835E-1,2.0593774E-1,-5.5460803E-2,5.0640736E-2,-3.0033553E-1,3.2794732E-1,1.08285286E-1,-3.1460035E-1,1.9997293E-1],"split_indices":[2,4,2,2,2,3,2,7,3,0,0,5,5,4,6,5,5,3,0,2,4,6,3,2,0,0,2,2,6,1,0,5,0,4,6,5,0,4,6,3,0,4,2,2,6,5,6,0,5,0,6,5,2,0,6,0,0,0,0,0,0,0,0,0,0,0,0,0,0,0,0,0,0,0,0,0,0,0,0,0,0,0,0,0,0,0,0,0,0,0,0,0,0,0,0,0,0,0,0],"split_type":[0,0,0,0,0,0,0,0,0,0,0,0,0,0,0,0,0,0,0,0,0,0,0,0,0,0,0,0,0,0,0,0,0,0,0,0,0,0,0,0,0,0,0,0,0,0,0,0,0,0,0,0,0,0,0,0,0,0,0,0,0,0,0,0,0,0,0,0,0,0,0,0,0,0,0,0,0,0,0,0,0,0,0,0,0,0,0,0,0,0,0,0,0,0,0,0,0,0,0],"sum_hessian":[9.2303375E2,3.7217157E2,5.508622E2,3.413711E2,3.0800497E1,4.4170438E2,1.0915782E2,2.6697665E2,7.439443E1,2.5618904E1,5.181594E0,2.1239719E2,2.2930719E2,4.7926193E1,6.123163E1,2.3864449E2,2.8332163E1,4.3674023E1,3.0720407E1,1.8832397E1,6.786506E0,1.0948904E2,1.0290815E2,2.2756728E2,1.739908E0,3.8447323E1,9.478871E0,3.6627674E1,2.4603952E1,3.8301704E1,2.0034279E2,2.6181513E1,2.1506495E0,3.08914E1,1.2782621E1,2.9641006E1,1.0794015E0,8.85878E0,9.973618E0,5.210572E0,1.5759344E0,6.457257E0,1.0303178E2,2.351043E1,7.939772E1,2.0128864E1,2.0743842E2,3.920684E0,3.4526638E1,1.8295038E0,7.6493673E0,2.6170374E1,1.0457301E1,9.310628E0,1.52933235E1,1.37380495E1,2.4563654E1,7.2511955E1,1.2783083E2,7.1551847E0,1.9026327E1,1.1163661E0,1.0342835E0,1.944713E1,1.1444269E1,8.807395E0,3.9752257E0,2.7438929E1,2.2020776E0,4.1155257E0,4.743254E0,8.136749E0,1.8368678E0,3.7319117E0,1.4786601E0,5.341577E0,1.1156796E0,1.4015525E1,8.901625E1,4.590789E0,1.891964E1,7.1541855E1,7.855863E0,8.087638E0,1.2041226E1,2.34055E1,1.8403291E2,2.3661535E0,1.5545306E0,1.8437124E1,1.6089516E1,3.780583E0,3.8687844E0,2.1752829E1,4.4175453E0,3.500761E0,6.9565396E0,1.9750315E0,1.3318293E1],"tree_param":{"num_deleted":"0","num_feature":"8","num_nodes":"99","size_leaf_vector":"0"}},{"base_weights":[3.0688612E-2,-6.9205165E-1,4.3500054E-1,-8.0299807E-1,-2.2364171E-1,2.1991946E-1,7.9949826E-1,-6.665301E-1,-1.0653175E0,-1.0681161E-2,-6.734553E-1,5.3698605E-1,6.9962904E-2,1.026535E0,4.0193185E-1,-9.3239194E-1,-4.138896E-1,-1.084286E0,-1.746017E-1,3.670185E-1,-2.0827337E-1,-7.6467234E-1,1.75403E-1,7.547427E-1,-1.5436853E-1,2.4907717E-2,9.979143E-1,1.0798746E0,2.9090062E-1,-8.45002E-1,5.3910017E-1,-9.723833E-1,-9.369934E-2,7.332936E-2,-5.4961056E-1,-1.1083797E0,-6.7350996E-1,6.5025485E-1,-3.7315887E-1,-6.445953E-1,2.749711E-1,-8.4437686E-1,1.9106132E-1,-9.974456E-2,8.0988055E-1,-3.7953013E-1,7.170009E-1,-3.2369274E-1,1.2538515E-1,4.5510218E-1,1.2080165E0,-1.6226317E-1,1.0964378E0,-2.138075E-1,6.371146E-1,-1.3863504E0,-4.1064464E-2,6.7917395E-1,-2.7571234E-1,-9.968213E-1,1.8844295E-1,-8.311515E-1,1.0342743E0,7.6930463E-1,-7.2867846E-1,-7.224689E-1,-7.0033595E-2,-9.394495E-1,3.8532493E-1,8.426934E-1,-5.6503516E-1,-5.7850295E-1,5.3996135E-2,3.4013164E-1,-7.472442E-1,-8.952354E-1,4.9951667E-1,-9.2847747E-1,5.4972608E-2,-7.7838594E-1,3.8217628E-1,9.470188E-1,3.6288974E-1,-1.4383252E-1,-9.4387424E-1,9.9197E-1,2.522486E-2,-5.5924594E-1,7.0356555E-2,4.3676367E-1,-2.1405768E-1,9.062556E-1,-2.566677E-1,4.053559E-1,1.1058816E0,3.230095E-1,-6.071041E-1,9.4771373E-1,-1.1810581E-1,-4.2865437E-1,-1.6199882E0,3.9963138E-1,-3.9837247E-1,-7.168129E-1,7.6312983E-1,-9.8837584E-1,3.6831394E-1],"categories":[],"categories_nodes":[],"categories_segments":[],"categories_sizes":[],"default_left":[true,true,true,true,true,true,true,true,true,true,true,true,true,true,true,true,true,true,false,true,true,true,false,true,true,true,true,true,true,true,true,true,true,true,true,false,true,true,true,true,true,true,false,true,true,true,true,true,true,true,false,false,true,true,true,true,true,true,true,false,false,false,false,false,false,false,false,false,false,false,false,false,false,false,false,false,false,false,false,false,false,false,false,false,false,false,false,false,false,false,false,false,false,false,false,false,false,false,false,false,false,false,false,false,false,false,false],"id":5,"left_children":[1,3,5,7,9,11,13,15,17,19,21,23,25,27,29,31,33,35,-1,37,39,41,-1,43,45,47,49,51,53,55,57,59,61,63,65,-1,67,69,71,73,75,77,-1,79,81,83,85,87,89,91,-1,-1,93,95,97,99,101,103,105,-1,-1,-1,-1,-1,-1,-1,-1,-1,-1,-1,-1,-1,-1,-1,-1,-1,-1,-1,-1,-1,-1,-1,-1,-1,-1,-1,-1,-1,-1,-1,-1,-1,-1,-1,-1,-1,-1,-1,-1,-1,-1,-1,-1,-1,-1,-1,-1],"loss_changes":[2.3565349E2,1.4855698E1,4.0363E1,7.6497345E0,5.4328475E0,1.5490256E1,1.6874031E1,1.0111229E1,1.132637E0,3.028704E0,1.5457897E0,1.5880753E1,9.293153E0,4.4438553E0,1.2643403E1,2.4361877E0,5.458143E0,9.82666E-3,0E0,3.1669734E0,5.7878566E0,1.4295845E0,0E0,3.8405876E0,5.3559904E0,7.5214124E0,6.242714E-1,2.4963837E0,1.8078454E0,3.1859546E0,7.583832E0,2.2251053E0,4.6328545E0,1.1016927E1,5.271456E0,0E0,2.2719195E0,2.920802E0,4.2558336E-1,1.6978679E0,3.9490013E0,1.2273235E0,0E0,2.1706955E0,4.258316E0,2.6901286E0,1.052908E0,4.500732E0,1.7692928E1,1.670295E0,0E0,0E0,2.783661E-1,1.1759592E0,1.5018721E0,2.9510212E-1,7.936187E-1,7.06205E0,5.053726E0,0E0,0E0,0E0,0E0,0E0,0E0,0E0,0E0,0E0,0E0,0E0,0E0,0E0,0E0,0E0,0E0,0E0,0E0,0E0,0E0,0E0,0E0,0E0,0E0,0E0,0E0,0E0,0E0,0E0,0E0,0E0,0E0,0E0,0E0,0E0,0E0,0E0,0E0,0E0,0E0,0E0,0E0,0E0,0E0,0E0,0E0,0E0,0E0],"parents":[2147483647,0,0,1,1,2,2,3,3,4,4,5,5,6,6,7,7,8,8,9,9,10,10,11,11,12,12,13,13,14,14,15,15,16,16,17,17,19,19,20,20,21,21,23,23,24,24,25,25,26,26,27,27,28,28,29,29,30,30,31,31,32,32,33,33,34,34,36,36,37,37,38,38,39,39,40,40,41,41,43,43,44,44,45,45,46,46,47,47,48,48,49,49,52,52,53,53,54,54,55,55,56,56,57,57,58,58],"right_children":[2,4,6,8,10,12,14,16,18,20,22,24,26,28,30,32,34,36,-1,38,40,42,-1,44,46,48,50,52,54,56,58,60,62,64,66,-1,68,70,72,74,76,78,-1,80,82,84,86,88,90,92,-1,-1,94,96,98,100,102,104,106,-1,-1,-1,-1,-1,-1,-1,-1,-1,-1,-1,-1,-1,-1,-1,-1,-1,-1,-1,-1,-1,-1,-1,-1,-1,-1,-1,-1,-1,-1,-1,-1,-1,-1,-1,-1,-1,-1,-1,-1,-1,-1,-1,-1,-1,-1,-1,-1],"split_conditions":[-2.8137583E-1,2.8376678E-1,-2.2353825E-1,-2.2816466E-1,-1.8528429E-1,3.095804E-1,3.5000283E-1,-6.82003E-1,-3.058409E-1,3.3316016E-1,2.3436484E0,2.9927595E0,2.145583E0,3.0483687E0,-6.6694784E-1,4.608812E-2,2.674736E-1,3.651613E-1,-5.2380513E-2,-2.2997893E-1,3.5673994E-1,2.3045068E0,5.2620903E-2,-3.6564392E-1,5.41252E-1,-6.796432E-2,-3.2214975E-1,-2.5908554E-1,-1.6072972E-1,-2.3307276E-1,3.685298E-1,3.0669053E0,-2.4351257E-1,2.9944446E0,-1.9159053E-1,-3.3251393E-1,3.5601333E-3,2.3634548E0,-2.5557923E-1,3.62993E-1,-2.5254506E-1,-3.3272037E-1,5.7318397E-2,6.0849838E-2,2.893691E-1,3.0685904E0,-3.3236963E-1,-7.27512E-2,3.9246482E-1,-3.0646294E-1,3.6240497E-1,-4.8678953E-2,-3.0852002E-1,-2.812043E-1,6.420117E-1,-9.046265E-1,-1.7447202E-1,-2.259871E-1,2.4351525E0,-2.990464E-1,5.6532886E-2,-2.4934545E-1,3.1028232E-1,2.307914E-1,-2.1860355E-1,-2.1674068E-1,-2.1010078E-2,-2.8183487E-1,1.1559748E-1,2.5280803E-1,-1.6951056E-1,-1.7355089E-1,1.6198842E-2,1.0203949E-1,-2.2417326E-1,-2.6857063E-1,1.49855E-1,-2.7854326E-1,1.6491784E-2,-2.3351578E-1,1.1465289E-1,2.8410566E-1,1.0886692E-1,-4.3149758E-2,-2.831623E-1,2.97591E-1,7.5674583E-3,-1.6777378E-1,2.1106968E-2,1.3102911E-1,-6.421731E-2,2.718767E-1,-7.700031E-2,1.21606775E-1,3.317645E-1,9.6902855E-2,-1.8213125E-1,2.8431413E-1,-3.5431743E-2,-1.2859632E-1,-4.8599648E-1,1.19889416E-1,-1.19511746E-1,-2.1504389E-1,2.2893895E-1,-2.9651275E-1,1.1049419E-1],"split_indices":[2,4,3,3,0,5,5,2,2,5,4,1,4,1,4,4,5,5,0,3,5,0,0,6,4,2,0,2,3,0,5,1,3,1,4,0,0,4,0,4,3,2,0,2,5,1,6,4,2,6,0,0,0,0,2,4,0,2,2,0,0,0,0,0,0,0,0,0,0,0,0,0,0,0,0,0,0,0,0,0,0,0,0,0,0,0,0,0,0,0,0,0,0,0,0,0,0,0,0,0,0,0,0,0,0,0,0],"split_type":[0,0,0,0,0,0,0,0,0,0,0,0,0,0,0,0,0,0,0,0,0,0,0,0,0,0,0,0,0,0,0,0,0,0,0,0,0,0,0,0,0,0,0,0,0,0,0,0,0,0,0,0,0,0,0,0,0,0,0,0,0,0,0,0,0,0,0,0,0,0,0,0,0,0,0,0,0,0,0,0,0,0,0,0,0,0,0,0,0,0,0,0,0,0,0,0,0,0,0,0,0,0,0,0,0,0,0],"sum_hessian":[8.044153E2,2.883158E2,5.160995E2,2.3252599E2,5.578981E1,3.2558383E2,1.9051564E2,1.552831E2,7.72429E1,3.85584E1,1.7231413E1,1.0371306E2,2.2187077E2,1.2025819E2,7.0257454E1,7.435076E1,8.093233E1,7.5419464E1,1.823432E0,1.2948928E1,2.5609472E1,1.56489725E1,1.5824397E0,7.880126E1,2.4911798E1,2.1257632E2,9.294458E0,1.11691666E2,8.5665245E0,6.451304E0,6.3806152E1,7.08147E1,3.5360603E0,1.7733017E1,6.3199314E1,6.963672E1,5.782744E0,9.453094E0,3.495834E0,1.3282657E1,1.2326815E1,1.4551913E1,1.097059E0,4.7275853E0,7.407368E1,2.0244953E1,4.666845E0,4.706513E1,1.655112E2,3.4771423E0,5.817316E0,1.3539834E0,1.1033768E2,3.6410582E0,4.925466E0,3.4223452E0,3.028959E0,5.4588375E1,9.217776E0,6.9493E1,1.3217006E0,2.2972798E0,1.2387804E0,9.515943E0,8.217074E0,4.6082794E1,1.7116522E1,4.7120147E0,1.0707295E0,8.425522E0,1.0275724E0,2.1216083E0,1.374226E0,1.0354899E0,1.2247167E1,1.5036663E0,1.0823149E1,1.3277875E1,1.2740381E0,1.7076697E0,3.0199158E0,5.5827095E1,1.8246582E1,1.516583E1,5.079123E0,3.028945E0,1.6379E0,2.9194265E1,1.7870861E1,8.61746E1,7.93366E1,1.9609542E0,1.5161881E0,2.0795846E0,1.08258095E2,1.6151822E0,2.025876E0,3.30949E0,1.6159762E0,1.2270963E0,2.1952488E0,1.3031865E0,1.7257724E0,2.6691294E0,5.1919247E1,4.121901E0,5.0958757E0],"tree_param":{"num_deleted":"0","num_feature":"8","num_nodes":"107","size_leaf_vector":"0"}},{"base_weights":[2.3508016E-2,-6.140824E-1,3.457209E-1,-7.2496307E-1,-2.0146434E-1,1.6579105E-1,6.992422E-1,-5.7894164E-1,-1.0321401E0,-1.2103518E-1,-9.4203794E-1,3.335387E-2,4.0487483E-1,8.3861625E-1,-4.398039E-2,-8.41906E-1,-3.4000582E-1,-1.0614816E0,-5.8943516E-1,1.378132E-1,-2.798735E-1,-1.1423841E-1,3.0804062E-1,7.9029655E-1,1.417331E-1,7.712182E-2,9.8198324E-1,-6.901418E-1,5.518608E-1,-8.8524795E-1,-7.209229E-2,-4.4359455E-1,1.7972104E-1,-8.7383455E-1,3.0797595E-1,-1.0498213E-1,1.0047171E0,-3.4843227E-1,6.8900967E-1,-2.5260776E-1,4.232592E-1,1.0777912E0,-1.8235812E-1,9.0739024E-1,-3.0419025E-1,9.993232E-4,8.6504877E-1,-3.0907765E-1,6.339783E-1,1.0259999E0,-2.6653713E-1,8.5573755E-3,-9.1369104E-1,-3.5780516E-1,7.6432574E-1,-3.4221706E-1,-9.7550464E-1,-7.5761664E-1,7.8227013E-1,-4.9470478E-1,4.5240986E-1,8.1274515E-1,-2.866429E-1,5.4996234E-1,-4.4181383E-1,1.2811353E0,7.108223E-2,-7.773278E-1,-1.7361511E-1,-3.7017533E-1,1.4546205E-1,-6.563083E-1,5.563058E-1,4.2918512E-1,1.2923864E0,-9.045347E-1,1.143739E-1,9.452863E-1,-2.1771935E-1,4.079256E-1,-1.0409707E0,2.0601189E-1,-8.296287E-1,5.0203204E-2,9.45322E-1,8.622129E-1,-5.5529124E-1,8.515286E-1,-4.888739E-1,4.2055044E-1,1.0500396E0,-1.2329518E0,4.8211873E-1,4.8686475E-1,-5.5934405E-1,-1.0470386E0,-3.6339527E-1,2.8315565E-1,-8.6959887E-1,9.1069186E-1,-1.7179544E-1],"categories":[],"categories_nodes":[],"categories_segments":[],"categories_sizes":[],"default_left":[true,true,true,true,true,true,true,true,true,true,false,true,true,true,true,true,true,false,true,true,true,true,true,true,true,true,true,true,true,true,true,true,true,false,false,true,true,true,false,true,true,true,true,true,true,true,true,true,true,true,true,true,true,true,true,false,false,false,false,false,false,false,false,false,false,false,false,false,false,false,false,false,false,false,false,false,false,false,false,false,false,false,false,false,false,false,false,false,false,false,false,false,false,false,false,false,false,false,false,false,false],"id":6,"left_children":[1,3,5,7,9,11,13,15,17,19,-1,21,23,25,27,29,31,-1,33,35,37,39,41,43,45,47,49,51,53,55,57,59,61,-1,-1,63,65,67,-1,69,71,73,75,77,79,81,83,85,87,89,91,93,95,97,99,-1,-1,-1,-1,-1,-1,-1,-1,-1,-1,-1,-1,-1,-1,-1,-1,-1,-1,-1,-1,-1,-1,-1,-1,-1,-1,-1,-1,-1,-1,-1,-1,-1,-1,-1,-1,-1,-1,-1,-1,-1,-1,-1,-1,-1,-1],"loss_changes":[1.4671887E2,1.0823524E1,3.0058353E1,7.8618393E0,2.9933455E0,9.982035E0,1.6578697E1,7.8886223E0,1.470604E-1,2.0205412E0,0E0,8.315332E0,1.1291851E1,1.461068E1,1.0455667E1,1.9801979E0,3.8400679E0,0E0,1.7867754E0,4.1049576E0,2.246375E0,1.0041949E1,2.7245016E1,6.0946693E0,6.925166E0,5.013096E0,6.4903183E0,2.0380359E0,3.0120687E0,2.504364E0,3.1427255E0,2.904026E0,3.8698733E0,0E0,0E0,3.7174456E0,1.0062776E0,2.0298135E0,0E0,5.0549684E0,4.346915E0,3.3467216E0,9.666226E0,1.9652481E0,3.1198092E0,1.0040568E1,6.773424E-1,4.486974E0,2.7370892E0,1.1518478E0,3.9560013E0,1.3972597E0,3.4279823E-1,1.3497635E0,1.7740116E0,0E0,0E0,0E0,0E0,0E0,0E0,0E0,0E0,0E0,0E0,0E0,0E0,0E0,0E0,0E0,0E0,0E0,0E0,0E0,0E0,0E0,0E0,0E0,0E0,0E0,0E0,0E0,0E0,0E0,0E0,0E0,0E0,0E0,0E0,0E0,0E0,0E0,0E0,0E0,0E0,0E0,0E0,0E0,0E0,0E0,0E0],"parents":[2147483647,0,0,1,1,2,2,3,3,4,4,5,5,6,6,7,7,8,8,9,9,11,11,12,12,13,13,14,14,15,15,16,16,18,18,19,19,20,20,21,21,22,22,23,23,24,24,25,25,26,26,27,27,28,28,29,29,30,30,31,31,32,32,35,35,36,36,37,37,39,39,40,40,41,41,42,42,43,43,44,44,45,45,46,46,47,47,48,48,49,49,50,50,51,51,52,52,53,53,54,54],"right_children":[2,4,6,8,10,12,14,16,18,20,-1,22,24,26,28,30,32,-1,34,36,38,40,42,44,46,48,50,52,54,56,58,60,62,-1,-1,64,66,68,-1,70,72,74,76,78,80,82,84,86,88,90,92,94,96,98,100,-1,-1,-1,-1,-1,-1,-1,-1,-1,-1,-1,-1,-1,-1,-1,-1,-1,-1,-1,-1,-1,-1,-1,-1,-1,-1,-1,-1,-1,-1,-1,-1,-1,-1,-1,-1,-1,-1,-1,-1,-1,-1,-1,-1,-1,-1],"split_conditions":[-3.043785E-1,2.8376678E-1,-2.2295941E-1,-2.2816466E-1,3.187824E-1,4.608812E-2,6.497882E-1,-6.82003E-1,3.651613E-1,-3.078717E-1,-2.826114E-1,-2.7206406E-1,3.3989722E-1,-9.983813E-2,2.5790496E0,4.608812E-2,1.1113085E0,-3.184445E-1,3.5601333E-3,-2.3530945E-1,3.1511965E-1,1.1113085E0,-2.199581E-1,3.0601647E0,-7.834121E-2,1.2531434E-1,3.6684555E-1,3.4663433E-1,-2.908207E-1,2.3126179E-1,-2.4351257E-1,3.651613E-1,-2.5056666E-1,-2.6215038E-1,9.239279E-2,3.247388E-1,-3.0312562E-1,-2.9990476E-1,2.067029E-1,-2.401648E-1,-3.3659524E-1,-2.2912721E-1,-2.9944038E-1,3.7335992E0,-3.3250824E-1,-2.6498693E-1,1.2531434E-1,-2.1663536E-1,1.1634733E-1,-3.2219297E-1,-1.4193466E-1,-2.5741103E-1,3.2337987E-1,3.6684555E-1,3.0719607E0,-1.0266512E-1,-2.926514E-1,-2.27285E-1,2.3468105E-1,-1.4841144E-1,1.3572297E-1,2.4382356E-1,-8.599287E-2,1.6498871E-1,-1.3254416E-1,3.843406E-1,2.1324668E-2,-2.3319834E-1,-5.2084535E-2,-1.110526E-1,4.3638617E-2,-1.968925E-1,1.6689175E-1,1.2875554E-1,3.8771594E-1,-2.7136043E-1,3.431217E-2,2.835859E-1,-6.5315805E-2,1.22377686E-1,-3.122912E-1,6.180357E-2,-2.4888863E-1,1.5060962E-2,2.835966E-1,2.586639E-1,-1.6658738E-1,2.554586E-1,-1.4666218E-1,1.2616514E-1,3.1501192E-1,-3.6988553E-1,1.4463562E-1,1.4605942E-1,-1.6780323E-1,-3.141116E-1,-1.0901859E-1,8.49467E-2,-2.6087967E-1,2.7320758E-1,-5.1538635E-2],"split_indices":[2,4,3,3,6,4,2,2,5,0,0,6,5,2,2,4,7,0,0,3,0,7,6,1,0,4,5,5,0,5,3,5,3,0,0,5,6,6,0,3,0,6,0,2,6,0,4,3,0,6,3,6,4,5,1,0,0,0,0,0,0,0,0,0,0,0,0,0,0,0,0,0,0,0,0,0,0,0,0,0,0,0,0,0,0,0,0,0,0,0,0,0,0,0,0,0,0,0,0,0,0],"split_type":[0,0,0,0,0,0,0,0,0,0,0,0,0,0,0,0,0,0,0,0,0,0,0,0,0,0,0,0,0,0,0,0,0,0,0,0,0,0,0,0,0,0,0,0,0,0,0,0,0,0,0,0,0,0,0,0,0,0,0,0,0,0,0,0,0,0,0,0,0,0,0,0,0,0,0,0,0,0,0,0,0,0,0,0,0,0,0,0,0,0,0,0,0,0,0,0,0,0,0,0,0],"sum_hessian":[7.1213617E2,2.3876514E2,4.73371E2,1.8759637E2,5.1168762E1,3.1467932E2,1.586917E2,1.291077E2,5.848867E1,4.7205498E1,3.9632657E0,2.0323796E2,1.1144136E2,1.3352402E2,2.5167673E1,6.0261955E1,6.884575E1,5.3542286E1,4.9463844E0,1.800169E1,2.9203806E1,1.3258348E2,7.065448E1,4.4402317E1,6.703905E1,2.1399328E1,1.1212469E2,1.1998072E1,1.3169601E1,5.6907978E1,3.3539777E0,5.7526424E1,1.1319323E1,3.7760003E0,1.170384E0,1.4749634E1,3.2520564E0,2.7871946E1,1.3318594E0,1.0586136E2,2.6722122E1,2.7029713E1,4.3624767E1,4.0265457E1,4.136858E0,5.695821E1,1.0080838E1,1.2898634E1,8.500695E0,1.084785E2,3.6461878E0,3.1414008E0,8.85667E0,2.3640187E0,1.0805583E1,8.793478E0,4.8114502E1,1.9236858E0,1.4302919E0,5.4845768E1,2.6806567E0,4.4866257E0,6.8326964E0,4.794442E0,9.955192E0,2.2219958E0,1.0300603E0,7.0728745E0,2.0799072E1,8.17786E1,2.4082752E1,2.5004053E0,2.4221718E1,7.465498E0,1.9564215E1,1.2108115E1,3.1516653E1,3.9108047E1,1.1574118E0,2.3306088E0,1.8062489E0,4.6286037E1,1.067217E1,1.0498021E0,9.031036E0,1.8058639E0,1.109277E1,7.323433E0,1.1772621E0,4.848979E0,1.03629524E2,1.309243E0,2.3369446E0,1.7826679E0,1.358733E0,6.4025283E0,2.4541423E0,1.2479048E0,1.1161139E0,9.368022E0,1.4375616E0],"tree_param":{"num_deleted":"0","num_feature":"8","num_nodes":"101","size_leaf_vector":"0"}},{"base_weights":[2.0511057E-2,-4.1992927E-1,3.5294005E-1,-6.922119E-1,-2.289889E-1,5.461759E-1,6.4213574E-3,-7.8401256E-1,-1.107382E-1,-1.1016201E-1,-5.801767E-1,3.376979E-1,9.087721E-1,-1.5770987E-1,3.3292446E-1,-4.9693057E-1,-8.897265E-1,2.331896E-1,-4.3955594E-1,2.8444335E-1,-2.294883E-1,-6.7205596E-1,2.5126764E-1,4.9689978E-1,-2.505751E-2,9.5201564E-1,-3.1560248E-1,-3.5963133E-1,1.733348E-1,7.467172E-1,1.8869641E-1,3.4054577E-1,-6.3483435E-1,-9.665577E-1,-4.918936E-1,-5.794067E-1,5.022089E-1,-8.042651E-1,4.1524592E-1,6.812604E-1,-3.7494668E-1,-4.9765053E-1,6.92756E-2,-8.6912346E-1,-2.2984749E-1,-4.23074E-1,7.1603334E-1,5.857169E-1,-1.1344537E-1,-1.4269564E-1,5.882494E-1,2.7193248E-1,9.9322844E-1,-8.650161E-1,5.632902E-1,-4.423754E-3,-7.811903E-1,9.460722E-1,1.7078264E-2,1.7174223E-1,1.1747386E0,-6.6266483E-1,3.114684E-1,1.4740146E0,-7.559033E-1,-8.561322E-1,1.05806865E-1,-9.9704E-1,3.5629176E-2,3.0020854E-1,-9.235354E-1,2.1610557E-1,9.4407386E-1,-1.2023943E-1,-9.698388E-1,-1.5158962E-1,7.823719E-1,-4.1659695E-1,1.0079726E0,3.6994025E-1,-6.2007993E-1,-6.4907706E-1,2.8108472E-1,3.2218847E-1,-2.633233E-1,-9.780104E-1,1.5922906E-1,-6.924185E-1,1.24856144E-1,3.24009E-1,7.9754984E-1,-7.4584883E-1,2.0649122E-1,-4.1235954E-1,1.6798441E-1,-4.0401813E-1,9.59914E-1,7.2758776E-1,-3.85821E-1,1.9825768E-1,1.0042484E0,-5.571457E-1,5.818161E-1,1.0836627E-1,-8.9999264E-1,1.2586417E0,2.402583E-1,-5.930384E-1,2.4247116E-1,5.614188E-1,-6.798618E-1,2.3401814E-2,-9.285914E-1,5.956012E-2,5.9469223E-1],"categories":[],"categories_nodes":[],"categories_segments":[],"categories_sizes":[],"default_left":[true,true,true,true,true,true,true,true,true,true,true,true,true,true,true,true,true,true,true,true,true,true,true,true,true,true,true,true,true,true,true,true,true,true,true,false,true,true,true,true,true,true,true,true,true,false,false,true,true,true,true,true,true,false,false,true,true,true,true,true,false,true,true,false,false,false,false,false,false,false,false,false,false,false,false,false,false,false,false,false,false,false,false,false,false,false,false,false,false,false,false,false,false,false,false,false,false,false,false,false,false,false,false,false,false,false,false,false,false,false,false,false,false,false,false],"id":7,"left_children":[1,3,5,7,9,11,13,15,17,19,21,23,25,27,29,31,33,35,37,39,41,43,45,47,49,51,53,55,57,59,61,63,65,67,69,-1,71,73,75,77,79,81,83,85,87,-1,-1,89,91,93,95,97,99,-1,-1,101,103,105,107,109,-1,111,113,-1,-1,-1,-1,-1,-1,-1,-1,-1,-1,-1,-1,-1,-1,-1,-1,-1,-1,-1,-1,-1,-1,-1,-1,-1,-1,-1,-1,-1,-1,-1,-1,-1,-1,-1,-1,-1,-1,-1,-1,-1,-1,-1,-1,-1,-1,-1,-1,-1,-1,-1,-1],"loss_changes":[9.405348E1,1.4207397E1,2.4506557E1,5.9667206E0,6.776409E0,1.7456337E1,7.1293664E0,2.5252953E0,1.9828678E0,5.8903923E0,3.3167095E0,8.720863E0,4.8110886E0,5.982055E0,2.5147824E0,3.5169668E0,1.6702156E0,2.2103865E0,3.0920472E0,7.887968E0,7.6888914E0,3.0575294E0,1.8161653E0,5.7500877E0,3.4709275E0,2.0432205E0,2.2532706E0,8.282063E0,4.1165304E0,2.5454926E0,3.7952392E0,6.94499E0,4.169895E0,1.8012238E0,4.858368E0,0E0,6.9761753E-1,6.2427616E-1,8.064304E-1,7.0791626E0,2.3482728E0,6.1340313E0,3.960129E0,3.010622E0,2.2000604E0,0E0,0E0,4.824724E0,3.0183406E0,3.4367166E0,3.2461379E0,2.106797E0,4.7933197E-1,0E0,0E0,1.0380391E1,2.770976E0,9.636059E-1,4.1988645E0,2.351211E0,0E0,8.695607E-1,2.1540747E0,0E0,0E0,0E0,0E0,0E0,0E0,0E0,0E0,0E0,0E0,0E0,0E0,0E0,0E0,0E0,0E0,0E0,0E0,0E0,0E0,0E0,0E0,0E0,0E0,0E0,0E0,0E0,0E0,0E0,0E0,0E0,0E0,0E0,0E0,0E0,0E0,0E0,0E0,0E0,0E0,0E0,0E0,0E0,0E0,0E0,0E0,0E0,0E0,0E0,0E0,0E0,0E0],"parents":[2147483647,0,0,1,1,2,2,3,3,4,4,5,5,6,6,7,7,8,8,9,9,10,10,11,11,12,12,13,13,14,14,15,15,16,16,17,17,18,18,19,19,20,20,21,21,22,22,23,23,24,24,25,25,26,26,27,27,28,28,29,29,30,30,31,31,32,32,33,33,34,34,36,36,37,37,38,38,39,39,40,40,41,41,42,42,43,43,44,44,47,47,48,48,49,49,50,50,51,51,52,52,55,55,56,56,57,57,58,58,59,59,61,61,62,62],"right_children":[2,4,6,8,10,12,14,16,18,20,22,24,26,28,30,32,34,36,38,40,42,44,46,48,50,52,54,56,58,60,62,64,66,68,70,-1,72,74,76,78,80,82,84,86,88,-1,-1,90,92,94,96,98,100,-1,-1,102,104,106,108,110,-1,112,114,-1,-1,-1,-1,-1,-1,-1,-1,-1,-1,-1,-1,-1,-1,-1,-1,-1,-1,-1,-1,-1,-1,-1,-1,-1,-1,-1,-1,-1,-1,-1,-1,-1,-1,-1,-1,-1,-1,-1,-1,-1,-1,-1,-1,-1,-1,-1,-1,-1,-1,-1,-1],"split_conditions":[-1.6127023E-1,-5.7074034E-1,3.9400357E-1,7.591241E-1,-1.5094598E-1,-2.2326611E-1,2.8376678E-1,-2.5144356E-1,-2.3410511E-1,2.7252644E-1,1.3137076E0,3.5505566E-1,3.6684555E-1,2.5959125E0,-3.256395E-1,-1.0234659E0,4.608812E-2,-2.523809E-1,-4.328499E-2,3.0062404E0,-1.9159053E-1,-2.778315E-1,-9.039825E-2,2.9809635E0,1.1113085E0,-9.983813E-2,2.4415368E-1,9.6667105E-1,-8.254003E-1,-3.3250904E-1,-3.1911784E-1,-2.5523627E-1,-2.531628E-1,3.0669053E0,-3.1250197E-1,-1.7382202E-1,-2.6680648E-1,-1.9205314E-1,3.6179274E-1,-9.8385274E-1,-2.5086904E-1,1.1113085E0,-3.055827E-1,1.1113085E0,-8.164893E-2,-1.269222E-1,2.1481001E-1,-3.185135E-1,3.0340452E0,2.7556332E-2,-2.4980207E-1,-1.1825564E-1,-3.3333707E-1,-2.5950485E-1,1.6898707E-1,3.9495462E-1,-3.345757E-1,2.9452567E0,2.7958322E0,-2.520483E-1,3.524216E-1,-3.246114E-1,-2.2714089E-1,4.4220442E-1,-2.26771E-1,-2.5683966E-1,3.1742062E-2,-2.99112E-1,1.0688753E-2,9.0062566E-2,-2.7706063E-1,6.4831674E-2,2.8322217E-1,-3.607183E-2,-2.9095164E-1,-4.5476887E-2,2.3471157E-1,-1.24979086E-1,3.023918E-1,1.1098208E-1,-1.8602398E-1,-1.9472313E-1,8.432542E-2,9.6656546E-2,-7.899699E-2,-2.9340315E-1,4.776872E-2,-2.0772557E-1,3.7456844E-2,9.72027E-2,2.3926497E-1,-2.2375466E-1,6.1947368E-2,-1.2370787E-1,5.0395325E-2,-1.2120544E-1,2.879742E-1,2.1827634E-1,-1.1574631E-1,5.9477307E-2,3.0127454E-1,-1.6714372E-1,1.7454483E-1,3.2509882E-2,-2.699978E-1,3.7759253E-1,7.20775E-2,-1.7791152E-1,7.274135E-2,1.6842563E-1,-2.0395854E-1,7.0205443E-3,-2.7857742E-1,1.7868036E-2,1.7840767E-1],"split_indices":[2,2,2,4,6,3,4,3,6,5,4,5,5,2,0,4,4,3,0,1,4,2,6,1,7,2,4,2,4,0,0,3,3,1,0,0,6,6,5,4,3,7,0,7,0,0,0,0,1,2,3,2,6,0,0,2,0,2,2,3,0,0,3,0,0,0,0,0,0,0,0,0,0,0,0,0,0,0,0,0,0,0,0,0,0,0,0,0,0,0,0,0,0,0,0,0,0,0,0,0,0,0,0,0,0,0,0,0,0,0,0,0,0,0,0],"split_type":[0,0,0,0,0,0,0,0,0,0,0,0,0,0,0,0,0,0,0,0,0,0,0,0,0,0,0,0,0,0,0,0,0,0,0,0,0,0,0,0,0,0,0,0,0,0,0,0,0,0,0,0,0,0,0,0,0,0,0,0,0,0,0,0,0,0,0,0,0,0,0,0,0,0,0,0,0,0,0,0,0,0,0,0,0,0,0,0,0,0,0,0,0,0,0,0,0,0,0,0,0,0,0,0,0,0,0,0,0,0,0,0,0,0,0],"sum_hessian":[6.403631E2,2.753218E2,3.6504132E2,1.124054E2,1.629164E2,2.3398412E2,1.310572E2,9.677815E1,1.5627246E1,1.2271021E2,4.0206184E1,1.4979147E2,8.419264E1,8.755885E1,4.3498356E1,2.7580343E1,6.9197815E1,7.780273E0,7.8469734E0,2.8169964E1,9.4540245E1,3.6377922E1,3.828264E0,1.03846664E2,4.5944813E1,8.1535355E1,2.657289E0,5.433235E1,3.3226498E1,1.0163052E1,3.3335304E1,3.69168E0,2.3888664E1,5.6798996E1,1.2398815E1,1.6481419E0,6.132131E0,5.5416837E0,2.3052897E0,1.7565802E1,1.0604163E1,4.9470867E1,4.506938E1,2.449601E1,1.188191E1,1.5985653E0,2.2296987E0,9.068987E1,1.3156792E1,3.9194305E1,6.750508E0,5.0928397E0,7.644251E1,1.6448491E0,1.0124398E0,3.0035114E1,2.429724E1,4.7385044E0,2.8487993E1,4.9349804E0,5.228071E0,3.6470869E0,2.968822E1,1.6458782E0,2.0458016E0,1.827292E1,5.615742E0,5.5127388E1,1.6716068E0,4.4807415E0,7.918074E0,4.62595E0,1.5061815E0,1.4163973E0,4.125286E0,1.1369506E0,1.168339E0,3.9654624E0,1.3600339E1,2.4995713E0,8.104592E0,4.1556602E1,7.9142623E0,2.5619362E1,1.9450022E1,2.2194864E1,2.3011463E0,4.743622E0,7.138289E0,4.1700615E1,4.8989254E1,3.9727688E0,9.184023E0,2.0806986E1,1.8387318E1,1.8157586E0,4.934749E0,2.945907E0,2.1469326E0,1.3048162E0,7.5137695E1,1.54850445E1,1.4550069E1,2.8729906E0,2.1424248E1,2.7412806E0,1.9972239E0,7.2450953E0,2.1242899E1,3.6195157E0,1.3154647E0,1.2735195E0,2.3735676E0,1.6353336E1,1.3334883E1],"tree_param":{"num_deleted":"0","num_feature":"8","num_nodes":"115","size_leaf_vector":"0"}},{"base_weights":[1.660459E-2,-3.461287E-1,2.8854978E-1,-6.1017233E-1,-1.7985299E-1,1.8014511E-1,8.2827914E-1,-7.583382E-1,-2.526127E-1,-8.3963506E-2,-4.828864E-1,4.8749584E-1,5.2557487E-2,9.6925384E-1,6.570965E-2,-4.1739547E-1,-9.124465E-1,9.2154786E-2,-4.8155466E-1,-8.393263E-1,-4.063536E-2,-5.674603E-1,1.9635917E-1,7.10998E-1,-1.1962591E-2,-1.7688382E-1,2.0395568E-1,1.0106566E0,1.11213155E-1,-6.1734E-1,6.361893E-1,2.5076246E-1,-5.642297E-1,-9.4947577E-1,2.8766546E-2,-5.263518E-1,4.737597E-1,-5.271236E-2,-8.0755615E-1,-3.703439E-1,-1.1203027E0,1.1219003E0,-6.949344E-2,-7.8098017E-1,-1.743286E-1,-3.3974466E-1,5.786358E-1,7.7503467E-1,-4.767729E-1,-1.4745936E-1,7.003403E-1,6.213185E-1,-3.317109E-1,2.9096046E-1,-2.8898403E-1,-2.2271611E-1,4.2759994E-1,-8.6272836E-1,1.6351879E-1,8.707985E-1,6.0497258E-2,1.000357E0,-6.938646E-1,-7.647922E-1,2.0914255E-1,-9.701394E-1,-1.06137075E-1,-7.888161E-1,-8.5485764E-2,7.3929673E-1,-6.648741E-1,-6.935683E-1,3.205505E-1,-9.3343115E-1,8.559045E-2,-6.8725663E-1,1.9247423E-1,-1.7812265E-1,2.834888E-1,-9.0150994E-1,1.2356427E-1,6.158124E-2,-6.819707E-1,1.8783922E-1,7.14809E-1,3.078621E-1,9.071905E-1,-1.2082896E0,3.4335428E-1,7.179973E-2,-7.058107E-1,1.6750968E-1,8.201328E-1,3.648403E-3,9.111639E-1,-9.340898E-1,-2.416426E-1,4.3991852E-1,-7.249846E-2,-8.716309E-1,6.1980414E-1,-2.5866574E-1,-9.90458E-1],"categories":[],"categories_nodes":[],"categories_segments":[],"categories_sizes":[],"default_left":[true,true,true,true,true,true,true,true,true,true,true,true,true,true,true,true,true,true,true,true,true,true,true,true,true,true,true,false,true,true,true,true,true,true,false,true,true,true,true,true,false,false,true,true,true,false,true,true,true,true,true,true,true,true,true,false,false,true,false,false,false,false,false,false,false,false,false,false,false,false,false,false,false,false,false,false,false,false,false,false,false,false,false,false,false,false,false,false,false,false,false,false,false,false,false,false,false,false,false,false,false,false,false],"id":8,"left_children":[1,3,5,7,9,11,13,15,17,19,21,23,25,27,29,31,33,35,37,39,41,43,45,47,49,51,53,-1,55,57,59,61,63,65,-1,67,69,71,73,75,-1,-1,77,79,81,-1,83,85,87,89,91,93,95,97,99,-1,-1,101,-1,-1,-1,-1,-1,-1,-1,-1,-1,-1,-1,-1,-1,-1,-1,-1,-1,-1,-1,-1,-1,-1,-1,-1,-1,-1,-1,-1,-1,-1,-1,-1,-1,-1,-1,-1,-1,-1,-1,-1,-1,-1,-1,-1,-1],"loss_changes":[5.7124626E1,1.0785154E1,1.9213604E1,4.866165E0,4.425164E0,1.08313265E1,5.856861E0,3.139408E0,2.3704586E0,3.826328E0,2.2214756E0,9.061251E0,6.871174E0,1.5362473E0,4.1590586E0,2.368523E0,1.606102E0,3.2231278E0,2.4557405E0,4.2159367E-1,3.8557131E0,2.6272707E0,1.1823359E0,4.632105E0,2.6178803E0,9.939267E0,5.1881585E0,0E0,4.39641E-1,1.0811809E0,7.2517467E-1,4.080215E0,3.0942626E0,6.5706253E-1,0E0,5.436573E-1,3.0065436E0,2.324384E0,1.2134252E0,8.229273E-1,0E0,0E0,4.299781E0,2.4059763E0,1.5837954E0,0E0,3.4837127E-2,3.0272255E0,2.5062342E0,2.8316755E0,1.395073E-1,2.3496346E0,3.3885002E0,5.5354214E0,1.0259664E1,0E0,0E0,4.4131756E-2,0E0,0E0,0E0,0E0,0E0,0E0,0E0,0E0,0E0,0E0,0E0,0E0,0E0,0E0,0E0,0E0,0E0,0E0,0E0,0E0,0E0,0E0,0E0,0E0,0E0,0E0,0E0,0E0,0E0,0E0,0E0,0E0,0E0,0E0,0E0,0E0,0E0,0E0,0E0,0E0,0E0,0E0,0E0,0E0,0E0],"parents":[2147483647,0,0,1,1,2,2,3,3,4,4,5,5,6,6,7,7,8,8,9,9,10,10,11,11,12,12,13,13,14,14,15,15,16,16,17,17,18,18,19,19,20,20,21,21,22,22,23,23,24,24,25,25,26,26,28,28,29,29,30,30,31,31,32,32,33,33,35,35,36,36,37,37,38,38,39,39,42,42,43,43,44,44,46,46,47,47,48,48,49,49,50,50,51,51,52,52,53,53,54,54,57,57],"right_children":[2,4,6,8,10,12,14,16,18,20,22,24,26,28,30,32,34,36,38,40,42,44,46,48,50,52,54,-1,56,58,60,62,64,66,-1,68,70,72,74,76,-1,-1,78,80,82,-1,84,86,88,90,92,94,96,98,100,-1,-1,102,-1,-1,-1,-1,-1,-1,-1,-1,-1,-1,-1,-1,-1,-1,-1,-1,-1,-1,-1,-1,-1,-1,-1,-1,-1,-1,-1,-1,-1,-1,-1,-1,-1,-1,-1,-1,-1,-1,-1,-1,-1,-1,-1,-1,-1],"split_conditions":[-1.6127023E-1,-5.7074034E-1,-1.6315308E-1,4.608812E-2,-1.5094598E-1,3.095804E-1,5.6754255E-1,-2.5144356E-1,-3.1250197E-1,-3.6559957E-1,1.3137076E0,2.960742E0,-3.5004297E-1,3.6684555E-1,2.260902E0,-1.0234659E0,3.0669053E0,-3.5634688E-1,-8.5970163E-1,-3.0086032E-1,-3.365063E-1,-2.778315E-1,-9.039825E-2,3.177122E0,9.9680275E-1,-9.8385274E-1,3.6684555E-1,3.03197E-1,2.1212004E-2,9.024523E-2,6.915596E-2,-2.5523627E-1,3.5673994E-1,4.2755747E-1,8.629965E-3,9.769962E-1,-1.6317788E-1,-2.9336855E-1,2.2050025E0,3.4579217E-1,-3.360908E-1,3.365701E-1,4.026061E-1,1.1113085E0,1.3661095E-1,-1.019234E-1,-6.532036E-2,-3.2919198E-1,-2.4877398E-1,3.0685904E0,2.9051142E-2,3.756462E-2,3.2810736E-1,7.1934783E-1,2.6577435E0,-6.681483E-2,1.2827998E-1,-1.3028443E-1,4.905564E-2,2.6123956E-1,1.8149178E-2,3.0010712E-1,-2.0815939E-1,-2.2943766E-1,6.274277E-2,-2.9104182E-1,-3.1841125E-2,-2.3664483E-1,-2.5645731E-2,2.2178903E-1,-1.9946223E-1,-2.080705E-1,9.616516E-2,-2.8002936E-1,2.5677137E-2,-2.06177E-1,5.774227E-2,-5.3436797E-2,8.504665E-2,-2.70453E-1,3.7069283E-2,1.8474372E-2,-2.0459123E-1,5.635177E-2,2.1444272E-1,9.2358634E-2,2.7215716E-1,-3.624869E-1,1.0300629E-1,2.1539921E-2,-2.1174322E-1,5.0252903E-2,2.4603985E-1,1.094521E-3,2.733492E-1,-2.8022695E-1,-7.249278E-2,1.3197556E-1,-2.174954E-2,-2.6148927E-1,1.8594125E-1,-7.759973E-2,-2.971374E-1],"split_indices":[2,2,3,4,6,5,2,3,0,6,4,1,4,5,2,4,1,6,2,2,0,2,6,2,4,4,5,0,3,3,6,3,5,0,0,4,6,6,4,5,0,0,4,7,6,0,3,0,3,1,2,2,5,2,2,0,0,3,0,0,0,0,0,0,0,0,0,0,0,0,0,0,0,0,0,0,0,0,0,0,0,0,0,0,0,0,0,0,0,0,0,0,0,0,0,0,0,0,0,0,0,0,0],"split_type":[0,0,0,0,0,0,0,0,0,0,0,0,0,0,0,0,0,0,0,0,0,0,0,0,0,0,0,0,0,0,0,0,0,0,0,0,0,0,0,0,0,0,0,0,0,0,0,0,0,0,0,0,0,0,0,0,0,0,0,0,0,0,0,0,0,0,0,0,0,0,0,0,0,0,0,0,0,0,0,0,0,0,0,0,0,0,0,0,0,0,0,0,0,0,0,0,0,0,0,0,0,0,0],"sum_hessian":[5.770888E2,2.4715245E2,3.2993634E2,9.446835E1,1.526841E2,2.7586304E2,5.407333E1,6.5998825E1,2.8469528E1,1.1695338E2,3.5730717E1,8.0095955E1,1.9576707E2,4.5407837E1,8.665493E0,2.1699724E1,4.4299095E1,1.159935E1,1.6870178E1,5.34797E0,1.1160541E2,3.1920784E1,3.8099332E0,5.5041813E1,2.5054144E1,7.775794E1,1.18009125E2,4.314797E1,2.2598674E0,3.9062724E0,4.7592206E0,3.7820418E0,1.7917683E1,4.2613804E1,1.6852936E0,4.281145E0,7.3182054E0,7.7875943E0,9.082584E0,2.8721223E0,2.4758477E0,1.7858713E0,1.09819534E2,2.0046473E1,1.1874311E1,1.6321998E0,2.1777334E0,5.2555843E1,2.485972E0,2.1716194E1,3.3379493E0,1.2142904E1,6.5615036E1,1.00653366E2,1.735576E1,1.2434921E0,1.0163754E0,2.892459E0,1.0138136E0,3.017074E0,1.7421467E0,2.075814E0,1.7062278E0,1.4236703E1,3.6809807E0,4.1447887E1,1.1659173E0,2.188817E0,2.092328E0,6.218683E0,1.0995224E0,2.5505042E0,5.23709E0,7.9211226E0,1.1614616E0,1.6960232E0,1.1760991E0,8.4354935E1,2.54646E1,1.7692339E1,2.354134E0,8.706804E0,3.1675067E0,1.1776032E0,1.00013E0,1.2323092E1,4.023275E1,1.0638077E0,1.4221643E0,1.6218685E1,5.4975104E0,1.0529256E0,2.2850237E0,4.2016463E0,7.941258E0,7.3158126E0,5.829923E1,7.124452E1,2.9408844E1,1.0600439E1,6.7553205E0,1.0328726E0,1.8595864E0],"tree_param":{"num_deleted":"0","num_feature":"8","num_nodes":"103","size_leaf_vector":"0"}},{"base_weights":[1.2238559E-2,-4.4386604E-1,1.6141032E-1,-5.268773E-1,2.5118545E-3,9.116359E-2,6.264084E-1,-6.296337E-1,2.917349E-2,7.5405926E-1,-1.2855786E-1,2.533816E-1,-4.837714E-2,-1.332675E-1,7.750362E-1,-3.7172598E-1,-7.7250594E-1,3.6273468E-1,-4.4710246E-1,-7.5398463E-1,2.1592613E-2,1.3675173E-1,6.452764E-1,-8.960399E-2,6.517135E-1,-4.464022E-1,6.0756075E-1,9.3289375E-1,4.6011005E-2,-8.1097794E-1,-7.661188E-2,-5.6695586E-1,-9.012401E-1,5.3330857E-1,-6.781139E-1,-7.125228E-1,2.4558052E-1,3.5999307E-1,-1.9048405E-1,6.212189E-2,7.6485157E-1,8.5855335E-1,-4.0428552E-1,-4.1672893E-2,-7.2356373E-1,-2.4741662E-1,8.4202623E-1,2.369222E-1,-7.597123E-1,7.29555E-1,1.8047304E-1,9.835561E-1,1.00500494E-1,-5.420163E-1,5.463325E-1,-1.1878731E-1,-9.049649E-1,6.272345E-1,-3.042123E-1,-6.823964E-1,5.289969E-1,-9.492715E-1,-2.8735068E-1,1.3282293E0,3.039097E-1,-8.6895204E-1,-1.7311677E-1,-2.4915342E-1,5.761898E-1,-4.1301727E-1,3.236392E-1,1.4448045E-1,-4.9573E-1,8.2554406E-1,1.23918116E-1,3.5707617E-1,9.387922E-1,-7.643356E-1,3.503634E-2,-2.9436687E-1,7.854458E-2,-9.582062E-1,-2.4674097E-1,6.539647E-2,9.779296E-1,-9.2167753E-1,-1.9395751E-1,3.9244375E-1,1.0060159E0,-2.1445294E-1,3.9184523E-1,-7.7977806E-1,1.5178083E-1,7.7089435E-1,4.9409512E-2],"categories":[],"categories_nodes":[],"categories_segments":[],"categories_sizes":[],"default_left":[true,true,true,true,true,true,true,true,true,false,true,true,true,true,true,true,true,true,true,false,true,true,true,true,true,true,true,true,true,true,true,true,true,true,false,true,false,true,true,true,true,true,true,true,true,false,true,false,true,false,false,true,true,true,true,false,false,false,false,false,false,false,false,false,false,false,false,false,false,false,false,false,false,false,false,false,false,false,false,false,false,false,false,false,false,false,false,false,false,false,false,false,false,false,false],"id":9,"left_children":[1,3,5,7,9,11,13,15,17,-1,19,21,23,25,27,29,31,33,35,-1,37,39,41,43,45,47,49,51,53,55,57,59,61,63,-1,65,-1,67,69,71,73,75,77,79,81,-1,83,-1,85,-1,-1,87,89,91,93,-1,-1,-1,-1,-1,-1,-1,-1,-1,-1,-1,-1,-1,-1,-1,-1,-1,-1,-1,-1,-1,-1,-1,-1,-1,-1,-1,-1,-1,-1,-1,-1,-1,-1,-1,-1,-1,-1,-1,-1],"loss_changes":[3.6304707E1,4.8744564E0,1.3075016E1,6.354702E0,2.2263484E0,7.944743E0,6.041498E0,3.163391E0,3.061902E0,0E0,1.8250821E0,7.3258686E0,5.519925E0,2.4655468E0,5.0360775E0,4.515077E0,1.0590706E0,2.3654895E0,1.6395243E0,0E0,1.2530545E0,5.8717055E0,8.614689E0,5.426674E0,2.0297337E0,1.7268724E0,3.6827922E-2,1.4288559E0,2.9166741E0,8.088541E-1,3.7510862E0,3.5929365E0,7.529774E-1,1.4667757E0,0E0,3.5714507E-1,0E0,1.0265231E0,1.3692907E0,5.3071375E0,4.1593122E-1,9.128189E-1,1.1209804E0,5.127253E0,1.169034E0,0E0,8.872266E-1,0E0,2.969544E-1,0E0,0E0,5.704117E-2,3.7694675E-1,8.7662494E-1,5.5451715E-1,0E0,0E0,0E0,0E0,0E0,0E0,0E0,0E0,0E0,0E0,0E0,0E0,0E0,0E0,0E0,0E0,0E0,0E0,0E0,0E0,0E0,0E0,0E0,0E0,0E0,0E0,0E0,0E0,0E0,0E0,0E0,0E0,0E0,0E0,0E0,0E0,0E0,0E0,0E0,0E0],"parents":[2147483647,0,0,1,1,2,2,3,3,4,4,5,5,6,6,7,7,8,8,10,10,11,11,12,12,13,13,14,14,15,15,16,16,17,17,18,18,20,20,21,21,22,22,23,23,24,24,25,25,26,26,27,27,28,28,29,29,30,30,31,31,32,32,33,33,35,35,37,37,38,38,39,39,40,40,41,41,42,42,43,43,44,44,46,46,48,48,51,51,52,52,53,53,54,54],"right_children":[2,4,6,8,10,12,14,16,18,-1,20,22,24,26,28,30,32,34,36,-1,38,40,42,44,46,48,50,52,54,56,58,60,62,64,-1,66,-1,68,70,72,74,76,78,80,82,-1,84,-1,86,-1,-1,88,90,92,94,-1,-1,-1,-1,-1,-1,-1,-1,-1,-1,-1,-1,-1,-1,-1,-1,-1,-1,-1,-1,-1,-1,-1,-1,-1,-1,-1,-1,-1,-1,-1,-1,-1,-1,-1,-1,-1,-1,-1,-1],"split_conditions":[-3.8924664E-1,7.591241E-1,-1.6307965E-1,1.1113085E0,8.779634E-1,3.4326577E-1,-1.6355959E-1,-2.4981934E-1,-3.123032E-1,2.2621779E-1,1.0364158E0,-2.3452759E-1,3.3911517E0,9.571896E-1,5.6754255E-1,-8.267032E-1,-3.0510134E-1,-4.306113E-1,-1.7993084E-1,-2.261954E-1,1.3929338E0,1.0760291E0,3.0028703E0,3.685298E-1,3.5000283E-1,3.4326577E-1,-1.6901955E-1,3.6684555E-1,2.260902E0,-1.2611444E0,2.5568372E-1,-2.2865278E-1,3.651613E-1,-1.3674417E0,-2.0343417E-1,6.589467E-2,7.367416E-2,-3.5424018E-1,-5.889356E-1,9.6976256E-1,3.0534241E0,-1.9877538E-1,7.17339E-2,-6.6267006E-2,-2.8500837E-1,-7.4224986E-2,-3.59967E-1,7.107666E-2,-2.068856E-1,2.1886651E-1,5.4141916E-2,-9.983813E-2,8.570123E-2,1.9118015E-1,6.915596E-2,-3.5636194E-2,-2.714895E-1,1.8817036E-1,-9.12637E-2,-2.0471893E-1,1.5869907E-1,-2.8478146E-1,-8.620521E-2,3.9846882E-1,9.117291E-2,-2.6068562E-1,-5.1935036E-2,-7.474603E-2,1.7285696E-1,-1.2390519E-1,9.709177E-2,4.3344136E-2,-1.4871901E-1,2.4766323E-1,3.7175436E-2,1.0712285E-1,2.8163767E-1,-2.2930068E-1,1.0510903E-2,-8.831006E-2,2.3563376E-2,-2.8746188E-1,-7.402229E-2,1.9618943E-2,2.933789E-1,-2.7650326E-1,-5.8187254E-2,1.1773313E-1,3.0180478E-1,-6.433588E-2,1.1755357E-1,-2.3393343E-1,4.553425E-2,2.3126832E-1,1.4822855E-2],"split_indices":[2,4,3,7,4,5,2,3,0,0,4,3,2,4,2,2,0,2,0,0,4,4,1,5,5,5,0,5,2,4,5,3,5,2,0,4,0,6,2,2,1,2,2,2,6,0,6,0,2,0,0,2,4,6,6,0,0,0,0,0,0,0,0,0,0,0,0,0,0,0,0,0,0,0,0,0,0,0,0,0,0,0,0,0,0,0,0,0,0,0,0,0,0,0,0],"split_type":[0,0,0,0,0,0,0,0,0,0,0,0,0,0,0,0,0,0,0,0,0,0,0,0,0,0,0,0,0,0,0,0,0,0,0,0,0,0,0,0,0,0,0,0,0,0,0,0,0,0,0,0,0,0,0,0,0,0,0,0,0,0,0,0,0,0,0,0,0,0,0,0,0,0,0,0,0,0,0,0,0,0,0,0,0,0,0,0,0,0,0,0,0,0,0],"sum_hessian":[5.315421E2,1.3051291E2,4.0102924E2,1.09895676E2,2.0617237E1,3.4943634E2,5.15929E1,9.264318E1,1.7252497E1,2.3558414E0,1.8261395E1,1.6121075E2,1.8822557E2,8.459176E0,4.313372E1,3.4309933E1,5.833325E1,1.0286625E1,6.9658723E0,2.756815E0,1.55045805E1,1.2527672E2,3.593404E1,1.785813E2,9.644262E0,6.225288E0,2.2338884E0,3.5226418E1,7.9073043E0,1.3085411E1,2.1224524E1,2.45455E1,3.3787746E1,9.257183E0,1.0294424E0,5.0154314E0,1.950441E0,5.704584E0,9.799995E0,1.12954544E2,1.2322175E1,3.0016506E1,5.917535E0,1.670194E2,1.1561916E1,1.6323223E0,8.01194E0,2.0336778E0,4.19161E0,1.186706E0,1.0471824E0,3.303424E1,2.1921787E0,3.5967321E0,4.310572E0,1.834996E0,1.1250415E1,4.757197E0,1.6467325E1,2.2547808E1,1.9976916E0,3.0829306E1,2.9584417E0,1.0004268E0,8.256756E0,3.4143255E0,1.6011058E0,1.4543716E0,4.2502127E0,6.976809E0,2.8231866E0,9.906942E1,1.3885125E1,1.0993156E1,1.3290188E0,4.8920856E0,2.512442E1,2.845595E0,3.0719402E0,5.3375942E1,1.1364345E2,7.072169E0,4.4897475E0,1.4138113E0,6.5981283E0,2.7696102E0,1.4219998E0,1.8854282E0,3.1148811E1,1.1802304E0,1.0119483E0,2.5864403E0,1.0102917E0,2.5891752E0,1.7213968E0],"tree_param":{"num_deleted":"0","num_feature":"8","num_nodes":"95","size_leaf_vector":"0"}},{"base_weights":[9.804213E-3,-3.6973187E-1,1.2672855E-1,-5.208982E-1,-1.7523241E-1,8.135677E-2,7.0708066E-1,-9.416991E-2,-6.483714E-1,-4.7524616E-2,-5.1809305E-1,5.5486336E-2,6.976108E-1,-1.4854482E-1,7.869349E-1,5.687626E-1,-6.737724E-1,-8.909799E-1,-2.8564316E-1,-5.232208E-1,6.461089E-2,-7.6541597E-1,-3.8565185E-2,2.531397E-1,-2.6194165E-2,-1.1788655E-1,8.246361E-1,1.7936686E-1,-3.8217247E-1,8.555151E-1,-3.729058E-2,1.3067954E0,-1.879744E-1,3.9649823E-1,-8.570008E-1,-9.6652824E-1,-4.1022444E-1,6.2224185E-1,-4.0233043E-1,-3.4767713E-2,-8.7462586E-1,7.0615315E-1,-9.068322E-2,-9.203143E-1,-1.2811497E-1,4.2803106E-1,-3.9323652E-1,4.271358E-1,-1.37039E-1,5.98559E-1,-5.6397583E-2,9.5097256E-1,2.841185E-1,3.4068757E-1,9.637937E-1,-7.220438E-1,7.5237393E-1,-2.376346E-1,-9.351263E-1,2.902546E-1,-6.5252984E-1,-5.6863564E-1,2.8907663E-1,4.2002186E-1,-3.069387E-1,-7.591716E-1,1.2603034E0,3.551379E-1,-2.8697047E-1,-7.779074E-1,1.8795075E-1,1.590949E-1,6.923012E-1,3.503346E-2,-6.299796E-1,-6.808122E-2,9.146247E-1,-1.1937911E-1,2.6690924E-1,2.931883E-1,1.0172018E0,-3.7837934E-1,7.0783496E-1,8.037285E-1,-2.6965088E-1,1.443086E-1,1.0199438E0],"categories":[],"categories_nodes":[],"categories_segments":[],"categories_sizes":[],"default_left":[true,true,true,true,true,true,true,true,true,true,true,true,true,true,true,true,true,true,true,true,true,true,true,true,true,false,true,false,false,true,false,false,true,false,true,false,true,false,true,true,false,true,true,false,false,false,true,true,true,true,true,true,true,true,true,false,false,false,false,false,false,false,false,false,false,false,false,false,false,false,false,false,false,false,false,false,false,false,false,false,false,false,false,false,false,false,false],"id":10,"left_children":[1,3,5,7,9,11,13,15,17,19,21,23,25,27,29,31,33,35,37,39,41,43,45,47,49,-1,51,-1,-1,53,-1,-1,55,-1,57,-1,59,-1,61,63,-1,65,67,-1,-1,-1,69,71,73,75,77,79,81,83,85,-1,-1,-1,-1,-1,-1,-1,-1,-1,-1,-1,-1,-1,-1,-1,-1,-1,-1,-1,-1,-1,-1,-1,-1,-1,-1,-1,-1,-1,-1,-1,-1],"loss_changes":[2.2135666E1,3.3629646E0,9.981913E0,3.5072994E0,2.291001E0,5.617038E0,1.9969444E0,6.630347E0,4.175518E0,2.1479552E0,1.6606848E0,5.520712E0,1.5688148E0,3.129354E-1,1.4634752E0,4.784173E0,2.1306581E0,6.819668E-1,2.543655E0,1.2861865E0,3.3480737E0,8.0501175E-1,1.14509E0,6.8451934E0,4.6111827E0,0E0,5.7770824E-1,0E0,0E0,9.7732925E-1,0E0,0E0,2.9973361E0,0E0,1.7038536E-1,0E0,1.168716E0,0E0,2.4398587E0,6.5508646E-1,0E0,6.265648E0,2.501862E0,0E0,0E0,0E0,1.012428E0,4.82096E0,2.7013674E0,2.4374638E0,4.762205E0,1.2165451E-1,1.3284733E0,1.8041375E0,7.1813583E-1,0E0,0E0,0E0,0E0,0E0,0E0,0E0,0E0,0E0,0E0,0E0,0E0,0E0,0E0,0E0,0E0,0E0,0E0,0E0,0E0,0E0,0E0,0E0,0E0,0E0,0E0,0E0,0E0,0E0,0E0,0E0,0E0],"parents":[2147483647,0,0,1,1,2,2,3,3,4,4,5,5,6,6,7,7,8,8,9,9,10,10,11,11,12,12,13,13,14,14,15,15,16,16,17,17,18,18,19,19,20,20,21,21,22,22,23,23,24,24,26,26,29,29,32,32,34,34,36,36,38,38,39,39,41,41,42,42,46,46,47,47,48,48,49,49,50,50,51,51,52,52,53,53,54,54],"right_children":[2,4,6,8,10,12,14,16,18,20,22,24,26,28,30,32,34,36,38,40,42,44,46,48,50,-1,52,-1,-1,54,-1,-1,56,-1,58,-1,60,-1,62,64,-1,66,68,-1,-1,-1,70,72,74,76,78,80,82,84,86,-1,-1,-1,-1,-1,-1,-1,-1,-1,-1,-1,-1,-1,-1,-1,-1,-1,-1,-1,-1,-1,-1,-1,-1,-1,-1,-1,-1,-1,-1,-1,-1],"split_conditions":[-3.8924664E-1,-1.9159053E-1,8.157213E-2,2.674736E-1,-1.8530022E-1,2.145583E0,-2.7560017E-1,2.9556866E0,3.5168713E-1,-3.5781324E-1,7.9873717E-1,3.095804E-1,-3.26712E-1,-1.974763E-1,3.685298E-1,2.3547247E-1,-1.2384033E0,1.1113085E0,-3.3523142E-1,-3.3409435E-1,-2.5039387E-1,-4.4152296E-1,1.2344813E0,2.9927595E0,-1.0234659E0,-3.5365965E-2,-2.0466113E-1,5.381006E-2,-1.1465175E-1,2.7510835E-2,-1.1187174E-2,3.920386E-1,-7.8578717E-1,1.1894947E-1,-3.613696E-1,-2.8995848E-1,2.893691E-1,1.8667257E-1,-4.9047135E-2,1.0550778E-1,-2.6238778E-1,-9.1696006E-1,-3.4375674E-1,-2.7609432E-1,-3.843449E-2,1.2840933E-1,2.3436484E0,-2.4803099E-1,-1.6466641E-1,-1.5978559E0,1.1113085E0,-3.2214975E-1,2.403068E0,-2.1505865E-1,-1.637598E-1,-2.1661316E-1,2.257122E-1,-7.129038E-2,-2.805379E-1,8.707638E-2,-1.9575895E-1,-1.705907E-1,8.672299E-2,1.2600656E-1,-9.2081614E-2,-2.277515E-1,3.7809104E-1,1.0654138E-1,-8.6091146E-2,-2.3337223E-1,5.6385227E-2,4.772847E-2,2.0769037E-1,1.0510039E-2,-1.8899389E-1,-2.0424368E-2,2.7438742E-1,-3.5813734E-2,8.0072775E-2,8.7956496E-2,3.0516055E-1,-1.13513805E-1,2.123505E-1,2.4111857E-1,-8.089527E-2,4.3292582E-2,3.0598316E-1],"split_indices":[2,4,0,5,0,4,2,1,5,6,4,5,0,6,5,5,2,7,0,0,3,2,4,1,4,0,3,0,0,6,0,0,4,0,6,0,5,0,0,4,0,2,6,0,0,0,4,3,6,4,7,0,4,3,2,0,0,0,0,0,0,0,0,0,0,0,0,0,0,0,0,0,0,0,0,0,0,0,0,0,0,0,0,0,0,0,0],"split_type":[0,0,0,0,0,0,0,0,0,0,0,0,0,0,0,0,0,0,0,0,0,0,0,0,0,0,0,0,0,0,0,0,0,0,0,0,0,0,0,0,0,0,0,0,0,0,0,0,0,0,0,0,0,0,0,0,0,0,0,0,0,0,0,0,0,0,0,0,0,0,0,0,0,0,0,0,0,0,0,0,0,0,0,0,0,0,0],"sum_hessian":[4.9675357E2,1.1648416E2,3.802694E2,6.459911E1,5.1885044E1,3.5375327E2,2.6516153E1,1.525852E1,4.934059E1,3.863354E1,1.3251504E1,3.405471E2,1.3206178E1,2.1900377E0,2.4326115E1,7.1263313E0,8.132189E0,2.8693077E1,2.0647516E1,6.6704583E0,3.1963083E1,8.349137E0,4.902366E0,9.896615E1,2.4158093E2,1.7895141E0,1.1416663E1,1.0077909E0,1.1822469E0,2.2422476E1,1.9036397E0,3.2397633E0,3.886568E0,1.0185715E0,7.113617E0,2.3923223E1,4.769853E0,1.8580902E0,1.8789427E1,3.2507944E0,3.4196641E0,5.537925E0,2.642516E1,6.3593845E0,1.9897527E0,2.0278032E0,2.874563E0,6.837868E1,3.0587473E1,1.0272764E1,2.3130817E2,8.63825E0,2.778413E0,4.6169343E0,1.7805542E1,2.6268215E0,1.2597466E0,1.2494985E0,5.8641186E0,1.1750426E0,3.5948102E0,1.5289408E1,3.5000184E0,1.0137016E0,2.2370927E0,1.4181018E0,4.119823E0,7.8305635E0,1.8594595E1,1.5260413E0,1.3485218E0,3.4800636E1,3.357804E1,2.3361517E1,7.2259555E0,3.5563564E0,6.716408E0,1.9412296E2,3.718521E1,1.2866086E0,7.3516417E0,1.1255573E0,1.6528558E0,2.4450836E0,2.1718507E0,1.3707106E0,1.643483E1],"tree_param":{"num_deleted":"0","num_feature":"8","num_nodes":"87","size_leaf_vector":"0"}},{"base_weights":[7.895734E-3,-1.9711627E-1,1.595349E-1,-4.070775E-1,-9.6828274E-2,9.200753E-2,6.808433E-1,-6.7948383E-1,-2.0735565E-1,-1.3027382E-1,3.663116E-1,3.6480042E-1,1.8647797E-2,8.677264E-1,3.7671626E-2,-2.8714353E-1,-9.261864E-1,7.33186E-1,-2.5817865E-1,1.09349415E-1,-2.0277153E-1,6.621318E-1,-5.349025E-1,6.72509E-1,-5.6861793E-3,-9.616456E-3,6.813494E-1,9.3753E-1,6.9036745E-2,-4.7098863E-1,4.6406302E-1,-6.537287E-1,2.0818204E-1,-8.74567E-2,-9.760045E-1,-9.2282444E-2,-5.707208E-1,4.615905E-1,-3.9269397E-1,-3.555844E-2,-3.8248962E-1,-5.3731054E-1,1.0098146E0,7.5447047E-1,-1.915182E-1,-5.3262526E-1,2.038096E-1,2.0195493E-1,-7.695373E-2,8.023458E-1,-5.821268E-2,9.917591E-2,9.7609156E-1,-6.531748E-1,4.1616123E-2,6.82579E-1,1.944936E-2,-9.098938E-1,4.0440154E-1,1.1323366E0,-5.78423E-1,-2.8527823E-1,5.538721E-1,-7.904499E-1,1.9402653E-1,-4.302164E-1,7.7708983E-1,-6.712177E-1,6.73033E-2,1.01328805E-1,-7.629904E-1,-5.9679204E-1,2.1179634E-1,1.2407206E0,4.6642184E-2,9.461919E-2,9.2475843E-1,3.8993087E-1,-6.8973947E-1,-1.2702701E0,-6.0622815E-2,5.3685564E-1,-1.1330393E-1,4.0572968E-1,-7.837616E-2,-7.0965725E-1,1.45042455E-2,3.2418624E-1,9.5812196E-1,-1.8164161E-1,-7.906978E-1],"categories":[],"categories_nodes":[],"categories_segments":[],"categories_sizes":[],"default_left":[true,true,true,true,true,true,true,true,true,true,true,true,true,true,true,true,true,false,true,true,true,true,false,true,true,true,true,true,false,true,true,true,true,false,false,true,true,true,true,true,true,false,true,true,true,true,true,true,true,true,false,false,false,true,false,false,false,false,false,false,false,false,false,false,false,false,false,false,false,false,false,false,false,false,false,false,false,false,false,false,false,false,false,false,false,false,false,false,false,false,false],"id":11,"left_children":[1,3,5,7,9,11,13,15,17,19,21,23,25,27,29,31,33,-1,35,37,39,41,-1,43,45,47,49,51,-1,53,55,57,59,-1,-1,61,63,65,67,69,71,-1,73,75,77,79,81,83,85,87,-1,-1,-1,89,-1,-1,-1,-1,-1,-1,-1,-1,-1,-1,-1,-1,-1,-1,-1,-1,-1,-1,-1,-1,-1,-1,-1,-1,-1,-1,-1,-1,-1,-1,-1,-1,-1,-1,-1,-1,-1],"loss_changes":[1.4812558E1,4.2266936E0,9.577953E0,3.405202E0,2.1918907E0,4.868335E0,3.723487E0,2.3603039E0,2.0557303E0,2.2777338E0,2.909586E0,5.8833866E0,3.6222703E0,1.2827187E0,1.9712787E0,2.3012571E0,5.919199E-1,0E0,1.9064019E0,5.629302E0,2.9924278E0,3.7383971E0,0E0,2.140294E0,2.801193E0,2.667214E0,7.5454116E-1,6.191597E-1,0E0,4.1767913E-1,4.6276426E-1,2.2908616E0,4.8930397E0,0E0,0E0,3.3847888E0,2.3224683E0,5.557746E0,1.7418747E0,5.3469186E0,6.2535186E0,0E0,1.3407011E0,2.8276014E0,1.2073474E0,2.4352272E0,1.9804766E0,2.6145415E0,8.222234E0,2.0078135E-1,0E0,0E0,0E0,6.0309052E-2,0E0,0E0,0E0,0E0,0E0,0E0,0E0,0E0,0E0,0E0,0E0,0E0,0E0,0E0,0E0,0E0,0E0,0E0,0E0,0E0,0E0,0E0,0E0,0E0,0E0,0E0,0E0,0E0,0E0,0E0,0E0,0E0,0E0,0E0,0E0,0E0,0E0],"parents":[2147483647,0,0,1,1,2,2,3,3,4,4,5,5,6,6,7,7,8,8,9,9,10,10,11,11,12,12,13,13,14,14,15,15,16,16,18,18,19,19,20,20,21,21,23,23,24,24,25,25,26,26,27,27,29,29,30,30,31,31,32,32,35,35,36,36,37,37,38,38,39,39,40,40,42,42,43,43,44,44,45,45,46,46,47,47,48,48,49,49,53,53],"right_children":[2,4,6,8,10,12,14,16,18,20,22,24,26,28,30,32,34,-1,36,38,40,42,-1,44,46,48,50,52,-1,54,56,58,60,-1,-1,62,64,66,68,70,72,-1,74,76,78,80,82,84,86,88,-1,-1,-1,90,-1,-1,-1,-1,-1,-1,-1,-1,-1,-1,-1,-1,-1,-1,-1,-1,-1,-1,-1,-1,-1,-1,-1,-1,-1,-1,-1,-1,-1,-1,-1,-1,-1,-1,-1,-1,-1],"split_conditions":[-1.4433412E-1,-5.7074034E-1,-1.6315308E-1,-4.688823E-1,3.651613E-1,2.944219E-1,5.6754255E-1,-2.5144356E-1,-4.292692E-1,2.7252644E-1,-2.1416041E-1,2.960742E0,2.10597E0,3.6684555E-1,2.260902E0,-2.2210619E-1,-1.5282016E0,2.1995582E-1,-1.8941937E-1,3.0062404E0,-3.028978E-1,-2.5159043E-1,-1.6047075E-1,1.3840289E0,-5.877216E-1,-2.5363797E-1,-2.1075624E-1,-9.983813E-2,2.0711023E-2,1.15483284E-1,6.915596E-2,3.584242E-1,-2.1837726E-1,-2.6237013E-2,-2.9280135E-1,-2.6680648E-1,3.6179274E-1,-9.442396E-1,3.063535E0,-1.8047765E-1,6.204782E-1,-1.6119316E-1,-2.0371944E-1,-3.3117753E-1,-3.5320902E-1,3.0096107E0,-3.41578E-1,3.9246482E-1,-3.6058792E-1,-3.2214975E-1,-1.7463805E-2,2.9752774E-2,2.928275E-1,-9.980457E-2,1.2484837E-2,2.0477371E-1,5.8348086E-3,-2.7296814E-1,1.2132046E-1,3.39701E-1,-1.7352691E-1,-8.558347E-2,1.6616164E-1,-2.3713498E-1,5.8207963E-2,-1.2906493E-1,2.3312695E-1,-2.013653E-1,2.0190991E-2,3.0398643E-2,-2.2889714E-1,-1.7903762E-1,6.353891E-2,3.722162E-1,1.3992656E-2,2.8385758E-2,2.7742755E-1,1.1697926E-1,-2.0692185E-1,-3.8108104E-1,-1.8186845E-2,1.610567E-1,-3.399118E-2,1.21718906E-1,-2.351285E-2,-2.1289718E-1,4.3512736E-3,9.725588E-2,2.874366E-1,-5.4492485E-2,-2.3720935E-1],"split_indices":[2,2,3,4,5,5,2,3,4,5,6,1,4,5,2,6,2,0,6,1,0,3,0,2,4,3,3,2,0,6,6,5,0,0,0,6,5,4,1,2,4,0,3,0,6,1,6,2,6,0,0,0,0,3,0,0,0,0,0,0,0,0,0,0,0,0,0,0,0,0,0,0,0,0,0,0,0,0,0,0,0,0,0,0,0,0,0,0,0,0,0],"split_type":[0,0,0,0,0,0,0,0,0,0,0,0,0,0,0,0,0,0,0,0,0,0,0,0,0,0,0,0,0,0,0,0,0,0,0,0,0,0,0,0,0,0,0,0,0,0,0,0,0,0,0,0,0,0,0,0,0,0,0,0,0,0,0,0,0,0,0,0,0,0,0,0,0,0,0,0,0,0,0,0,0,0,0,0,0,0,0,0,0,0,0],"sum_hessian":[4.7446262E2,2.0160214E2,2.7286047E2,6.4179E1,1.3742314E2,2.4261055E2,3.024992E1,2.6133127E1,3.8045876E1,1.2883786E2,8.585281E0,5.057424E1,1.9203632E2,2.3168756E1,7.081164E0,1.0924079E1,1.5209049E1,1.262141E0,3.6783733E1,2.9807673E1,9.903018E1,6.6633506E0,1.9219308E0,2.7182522E1,2.339172E1,1.8512616E2,6.91015E0,2.1146746E1,2.0220108E0,3.1813753E0,3.8997886E0,6.0941024E0,4.8299766E0,1.0072176E0,1.4201832E1,2.487529E1,1.1908445E1,1.7564638E1,1.2243034E1,5.1920357E1,4.710983E1,1.374876E0,5.2884746E0,2.494321E1,2.23931E0,6.2155356E0,1.7176184E1,4.4212585E1,1.4091357E2,5.865611E0,1.0445387E0,1.0869788E0,2.0059767E1,2.1448436E0,1.0365316E0,2.2558696E0,1.6439191E0,5.0191083E0,1.0749941E0,2.0187244E0,2.8112519E0,1.9584282E1,5.2910066E0,9.224445E0,2.6840003E0,4.4950604E0,1.3069578E1,7.339726E0,4.903308E0,4.4421818E1,7.498539E0,3.462108E1,1.24887495E1,4.0333743E0,1.2551005E0,5.4357576E0,1.9507454E1,1.1336445E0,1.1056657E0,1.7653743E0,4.450161E0,8.039655E0,9.136529E0,2.5343145E1,1.8869442E1,1.6943005E1,1.2397057E2,2.1984642E0,3.667147E0,1.0083305E0,1.1365131E0],"tree_param":{"num_deleted":"0","num_feature":"8","num_nodes":"91","size_leaf_vector":"0"}},{"base_weights":[6.5465625E-3,-2.2846948E-1,1.01349525E-1,-5.492483E-2,-4.040071E-1,7.186341E-2,8.8637555E-1,-1.4467871E-1,7.1085835E-1,2.8160939E-2,-5.055776E-1,-2.0026414E-2,2.3585635E-1,1.3687336E-1,9.464837E-1,-5.1903033E-1,-3.7182678E-2,1.5012757E0,8.6560085E-2,8.5391605E-1,-5.562947E-1,-7.335838E-1,-1.4688605E-1,2.8991558E-2,-4.5806146E-1,5.562553E-1,7.926156E-2,-7.1661353E-1,3.717917E-1,-2.1109964E-1,1.7194407E-1,-5.983986E-1,6.262608E-1,2.3675166E-2,1.1145235E0,-8.7266237E-1,1.8833394E-1,-8.975252E-1,-3.9685315E-1,-2.8948677E-1,2.7928653E-1,-1.20056726E-1,4.5078173E-1,-1.1619253E0,-1.5815099E-1,6.8524903E-1,-2.1833324E-1,3.1798933E-2,7.620515E-1,-8.0781436E-1,8.045827E-2,1.1008981E0,-5.770034E-1,-2.8500733E-1,5.4299486E-1,1.2798648E0,-1.2095798E-1,6.00422E-2,9.334807E-1,-2.807263E-1,5.7913846E-1,-8.23969E-2,-9.593974E-1,-6.8588465E-1,1.6225483E-1,-4.6173957E-1,2.3003107E-1,7.509779E-1,-2.5434932E-1,-2.1500865E-1,2.8961548E-1,1.0172846E0,-2.1002796E-2,-1.5253477E0,9.565479E-2,5.9977744E-2,-7.9784924E-1,9.270112E-1,4.9414635E-1,2.3019911E-1,-4.784282E-1,1.1842382E-1,-4.6888873E-1],"categories":[],"categories_nodes":[],"categories_segments":[],"categories_sizes":[],"default_left":[true,true,true,true,true,true,true,true,true,true,true,true,true,false,false,true,true,false,true,true,true,true,true,true,true,true,true,true,true,true,true,false,true,false,false,false,true,true,true,true,true,true,true,true,true,true,true,true,false,false,false,false,false,false,false,false,false,false,false,false,false,false,false,false,false,false,false,false,false,false,false,false,false,false,false,false,false,false,false,false,false,false,false],"id":12,"left_children":[1,3,5,7,9,11,13,15,17,19,21,23,25,-1,-1,27,29,-1,31,33,35,37,39,41,43,45,47,49,51,53,55,-1,57,-1,-1,-1,59,61,63,65,67,69,71,73,75,77,79,81,-1,-1,-1,-1,-1,-1,-1,-1,-1,-1,-1,-1,-1,-1,-1,-1,-1,-1,-1,-1,-1,-1,-1,-1,-1,-1,-1,-1,-1,-1,-1,-1,-1,-1,-1],"loss_changes":[1.0119629E1,3.9552283E0,7.426691E0,4.6949363E0,2.856535E0,4.720949E0,3.9422798E-1,2.4206629E0,3.4122086E0,6.87909E0,4.184428E0,4.339828E0,5.598768E0,0E0,0E0,2.6337123E0,1.7887704E0,0E0,2.2496457E0,1.248867E0,2.1374233E0,1.4012775E0,1.3963464E0,1.1506121E1,4.109721E0,3.822235E0,2.4617665E0,8.9003944E-1,2.7796977E0,1.645919E0,7.4331E0,0E0,5.2239776E-1,0E0,0E0,0E0,7.71153E-1,9.608288E-1,2.0855565E0,1.6015844E0,1.6851778E0,5.3287687E0,1.2789682E1,2.8512592E0,2.1994517E0,1.0088615E0,8.1076354E-1,3.211685E0,0E0,0E0,0E0,0E0,0E0,0E0,0E0,0E0,0E0,0E0,0E0,0E0,0E0,0E0,0E0,0E0,0E0,0E0,0E0,0E0,0E0,0E0,0E0,0E0,0E0,0E0,0E0,0E0,0E0,0E0,0E0,0E0,0E0,0E0,0E0],"parents":[2147483647,0,0,1,1,2,2,3,3,4,4,5,5,6,6,7,7,8,8,9,9,10,10,11,11,12,12,15,15,16,16,18,18,19,19,20,20,21,21,22,22,23,23,24,24,25,25,26,26,27,27,28,28,29,29,30,30,32,32,36,36,37,37,38,38,39,39,40,40,41,41,42,42,43,43,44,44,45,45,46,46,47,47],"right_children":[2,4,6,8,10,12,14,16,18,20,22,24,26,-1,-1,28,30,-1,32,34,36,38,40,42,44,46,48,50,52,54,56,-1,58,-1,-1,-1,60,62,64,66,68,70,72,74,76,78,80,82,-1,-1,-1,-1,-1,-1,-1,-1,-1,-1,-1,-1,-1,-1,-1,-1,-1,-1,-1,-1,-1,-1,-1,-1,-1,-1,-1,-1,-1,-1,-1,-1,-1,-1,-1],"split_conditions":[-3.011094E-1,-3.090881E-1,2.2888622E-1,-3.1384975E-1,2.57368E-1,4.608812E-2,6.0154246E-3,-9.091663E-1,-3.1208867E-1,1.2992026E0,2.8376678E-1,-1.2354866E-2,3.415815E-1,4.1062012E-2,2.839451E-1,1.1113085E0,-3.519007E-1,4.503827E-1,-3.1087485E-1,-2.5628188E-1,3.063535E0,3.5505566E-1,3.63477E-1,-2.4702567E-1,-1.702801E-1,3.0601647E0,3.4774432E0,3.051739E0,-1.3674417E0,3.651613E-1,-2.5214767E-1,-1.795196E-1,-2.3120365E-1,7.10255E-3,3.3435708E-1,-2.617987E-1,-2.0454803E-1,2.7252644E-1,-4.9047135E-2,1.7494519E0,-2.1176688E-1,1.1113085E0,-2.2000286E-1,1.5018761E-1,-1.9159053E-1,4.026061E-1,-3.3250824E-1,3.6684555E-1,2.2861546E-1,-2.4234432E-1,2.4137482E-2,3.3026946E-1,-1.7310104E-1,-8.55022E-2,1.6289847E-1,3.8395944E-1,-3.6287393E-2,1.801266E-2,2.8004423E-1,-8.42179E-2,1.7374155E-1,-2.4719073E-2,-2.8781924E-1,-2.0576541E-1,4.867645E-2,-1.3852188E-1,6.900933E-2,2.2529337E-1,-7.63048E-2,-6.45026E-2,8.688465E-2,3.051854E-1,-6.300839E-3,-4.5760432E-1,2.8696438E-2,1.7993324E-2,-2.3935477E-1,2.7810338E-1,1.482439E-1,6.905974E-2,-1.4352848E-1,3.5527147E-2,-1.4066662E-1],"split_indices":[2,0,3,0,5,4,0,2,0,1,4,6,5,0,0,7,6,0,0,0,1,5,5,6,0,1,2,1,2,5,3,0,4,0,0,0,0,5,0,4,6,7,6,2,4,4,6,5,0,0,0,0,0,0,0,0,0,0,0,0,0,0,0,0,0,0,0,0,0,0,0,0,0,0,0,0,0,0,0,0,0,0,0],"split_type":[0,0,0,0,0,0,0,0,0,0,0,0,0,0,0,0,0,0,0,0,0,0,0,0,0,0,0,0,0,0,0,0,0,0,0,0,0,0,0,0,0,0,0,0,0,0,0,0,0,0,0,0,0,0,0,0,0,0,0,0,0,0,0,0,0,0,0,0,0,0,0,0,0,0,0,0,0,0,0,0,0,0,0],"sum_hessian":[4.521587E2,1.2956294E2,3.2259576E2,6.5811516E1,6.375142E1,3.119695E2,1.0626245E1,5.963325E1,6.1782646E0,1.2269441E1,5.148198E1,2.0050107E2,1.1146847E2,1.0322317E0,9.594013E0,1.2449586E1,4.7183666E1,2.106503E0,4.0717616E0,4.893937E0,7.375503E0,3.083574E1,2.0646242E1,1.8116208E2,1.9338985E1,3.5756695E1,7.571177E1,1.0349614E1,2.0999718E0,2.5755268E1,2.1428396E1,1.7464732E0,2.3252885E0,1.4297857E0,3.4641516E0,5.055604E0,2.319899E0,1.961872E1,1.121702E1,1.5710209E1,4.9360323E0,1.3438849E2,4.6773586E1,4.9193826E0,1.4419603E1,3.0751007E1,5.0056887E0,7.176945E1,3.9423218E0,9.274903E0,1.0747102E0,1.0968103E0,1.0031613E0,2.4022875E1,1.7323927E0,3.7759655E0,1.7652431E1,1.2383666E0,1.086922E0,1.1824013E0,1.1374979E0,1.5485982E0,1.807012E1,7.244974E0,3.972046E0,1.1881846E1,3.8283632E0,2.4038959E0,2.5321364E0,1.0948722E2,2.490127E1,2.0727936E1,2.604565E1,3.6512897E0,1.2680929E0,1.142878E1,2.9908237E0,1.18759775E1,1.887503E1,1.8794792E0,3.1262093E0,6.1834774E1,9.93467E0],"tree_param":{"num_deleted":"0","num_feature":"8","num_nodes":"83","size_leaf_vector":"0"}},{"base_weights":[7.6268762E-3,-1.194177E-1,1.2128308E-1,-9.6892565E-2,-1.0412197E0,2.759302E-1,-5.441338E-2,-1.0070056E0,-8.010515E-2,1.7979191E-1,-1.6246257E0,1.4214946E-1,7.095707E-1,-2.093324E-1,1.7595087E-1,2.048071E-1,-1.3568626E-1,-2.1989512E0,-3.7123153E-1,8.614596E-1,9.278827E-2,8.0795825E-1,-3.3759537E-1,-8.418485E-1,-7.9484634E-2,5.6729805E-2,4.77367E-1,9.035234E-1,-2.0704216E-1,-2.818008E-1,5.8423136E-3,9.830086E-1,1.5035072E-1,3.909189E-3,4.9825284E-1,9.278259E-1,4.0608588E-1,-8.555332E-1,2.988709E-1,2.2590345E-1,-1.1369733E0,2.0458205E-1,-3.8740045E-1,6.236669E-1,-7.754735E-2,1.079177E0,2.499627E-1,1.9198789E-1,1.0459656E0,-3.36143E-1,9.011302E-1,-3.973175E-1,2.3764665E-1,5.559823E-2,-6.4169353E-1,6.560728E-2,-6.522255E-1,-2.705265E-1,6.8080264E-1,5.0849177E-2,9.7253984E-1,1.14510115E-2,7.752442E-1,5.118148E-1,-1.4409453E-1,1.323247E-1,-1.4530302E0,8.008693E-1,2.3813173E-2,-4.8283038E-1,1.6414262E-1,9.144941E-1,-1.06369816E-1,-5.227259E-1,1.2994568E-1,-3.787773E-1,3.990257E-1],"categories":[],"categories_nodes":[],"categories_segments":[],"categories_sizes":[],"default_left":[true,true,true,true,true,true,true,false,true,false,true,true,true,true,true,true,true,false,false,true,true,true,true,true,true,true,true,true,true,true,true,false,false,true,true,true,true,false,false,true,true,true,true,true,true,false,true,false,false,false,false,false,false,false,false,false,false,false,false,false,false,false,false,false,false,false,false,false,false,false,false,false,false,false,false,false,false],"id":13,"left_children":[1,3,5,7,9,11,13,-1,15,-1,17,19,21,23,25,27,29,-1,-1,31,33,35,37,39,41,43,45,47,49,51,53,-1,-1,55,57,59,61,-1,-1,63,65,67,69,71,73,-1,75,-1,-1,-1,-1,-1,-1,-1,-1,-1,-1,-1,-1,-1,-1,-1,-1,-1,-1,-1,-1,-1,-1,-1,-1,-1,-1,-1,-1,-1,-1],"loss_changes":[6.2918286E0,4.1719093E0,6.263118E0,3.0052133E0,3.7155786E0,7.0038795E0,3.9084811E0,0E0,3.185505E0,0E0,1.5964317E0,3.2876267E0,3.2218266E0,5.2980156E0,1.5599893E0,9.668566E0,3.4645257E0,0E0,0E0,3.682065E-1,3.236904E0,8.9785004E-1,1.2986088E0,3.7299457E0,4.916293E0,2.5439548E0,1.4248781E0,1.0565004E0,3.3850274E0,5.039616E0,2.8078547E0,0E0,0E0,3.0677886E0,2.450801E0,7.1923065E-1,1.1358175E0,0E0,0E0,4.1447815E-1,3.7228155E0,3.1519518E0,1.4941411E0,1.4535623E0,2.5983465E0,0E0,1.115385E0,0E0,0E0,0E0,0E0,0E0,0E0,0E0,0E0,0E0,0E0,0E0,0E0,0E0,0E0,0E0,0E0,0E0,0E0,0E0,0E0,0E0,0E0,0E0,0E0,0E0,0E0,0E0,0E0,0E0,0E0],"parents":[2147483647,0,0,1,1,2,2,3,3,4,4,5,5,6,6,8,8,10,10,11,11,12,12,13,13,14,14,15,15,16,16,19,19,20,20,21,21,22,22,23,23,24,24,25,25,26,26,27,27,28,28,29,29,30,30,33,33,34,34,35,35,36,36,39,39,40,40,41,41,42,42,43,43,44,44,46,46],"right_children":[2,4,6,8,10,12,14,-1,16,-1,18,20,22,24,26,28,30,-1,-1,32,34,36,38,40,42,44,46,48,50,52,54,-1,-1,56,58,60,62,-1,-1,64,66,68,70,72,74,-1,76,-1,-1,-1,-1,-1,-1,-1,-1,-1,-1,-1,-1,-1,-1,-1,-1,-1,-1,-1,-1,-1,-1,-1,-1,-1,-1,-1,-1,-1,-1],"split_conditions":[-6.796432E-2,-7.2241366E-2,3.9400357E-1,-1.6176624E0,-4.688823E-1,-2.2387952E-1,2.5790496E0,-3.0210167E-1,2.4726236E-1,5.3937577E-2,-2.4977183E-1,-1.1819183E0,3.6684555E-1,-7.0656097E-1,-2.3236342E-1,2.9674826E0,-1.9159053E-1,-6.596854E-1,-1.1136946E-1,2.2641897E-1,2.1099368E-1,3.5337138E-1,-1.4193466E-1,-3.6152482E-1,8.0281943E-1,-3.3304274E-1,-3.285028E-1,-1.3007576E0,-1.394963E-1,1.1113085E0,4.0337455E-2,2.949026E-1,4.510522E-2,2.0888004E-1,-3.5480013E-1,-3.294397E-1,-2.0312157E-1,-2.5665995E-1,8.966127E-2,3.340023E-1,-1.0828855E0,3.2642305E-1,1.1113085E0,3.651613E-1,3.297916E-1,3.2375312E-1,-3.1743446E-1,5.7596367E-2,3.1378967E-1,-1.008429E-1,2.7033907E-1,-1.1919525E-1,7.1294E-2,1.667947E-2,-1.9250807E-1,1.9682184E-2,-1.9566765E-1,-8.115795E-2,2.042408E-1,1.5254754E-2,2.9176196E-1,3.4353037E-3,2.3257326E-1,1.5354444E-1,-4.3228358E-2,3.969741E-2,-4.359091E-1,2.402608E-1,7.1439524E-3,-1.4484912E-1,4.924279E-2,2.7434823E-1,-3.1910945E-2,-1.5681776E-1,3.8983706E-2,-1.1363319E-1,1.1970772E-1],"split_indices":[2,2,2,4,4,3,2,0,5,0,3,4,5,4,3,1,4,0,0,2,2,5,3,6,2,0,6,4,2,7,6,0,0,2,6,6,0,0,0,5,4,5,7,5,5,0,6,0,0,0,0,0,0,0,0,0,0,0,0,0,0,0,0,0,0,0,0,0,0,0,0,0,0,0,0,0,0],"split_type":[0,0,0,0,0,0,0,0,0,0,0,0,0,0,0,0,0,0,0,0,0,0,0,0,0,0,0,0,0,0,0,0,0,0,0,0,0,0,0,0,0,0,0,0,0,0,0,0,0,0,0,0,0,0,0,0,0,0,0,0,0,0,0,0,0,0,0,0,0,0,0,0,0,0,0,0,0],"sum_hessian":[4.3373718E2,2.0478188E2,2.2895529E2,2.0097595E2,3.8059316E0,1.2146869E2,1.074866E2,2.5716355E0,1.9840431E2,1.4542184E0,2.3517132E0,9.38448E1,2.7623884E1,6.432177E1,4.3164833E1,3.1948664E1,1.6645564E2,1.0953903E0,1.2563229E0,4.9698653E0,8.887494E1,2.546018E1,2.1637037E0,1.0021511E1,5.430026E1,3.1782076E1,1.1382759E1,1.1405324E1,2.054334E1,8.1413246E1,8.5042404E1,3.917834E0,1.0520312E0,7.3724045E1,1.5150897E1,1.860273E1,6.85745E0,1.0031646E0,1.1605389E0,2.2209034E0,7.800608E0,2.841848E1,2.588178E1,5.3881063E0,2.639397E1,2.0944114E0,9.288347E0,2.294006E0,9.111319E0,1.9023762E1,1.5195779E0,6.679437E1,1.461887E1,7.982304E1,5.219372E0,6.8210075E1,5.5139656E0,2.8148167E0,1.2336081E1,1.0061549E0,1.7596575E1,3.8126736E0,3.0447767E0,1.036596E0,1.1843075E0,1.6710255E0,6.1295824E0,5.813063E0,2.2605417E1,2.2170368E1,3.7114124E0,3.6724365E0,1.7156696E0,7.908008E0,1.8485962E1,1.4847392E0,7.803608E0],"tree_param":{"num_deleted":"0","num_feature":"8","num_nodes":"77","size_leaf_vector":"0"}},{"base_weights":[8.7183695E-3,-1.5340646E-1,7.587523E-2,-1.7136047E-2,-3.049663E-1,5.4093465E-2,7.9713964E-1,-9.092989E-2,6.262937E-1,-4.666349E-1,-5.8979757E-2,7.7977024E-2,-4.3185705E-1,1.7475042E-1,8.789781E-1,-4.108842E-1,-1.338829E-2,1.314145E0,7.3335454E-2,8.081995E-3,-6.5719473E-1,-2.2196855E-1,2.4540216E-1,2.8202085E-2,3.195696E-1,-9.624814E-1,7.2965296E-3,-5.517006E-1,5.292264E-1,-1.8223043E-1,1.7442684E-1,-5.32053E-1,5.224221E-1,4.0036067E-1,-5.27102E-1,-9.190915E-1,-2.5070947E-1,9.316515E-3,-5.458059E-1,8.488376E-1,-2.4238509E-1,8.403008E-3,8.807978E-1,5.91449E-1,-2.3962045E-2,-3.1991068E-1,4.052704E-1,-7.0751226E-1,1.1481476E-1,5.538732E-2,-4.1833946E-1,8.85711E-1,-2.4672896E-2,4.8894703E-2,7.582523E-1,-1.6447355E-1,9.964101E-1,-7.8624535E-1,1.9437212E-1,-9.7129077E-1,-3.5411817E-1,-7.502536E-1,-1.0891114E-2,2.9063305E-1,-2.6063284E-1,-7.636124E-1,1.3057837E-1,1.614088E-1,1.0661066E0,-7.165108E-1,2.3172201E-1,9.4902545E-1,-6.7815785E-3,7.747794E-1,-1.974438E-2,-4.613881E-1,4.8655257E-1,-4.8222695E-3,-6.8931484E-1,8.0718434E-1,-3.69201E-1],"categories":[],"categories_nodes":[],"categories_segments":[],"categories_sizes":[],"default_left":[true,true,true,true,true,true,true,true,true,true,true,true,true,false,false,true,true,false,true,true,true,true,true,true,true,false,true,true,false,true,true,false,true,true,true,true,true,true,true,true,true,true,false,true,true,true,true,false,false,false,false,false,false,false,false,false,false,false,false,false,false,false,false,false,false,false,false,false,false,false,false,false,false,false,false,false,false,false,false,false,false],"id":14,"left_children":[1,3,5,7,9,11,13,15,17,19,21,23,25,-1,-1,27,29,-1,31,33,35,37,39,41,43,-1,45,47,-1,49,51,-1,53,55,57,59,61,63,65,67,69,71,-1,73,75,77,79,-1,-1,-1,-1,-1,-1,-1,-1,-1,-1,-1,-1,-1,-1,-1,-1,-1,-1,-1,-1,-1,-1,-1,-1,-1,-1,-1,-1,-1,-1,-1,-1,-1,-1],"loss_changes":[4.5533433E0,2.525006E0,4.6012907E0,3.1702325E0,2.2767339E0,3.3766527E0,2.8409767E-1,1.4755378E0,2.517808E0,3.1550708E0,1.2512554E0,3.302587E0,3.186906E0,0E0,0E0,1.829138E0,1.5883037E0,0E0,1.60176E0,2.5122359E0,2.415825E0,1.2211261E0,2.8218026E0,3.8656662E0,4.399092E0,0E0,1.2311896E0,1.1808496E0,0E0,1.5007613E0,3.384895E0,0E0,3.314491E-1,2.484671E0,1.1003275E0,9.0815544E-2,1.3234224E0,8.696812E-1,1.0987289E0,4.544704E-1,1.4456613E0,3.2235494E0,0E0,2.9561815E0,5.0708294E0,6.0206085E-1,1.6233864E0,0E0,0E0,0E0,0E0,0E0,0E0,0E0,0E0,0E0,0E0,0E0,0E0,0E0,0E0,0E0,0E0,0E0,0E0,0E0,0E0,0E0,0E0,0E0,0E0,0E0,0E0,0E0,0E0,0E0,0E0,0E0,0E0,0E0,0E0],"parents":[2147483647,0,0,1,1,2,2,3,3,4,4,5,5,6,6,7,7,8,8,9,9,10,10,11,11,12,12,15,15,16,16,18,18,19,19,20,20,21,21,22,22,23,23,24,24,26,26,27,27,29,29,30,30,32,32,33,33,34,34,35,35,36,36,37,37,38,38,39,39,40,40,41,41,43,43,44,44,45,45,46,46],"right_children":[2,4,6,8,10,12,14,16,18,20,22,24,26,-1,-1,28,30,-1,32,34,36,38,40,42,44,-1,46,48,-1,50,52,-1,54,56,58,60,62,64,66,68,70,72,-1,74,76,78,80,-1,-1,-1,-1,-1,-1,-1,-1,-1,-1,-1,-1,-1,-1,-1,-1,-1,-1,-1,-1,-1,-1,-1,-1,-1,-1,-1,-1,-1,-1,-1,-1,-1,-1],"split_conditions":[-2.8137583E-1,-3.090881E-1,2.2888622E-1,-3.134856E-1,2.8376678E-1,3.685298E-1,-1.7534602E-1,-9.091663E-1,-3.1208867E-1,2.7252644E-1,-1.7989194E-1,-2.2353825E-1,2.4351525E0,5.2425127E-2,2.6369342E-1,3.0626924E0,-3.519007E-1,3.942435E-1,-3.1087485E-1,1.2992026E0,3.5505566E-1,-2.2842383E-1,-1.0408972E-1,5.40723E-2,3.5337138E-1,-2.8874442E-1,-2.8648585E-1,1.1113085E0,1.5876794E-1,-3.6144444E-1,-2.5214767E-1,-1.596159E-1,-2.3120365E-1,-7.461741E-1,-3.5385814E-1,6.4750127E-3,-6.273347E-1,-2.1950561E-1,3.63477E-1,3.4663433E-1,1.1552551E0,-2.7194536E-1,2.6423934E-1,5.616793E-1,2.0454055E-1,-3.2884377E-1,-5.415822E-2,-2.1225369E-1,3.444443E-2,1.6616197E-2,-1.2550184E-1,2.657133E-1,-7.401869E-3,1.4668412E-2,2.274757E-1,-4.9342066E-2,2.9892305E-1,-2.3587361E-1,5.8311637E-2,-2.9138723E-1,-1.0623545E-1,-2.250761E-1,-3.2673345E-3,8.718992E-2,-7.818986E-2,-2.2908373E-1,3.9173514E-2,4.8422642E-2,3.1983197E-1,-2.1495324E-1,6.951661E-2,2.8470764E-1,-2.0344737E-3,2.3243383E-1,-5.923314E-3,-1.3841644E-1,1.4596577E-1,-1.4466809E-3,-2.0679446E-1,2.4215531E-1,-1.1076031E-1],"split_indices":[2,0,3,0,4,5,2,2,0,5,3,3,2,0,0,1,6,0,0,1,5,3,3,0,5,0,6,7,0,6,3,0,4,4,2,4,4,0,5,5,4,2,0,2,4,6,6,0,0,0,0,0,0,0,0,0,0,0,0,0,0,0,0,0,0,0,0,0,0,0,0,0,0,0,0,0,0,0,0,0,0],"split_type":[0,0,0,0,0,0,0,0,0,0,0,0,0,0,0,0,0,0,0,0,0,0,0,0,0,0,0,0,0,0,0,0,0,0,0,0,0,0,0,0,0,0,0,0,0,0,0,0,0,0,0,0,0,0,0,0,0,0,0,0,0,0,0,0,0,0,0,0,0,0,0,0,0,0,0,0,0,0,0,0,0],"sum_hessian":[4.1613718E2,1.21510864E2,2.946263E2,6.456883E1,5.694203E1,2.8703308E2,7.593232E0,5.8695793E1,5.8730392E0,3.38186E1,2.3123432E1,2.7438702E2,1.26460705E1,1.2467654E0,6.346467E0,1.0611487E1,4.8084305E1,2.00382E0,3.8692195E0,9.961185E0,2.3857412E1,1.5235803E1,7.8876295E0,2.2843884E2,4.5948166E1,5.1870017E0,7.4590693E0,9.58842E0,1.0230677E0,2.5336775E1,2.2747532E1,1.5691677E0,2.3000517E0,5.89338E0,4.067805E0,1.3742261E1,1.0115151E1,9.454568E0,